<?xml version="1.0" encoding="ISO-8859-1"?>
<smile version="1.0" id="Network2" numsamples="1000" discsamples="10000">
	<nodes>
		<cpt id="StreamGradient">
			<state id="HighStreamGradient" />
			<state id="ModerateStreamGradient" />
			<state id="LowStreamGradient" />
			<probabilities>0.2 0.4 0.4</probabilities>
		</cpt>
		<cpt id="FloodplainWidth">
			<state id="VeryWideFloodplainWidth" />
			<state id="WideFloodplainWidth" />
			<state id="NarrowFloodplainWidth" />
			<state id="VeryNarrowFloodplainWidth" />
			<probabilities>0.2 0.3 0.3 0.2</probabilities>
		</cpt>
		<cpt id="Levees">
			<state id="LeveePresent" />
			<state id="LeveeAbsent" />
			<probabilities>0.01 0.99</probabilities>
		</cpt>
		<cpt id="FloodplainVegetationCover">
			<state id="VeryHighFloodplainVegetationCover" />
			<state id="HighFloodplainVegetationCover" />
			<state id="ModerateFloodplainVegetationCover" />
			<state id="LowFloodplainVegetationCover" />
			<state id="VeryLowFloodplainVegetationCover" />
			<probabilities>0.25 0.25 0.25 0.15 0.1</probabilities>
		</cpt>
		<cpt id="Reservoirs">
			<state id="ReservoirPresent" />
			<state id="ReservoirAbsent" />
			<probabilities>0.001 0.999</probabilities>
		</cpt>
		<cpt id="Bridges">
			<state id="BridgePresent" />
			<state id="BridgeAbsent" />
			<probabilities>0.001 0.999</probabilities>
		</cpt>
		<cpt id="SedimentSink">
			<state id="HighSediment" />
			<state id="ModerateSediment" />
			<state id="LowSediment" />
			<state id="NoSediment" />
			<parents>Reservoirs StreamGradient Bridges Levees FloodplainWidth FloodplainVegetationCover</parents>
			<probabilities>1 0 0 0 1 0 0 0 1 0 0 0 1 0 0 0 1 0 0 0 1 0 0 0 1 0 0 0 1 0 0 0 1 0 0 0 1 0 0 0 1 0 0 0 1 0 0 0 1 0 0 0 1 0 0 0 1 0 0 0 1 0 0 0 1 0 0 0 1 0 0 0 1 0 0 0 1 0 0 0 1 0 0 0 1 0 0 0 1 0 0 0 1 0 0 0 1 0 0 0 1 0 0 0 1 0 0 0 1 0 0 0 1 0 0 0 1 0 0 0 1 0 0 0 1 0 0 0 1 0 0 0 1 0 0 0 1 0 0 0 1 0 0 0 1 0 0 0 1 0 0 0 1 0 0 0 1 0 0 0 1 0 0 0 1 0 0 0 1 0 0 0 1 0 0 0 1 0 0 0 1 0 0 0 1 0 0 0 1 0 0 0 1 0 0 0 1 0 0 0 1 0 0 0 1 0 0 0 1 0 0 0 1 0 0 0 1 0 0 0 1 0 0 0 1 0 0 0 1 0 0 0 1 0 0 0 1 0 0 0 1 0 0 0 1 0 0 0 1 0 0 0 1 0 0 0 1 0 0 0 1 0 0 0 1 0 0 0 1 0 0 0 1 0 0 0 1 0 0 0 1 0 0 0 1 0 0 0 1 0 0 0 1 0 0 0 1 0 0 0 1 0 0 0 1 0 0 0 1 0 0 0 1 0 0 0 1 0 0 0 1 0 0 0 1 0 0 0 1 0 0 0 1 0 0 0 1 0 0 0 1 0 0 0 1 0 0 0 1 0 0 0 1 0 0 0 1 0 0 0 1 0 0 0 1 0 0 0 1 0 0 0 1 0 0 0 1 0 0 0 1 0 0 0 1 0 0 0 1 0 0 0 1 0 0 0 1 0 0 0 1 0 0 0 1 0 0 0 1 0 0 0 1 0 0 0 1 0 0 0 1 0 0 0 1 0 0 0 1 0 0 0 1 0 0 0 1 0 0 0 1 0 0 0 1 0 0 0 1 0 0 0 1 0 0 0 1 0 0 0 1 0 0 0 1 0 0 0 1 0 0 0 1 0 0 0 1 0 0 0 1 0 0 0 1 0 0 0 1 0 0 0 1 0 0 0 1 0 0 0 1 0 0 0 1 0 0 0 1 0 0 0 1 0 0 0 1 0 0 0 1 0 0 0 1 0 0 0 1 0 0 0 1 0 0 0 1 0 0 0 1 0 0 0 1 0 0 0 1 0 0 0 1 0 0 0 1 0 0 0 1 0 0 0 1 0 0 0 1 0 0 0 1 0 0 0 1 0 0 0 1 0 0 0 1 0 0 0 1 0 0 0 1 0 0 0 1 0 0 0 1 0 0 0 1 0 0 0 1 0 0 0 1 0 0 0 1 0 0 0 1 0 0 0 1 0 0 0 1 0 0 0 1 0 0 0 1 0 0 0 1 0 0 0 1 0 0 0 1 0 0 0 1 0 0 0 1 0 0 0 1 0 0 0 1 0 0 0 1 0 0 0 1 0 0 0 1 0 0 0 1 0 0 0 1 0 0 0 1 0 0 0 1 0 0 0 1 0 0 0 1 0 0 0 1 0 0 0 1 0 0 0 1 0 0 0 1 0 0 0 1 0 0 0 1 0 0 0 1 0 0 0 1 0 0 0 1 0 0 0 1 0 0 0 1 0 0 0 1 0 0 0 1 0 0 0 1 0 0 0 1 0 0 0 1 0 0 0 1 0 0 0 1 0 0 0 1 0 0 0 1 0 0 0 1 0 0 0 1 0 0 0 1 0 0 0 1 0 0 0 1 0 0 0 1 0 0 0 1 0 0 0 1 0 0 0 1 0 0 0 1 0 0 0 1 0 0 0 1 0 0 0 1 0 0 0 1 0 0 0 1 0 0 0 1 0 0 0 1 0 0 0 1 0 0 0 1 0 0 0 1 0 0 0 1 0 0 0 1 0 0 0 1 0 0 0 1 0 0 0 1 0 0 0 1 0 0 0 1 0 0 0 1 0 0 0 1 0 0 0 1 0 0 0 1 0 0 0 1 0 0 0 1 0 0 0 1 0 0 0 1 0 0 0 1 0 0 0 1 0 0 0 1 0 0 0 1 0 0 0 1 0 0 0 1 0 0 0 1 0 0 0 1 0 0 0 1 0 0 0 0 0.05 0.3 0.65 0 0.05 0.25 0.7 0 0 0.2 0.8 0 0 0.1 0.9 0 0 0.05 0.95 0 0.05 0.3 0.65 0 0.05 0.25 0.7 0 0 0.2 0.8 0 0 0.1 0.9 0 0 0.05 0.95 0 0.05 0.3 0.65 0 0.05 0.25 0.7 0 0 0.2 0.8 0 0 0.1 0.9 0 0 0.05 0.95 0 0.05 0.3 0.65 0 0.05 0.25 0.7 0 0 0.2 0.8 0 0 0.1 0.9 0 0 0.05 0.95 0 0.05 0.3 0.65 0 0.05 0.25 0.7 0 0 0.2 0.8 0 0 0.1 0.9 0 0 0.05 0.95 0 0.05 0.3 0.65 0 0.05 0.25 0.7 0 0 0.2 0.8 0 0 0.1 0.9 0 0 0.05 0.95 0 0.05 0.3 0.65 0 0.05 0.25 0.7 0 0 0.2 0.8 0 0 0.1 0.9 0 0 0.05 0.95 0 0.05 0.3 0.65 0 0.05 0.25 0.7 0 0 0.2 0.8 0 0 0.1 0.9 0 0 0.05 0.95 0 0.05 0.3 0.65 0 0.05 0.25 0.7 0 0 0.2 0.8 0 0 0.1 0.9 0 0 0.05 0.95 0 0.05 0.3 0.65 0 0.05 0.25 0.7 0 0 0.2 0.8 0 0 0.1 0.9 0 0 0.05 0.95 0 0.05 0.3 0.65 0 0.05 0.25 0.7 0 0 0.2 0.8 0 0 0.1 0.9 0 0 0.05 0.95 0 0.05 0.3 0.65 0 0.05 0.25 0.7 0 0 0.2 0.8 0 0 0.1 0.9 0 0 0.05 0.95 0.1 0.3 0.3 0.3 0.05 0.25 0.4 0.3 0 0.25 0.4 0.35 0 0.2 0.3 0.5 0 0.15 0.3 0.55 0 0.25 0.375 0.375 0 0.2 0.4 0.4 0 0.2 0.3 0.5 0 0.15 0.25 0.6 0 0.1 0.2 0.7 0 0.1 0.45 0.45 0 0.1 0.35 0.55 0 0.05 0.35 0.6 0 0 0.35 0.65 0 0 0.3 0.7 0 0.05 0.3 0.65 0 0.05 0.25 0.7 0 0 0.2 0.8 0 0 0.1 0.9 0 0 0.05 0.95 0 0.3 0.5 0.2 0 0.25 0.55 0.2 0 0.2 0.6 0.2 0 0.15 0.6 0.25 0 0.1 0.65 0.25 0 0.3 0.5 0.2 0 0.25 0.55 0.2 0 0.2 0.6 0.2 0 0.15 0.6 0.25 0 0.1 0.65 0.25 0 0.3 0.5 0.2 0 0.25 0.55 0.2 0 0.2 0.6 0.2 0 0.15 0.6 0.25 0 0.1 0.65 0.25 0 0.3 0.5 0.2 0 0.25 0.55 0.2 0 0.2 0.6 0.2 0 0.15 0.6 0.25 0 0.1 0.65 0.25 0 0.3 0.5 0.2 0 0.25 0.55 0.2 0 0.2 0.6 0.2 0 0.15 0.6 0.25 0 0.1 0.65 0.25 0 0.3 0.5 0.2 0 0.25 0.55 0.2 0 0.2 0.6 0.2 0 0.15 0.6 0.25 0 0.1 0.65 0.25 0 0.3 0.5 0.2 0 0.25 0.55 0.2 0 0.2 0.6 0.2 0 0.15 0.6 0.25 0 0.1 0.65 0.25 0 0.3 0.5 0.2 0 0.25 0.55 0.2 0 0.2 0.6 0.2 0 0.15 0.6 0.25 0 0.1 0.65 0.25 0 0.3 0.5 0.2 0 0.25 0.55 0.2 0 0.2 0.6 0.2 0 0.15 0.6 0.25 0 0.1 0.65 0.25 0 0.3 0.5 0.2 0 0.25 0.55 0.2 0 0.2 0.6 0.2 0 0.15 0.6 0.25 0 0.1 0.65 0.25 0 0.3 0.5 0.2 0 0.25 0.55 0.2 0 0.2 0.6 0.2 0 0.15 0.6 0.25 0 0.1 0.65 0.25 0 0.3 0.5 0.2 0 0.25 0.55 0.2 0 0.2 0.6 0.2 0 0.15 0.6 0.25 0 0.1 0.65 0.25 0.5 0.35 0.1 0.05 0.45 0.35 0.15 0.05 0.4 0.35 0.2 0.05 0.35 0.35 0.25 0.05 0.3 0.3 0.35 0.05 0.3 0.35 0.3 0.05 0.25 0.35 0.35 0.05 0.2 0.35 0.4 0.05 0.15 0.4 0.4 0.05 0.1 0.4 0.45 0.05 0.2 0.35 0.35 0.1 0.15 0.2999999999999999 0.45 0.09999999999999998 0.1 0.3 0.5 0.1 0.05 0.25 0.55 0.15 0 0.15 0.7 0.15 0 0.3 0.5 0.2 0 0.25 0.55 0.2 0 0.2 0.6 0.2 0 0.15 0.6 0.25 0 0.1 0.65 0.25 0.3 0.3 0.2 0.2 0.25 0.25 0.25 0.25 0.2 0.25 0.25 0.3 0.15 0.2000000000000001 0.3 0.35 0.1 0.2 0.35 0.35 0.3 0.3 0.2 0.2 0.25 0.25 0.25 0.25 0.2 0.25 0.25 0.3 0.15 0.2000000000000001 0.3 0.35 0.1 0.2 0.35 0.35 0.3 0.3 0.2 0.2 0.25 0.25 0.25 0.25 0.2 0.25 0.25 0.3 0.15 0.2000000000000001 0.3 0.35 0.1 0.2 0.35 0.35 0.3 0.3 0.2 0.2 0.25 0.25 0.25 0.25 0.2 0.25 0.25 0.3 0.15 0.2000000000000001 0.3 0.35 0.1 0.2 0.35 0.35 0.3 0.3 0.2 0.2 0.25 0.25 0.25 0.25 0.2 0.25 0.25 0.3 0.15 0.2000000000000001 0.3 0.35 0.1 0.2 0.35 0.35 0.3 0.3 0.2 0.2 0.25 0.25 0.25 0.25 0.2 0.25 0.25 0.3 0.15 0.2000000000000001 0.3 0.35 0.1 0.2 0.35 0.35 0.3 0.3 0.2 0.2 0.25 0.25 0.25 0.25 0.2 0.25 0.25 0.3 0.15 0.2000000000000001 0.3 0.35 0.1 0.2 0.35 0.35 0.3 0.3 0.2 0.2 0.25 0.25 0.25 0.25 0.2 0.25 0.25 0.3 0.15 0.2000000000000001 0.3 0.35 0.1 0.2 0.35 0.35 0.3 0.3 0.2 0.2 0.25 0.25 0.25 0.25 0.2 0.25 0.25 0.3 0.15 0.2000000000000001 0.3 0.35 0.1 0.2 0.35 0.35 0.3 0.3 0.2 0.2 0.25 0.25 0.25 0.25 0.2 0.25 0.25 0.3 0.15 0.2000000000000001 0.3 0.35 0.1 0.2 0.35 0.35 0.3 0.3 0.2 0.2 0.25 0.25 0.25 0.25 0.2 0.25 0.25 0.3 0.15 0.2000000000000001 0.3 0.35 0.1 0.2 0.35 0.35 0.3 0.3 0.2 0.2 0.25 0.25 0.25 0.25 0.2 0.25 0.25 0.3 0.15 0.2000000000000001 0.3 0.35 0.1 0.2 0.35 0.35 0.9 0.1 0 0 0.85 0.15 0 0 0.8 0.15 0.05 0 0.75 0.2 0.05 0 0.7 0.2 0.09999999999999998 0 0.8 0.2 0 0 0.75 0.25 0 0 0.7 0.2 0.09999999999999998 0 0.65 0.25 0.1 0 0.6 0.25 0.15 0 0.6 0.2999999999999999 0.09999999999999998 0 0.55 0.3 0.15 0 0.5 0.3 0.2 0 0.45 0.25 0.25 0.05 0.4 0.3 0.25 0.05 0.3 0.3 0.2 0.2 0.25 0.25 0.25 0.25 0.2 0.25 0.25 0.3 0.15 0.2000000000000001 0.3 0.35 0.1 0.2 0.35 0.35</probabilities>
		</cpt>
	</nodes>
	<extensions>
		<genie version="1.0" app="GeNIe 2.0.3717.0" name="Network2" faultnameformat="nodestate">
			<node id="SedimentSink">
				<name>SedimentSink</name>
				<interior color="ffcc99" />
				<outline color="000080" />
				<font color="000000" name="Arial" size="8" />
				<position>414 85 556 121</position>
				<comment>Erosion an absolute sink</comment>
				<barchart active="true" />
			</node>
			<node id="StreamGradient">
				<name>StreamGradient</name>
				<interior color="ffcc99" />
				<outline color="000080" />
				<font color="000000" name="Arial" size="8" />
				<position>254 389 363 429</position>
				<comment>A proxy for the velocity of streamflow.  Use underlying DEM to calculate the slope of the stream.</comment>
				<barchart active="true" width="205" height="141" />
			</node>
			<node id="FloodplainWidth">
				<name>FloodplainWidth</name>
				<interior color="ffcc99" />
				<outline color="000080" />
				<font color="000000" name="Arial" size="8" />
				<position>806 390 910 427</position>
				<barchart active="true" width="267" height="90" />
			</node>
			<node id="Levees">
				<name>Levees</name>
				<interior color="ffcc99" />
				<outline color="000080" />
				<font color="000000" name="Arial" size="8" />
				<position>892 285 987 317</position>
				<barchart active="true" width="128" height="64" />
			</node>
			<node id="FloodplainVegetationCover">
				<name>FloodplainVegetationCover</name>
				<interior color="ccffcc" />
				<outline color="000080" />
				<font color="000000" name="Arial" size="8" />
				<position>500 503 653 539</position>
				<barchart active="true" width="231" height="158" />
			</node>
			<node id="Reservoirs">
				<name>Reservoirs</name>
				<interior color="ffcc99" />
				<outline color="000080" />
				<font color="000000" name="Arial" size="8" />
				<position>127 213 172 241</position>
				<barchart active="true" width="128" height="64" />
			</node>
			<node id="Bridges">
				<name>Bridges</name>
				<interior color="ffcc99" />
				<outline color="000080" />
				<font color="000000" name="Arial" size="8" />
				<position>999 211 1047 241</position>
				<barchart active="true" width="128" height="64" />
			</node>
		</genie>
	</extensions>
</smile>
