<?xml version="1.0" encoding="ISO-8859-1"?>
<smile version="1.0" id="Network2" numsamples="1000" discsamples="10000">
	<nodes>
		<cpt id="PopulationsAtRiskOfPoorAirQuality">
			<state id="High" />
			<state id="Moderate" />
			<state id="None" />
			<probabilities>0 0 1</probabilities>
		</cpt>
		<cpt id="MountainGlaciers">
			<state id="Yes" />
			<state id="No" />
			<probabilities>0.5 0.5</probabilities>
		</cpt>
		<cpt id="HydroelectricDams">
			<state id="Yes" />
			<state id="No" />
			<probabilities>0.5 0.5</probabilities>
		</cpt>
		<cpt id="PopulationDensity">
			<state id="VeryHigh" />
			<state id="High" />
			<state id="Moderate" />
			<state id="Low" />
			<state id="VeryLow" />
			<state id="None" />
			<probabilities>0.1666666666666667 0.1666666666666667 0.1666666666666667 0.1666666666666667 0.1666666666666667 0.1666666666666667</probabilities>
		</cpt>
		<cpt id="SnowmeltDependentPopulations">
			<state id="High" />
			<state id="Moderate" />
			<state id="None" />
			<parents>MountainGlaciers HydroelectricDams PopulationDensity</parents>
			<probabilities>1 0 0 1 0 0 0.8 0.2 0 0.6 0.4 0 0.4 0.6 0 0.3333333333333333 0.3333333333333333 0.3333333333333333 1 0 0 1 0 0 0.7000000000000001 0.2000000000000001 0.1 0.5 0.4 0.1 0.3 0.6000000000000001 0.1 0.3333333333333333 0.3333333333333333 0.3333333333333333 0 0 1 0 0 1 0 0 1 0 0 1 0 0 1 0.3333333333333333 0.3333333333333333 0.3333333333333333 0 0 1 0 0 1 0 0 1 0 0 1 0 0 1 0.3333333333333333 0.3333333333333333 0.3333333333333333</probabilities>
		</cpt>
		<cpt id="CoastalFloodZone">
			<state id="Yes" />
			<state id="No" />
			<probabilities>0.5 0.5</probabilities>
		</cpt>
		<cpt id="CoastalProperty">
			<state id="Yes" />
			<state id="No" />
			<probabilities>0.5 0.5</probabilities>
		</cpt>
		<cpt id="CoastalDwellers">
			<state id="High" />
			<state id="Moderate" />
			<state id="None" />
			<parents>CoastalFloodZone CoastalProperty</parents>
			<probabilities>0.9 0.1 0 0.75 0.15 0.1 0 0 1 0 0 1</probabilities>
		</cpt>
		<cpt id="AridRegionDwellers">
			<state id="High" />
			<state id="Moderate" />
			<state id="None" />
			<probabilities>0 0 1</probabilities>
		</cpt>
		<cpt id="Forest">
			<state id="Yes" />
			<state id="No" />
			<probabilities>0.5 0.5</probabilities>
		</cpt>
		<cpt id="FireFrequency">
			<state id="High" />
			<state id="Moderate" />
			<state id="Low" />
			<state id="None" />
			<probabilities>0.25 0.25 0.25 0.25</probabilities>
		</cpt>
		<cpt id="FireProneHousing">
			<state id="Yes" />
			<state id="No" />
			<probabilities>0.5 0.5</probabilities>
		</cpt>
		<cpt id="ResidentsAtRiskOfForestFires">
			<state id="High" />
			<state id="Moderate" />
			<state id="None" />
			<parents>Forest FireFrequency FireProneHousing</parents>
			<probabilities>0.4 0.4 0.2 0 0 1 0.25 0.25 0.5 0 0 1 0.1 0.1 0.8 0 0 1 0 0 1 0 0 1 0 0 1 0 0 1 0 0 1 0 0 1 0 0 1 0 0 1 0 0 1 0 0 1</probabilities>
		</cpt>
		<cpt id="AgriculturalLand">
			<state id="Yes" />
			<state id="No" />
			<probabilities>0.5 0.5</probabilities>
		</cpt>
		<cpt id="PotentialEvapotranspiration">
			<state id="High" />
			<state id="Moderate" />
			<state id="Low" />
			<probabilities>0.3333333333333334 0.3333333333333334 0.3333333333333333</probabilities>
		</cpt>
		<cpt id="Rainfall">
			<state id="VeryHigh" />
			<state id="High" />
			<state id="Moderate" />
			<state id="Low" />
			<state id="VeryLow" />
			<probabilities>0.2 0.2 0.2 0.2 0.2</probabilities>
		</cpt>
		<cpt id="Farmers">
			<state id="High" />
			<state id="Moderate" />
			<state id="None" />
			<parents>AgriculturalLand PotentialEvapotranspiration Rainfall</parents>
			<probabilities>0.5 0.25 0.25 0.6 0.2 0.2 0.7 0.15 0.15 0.8 0.1 0.1 0.9 0.05 0.05 0.3 0.35 0.35 0.4 0.3 0.3 0.5 0.25 0.25 0.6 0.2 0.2 0.7 0.15 0.15 0.1 0.45 0.45 0.2 0.4 0.4 0.3 0.35 0.35 0.4 0.3 0.3 0.5 0.25 0.25 0 0 1 0 0 1 0 0 1 0 0 1 0 0 1 0 0 1 0 0 1 0 0 1 0 0 1 0 0 1 0 0 1 0 0 1 0 0 1 0 0 1 0 0 1</probabilities>
		</cpt>
		<cpt id="PolarPopulations">
			<state id="High" />
			<state id="Moderate" />
			<state id="None" />
			<probabilities>0 0 1</probabilities>
		</cpt>
		<cpt id="SubsistencePopulations">
			<state id="High" />
			<state id="Moderate" />
			<state id="None" />
			<probabilities>0 0 1</probabilities>
		</cpt>
		<cpt id="LandslideRiskZone">
			<state id="AtRisk" />
			<state id="NoRisk" />
			<probabilities>0.5 0.5</probabilities>
		</cpt>
		<cpt id="DownslopeHousing">
			<state id="Yes" />
			<state id="No" />
			<probabilities>0.5 0.5</probabilities>
		</cpt>
		<cpt id="MountainZoneResidents">
			<state id="High" />
			<state id="Moderate" />
			<state id="None" />
			<parents>LandslideRiskZone Rainfall DownslopeHousing</parents>
			<probabilities>0.4 0.4 0.2 0 0 1 0.4 0.4 0.2 0 0 1 0.3 0.4 0.3 0 0 1 0.2 0.4 0.4 0 0 1 0.2 0.4 0.4 0 0 1 0 0 1 0 0 1 0 0 1 0 0 1 0 0 1 0 0 1 0 0 1 0 0 1 0 0 1 0 0 1</probabilities>
		</cpt>
		<noisymax id="ParticularlyVulnerableGroups">
			<state id="DestructiveUse" />
			<state id="Sink" />
			<state id="NoUse" />
			<parents>SubsistencePopulations PopulationsAtRiskOfPoorAirQuality SnowmeltDependentPopulations CoastalDwellers MountainZoneResidents AridRegionDwellers ResidentsAtRiskOfForestFires Farmers PolarPopulations</parents>
			<strengths>0 1 2 0 1 2 0 1 2 0 1 2 0 1 2 0 1 2 0 1 2 0 1 2 0 1 2</strengths>
			<parameters>0.5 0 0.5 0.25 0 0.75 0 0 1 0.5 0 0.5 0.25 0 0.75 0 0 1 0.9 0 0.1 0.75 0 0.25 0 0 1 0.9 0 0.1 0.75 0 0.25 0 0 1 0.5 0 0.5 0.25 0 0.75 0 0 1 0.75 0 0.25 0.5 0 0.5 0 0 1 0.75 0 0.25 0.5 0 0.5 0 0 1 0.75 0 0.25 0.5 0 0.5 0 0 1 0.75 0 0.25 0.5 0 0.5 0 0 1 0.05000000000000004 0 0.95</parameters>
		</noisymax>
		<cpt id="NonDestructiveUse">
			<state id="Yes" />
			<state id="No" />
			<probabilities>0 1</probabilities>
		</cpt>
	</nodes>
	<extensions>
		<genie version="1.0" app="GeNIe 2.0.3259.0" name="Network2" faultnameformat="nodestate">
			<node id="ParticularlyVulnerableGroups">
				<name>ParticularlyVulnerableGroups</name>
				<interior color="e5f6f7" />
				<outline color="000080" />
				<font color="000000" name="Arial" size="8" />
				<position>381 121 576 150</position>
				<comment>These are individually relatively simple GIS operations.  It&apos;s just the matter of representing them within a larger BN that I&apos;m not totally sure about.\n\nNO USE and DESTRUCTIVE USE are important, sum to 1 (no SINK or NONDESTRUCTIVE USE).</comment>
			</node>
			<textbox>
				<caption>Puget Sound climate stability use:\nVulnerable groups</caption>
				<font color="000000" name="Arial" size="8" bold="true" />
				<position>41 76 227 104</position>
			</textbox>
			<node id="PopulationsAtRiskOfPoorAirQuality">
				<name>PopulationsAtRiskOfPoorAirQuality</name>
				<interior color="e5f6f7" />
				<outline color="000080" />
				<font color="000000" name="Arial" size="8" />
				<position>833 85 1009 127</position>
				<comment>Remove this for Puget Sound</comment>
			</node>
			<node id="SnowmeltDependentPopulations">
				<name>SnowmeltDependentPopulations</name>
				<interior color="e5f6f7" />
				<outline color="000080" />
				<font color="000000" name="Arial" size="8" />
				<position>82 218 215 267</position>
				<comment>Need watershed boundaries too to calculate co-location of mountain glaciers and dams or human populations.</comment>
			</node>
			<node id="CoastalDwellers">
				<name>CoastalDwellers</name>
				<interior color="e5f6f7" />
				<outline color="000080" />
				<font color="000000" name="Arial" size="8" />
				<position>254 216 368 240</position>
			</node>
			<node id="AridRegionDwellers">
				<name>AridRegionDwellers</name>
				<interior color="e5f6f7" />
				<outline color="000080" />
				<font color="000000" name="Arial" size="8" />
				<position>881 217 1006 246</position>
				<comment>Remove this for Puget Sound</comment>
			</node>
			<node id="ResidentsAtRiskOfForestFires">
				<name>ResidentsAtRiskOfForestFires</name>
				<interior color="e5f6f7" />
				<outline color="000080" />
				<font color="000000" name="Arial" size="8" />
				<position>605 212 751 251</position>
			</node>
			<node id="Farmers">
				<name>Farmers</name>
				<interior color="e5f6f7" />
				<outline color="000080" />
				<font color="000000" name="Arial" size="8" />
				<position>512 212 569 242</position>
			</node>
			<node id="PolarPopulations">
				<name>PolarPopulations</name>
				<interior color="e5f6f7" />
				<outline color="000080" />
				<font color="000000" name="Arial" size="8" />
				<position>893 175 1004 208</position>
				<comment>Remove this for Puget Sound</comment>
			</node>
			<node id="SubsistencePopulations">
				<name>SubsistencePopulations</name>
				<interior color="e5f6f7" />
				<outline color="000080" />
				<font color="000000" name="Arial" size="8" />
				<position>852 139 1007 171</position>
				<comment>Remove this for Puget Sound</comment>
			</node>
			<node id="AgriculturalLand">
				<name>AgriculturalLand</name>
				<interior color="e5f6f7" />
				<outline color="000080" />
				<font color="000000" name="Arial" size="8" />
				<position>641 325 737 357</position>
			</node>
			<node id="Rainfall">
				<name>Rainfall</name>
				<interior color="e5f6f7" />
				<outline color="000080" />
				<font color="000000" name="Arial" size="8" />
				<position>509 334 560 365</position>
			</node>
			<node id="PotentialEvapotranspiration">
				<name>PotentialEvapotranspiration</name>
				<interior color="e5f6f7" />
				<outline color="000080" />
				<font color="000000" name="Arial" size="8" />
				<position>556 377 717 409</position>
			</node>
			<node id="Forest">
				<name>Forest</name>
				<interior color="e5f6f7" />
				<outline color="000080" />
				<font color="000000" name="Arial" size="8" />
				<position>826 266 882 293</position>
			</node>
			<node id="FireFrequency">
				<name>FireFrequency</name>
				<interior color="e5f6f7" />
				<outline color="000080" />
				<font color="000000" name="Arial" size="8" />
				<position>778 321 869 350</position>
			</node>
			<node id="FireProneHousing">
				<name>FireProneHousing</name>
				<interior color="e5f6f7" />
				<outline color="000080" />
				<font color="000000" name="Arial" size="8" />
				<position>632 275 748 303</position>
			</node>
			<node id="CoastalFloodZone">
				<name>CoastalFloodZone</name>
				<interior color="e5f6f7" />
				<outline color="000080" />
				<font color="000000" name="Arial" size="8" />
				<position>201 300 308 336</position>
			</node>
			<node id="MountainZoneResidents">
				<name>MountainZoneResidents</name>
				<interior color="e5f6f7" />
				<outline color="000080" />
				<font color="000000" name="Arial" size="8" />
				<position>391 209 494 251</position>
				<comment>Need elevation data too to calculate downslope housing units.</comment>
			</node>
			<node id="LandslideRiskZone">
				<name>LandslideRiskZone</name>
				<interior color="e5f6f7" />
				<outline color="000080" />
				<font color="000000" name="Arial" size="8" />
				<position>345 308 465 341</position>
			</node>
			<node id="MountainGlaciers">
				<name>MountainGlaciers</name>
				<interior color="e5f6f7" />
				<outline color="000080" />
				<font color="000000" name="Arial" size="8" />
				<position>74 375 191 406</position>
			</node>
			<node id="PopulationDensity">
				<name>PopulationDensity</name>
				<interior color="e5f6f7" />
				<outline color="000080" />
				<font color="000000" name="Arial" size="8" />
				<position>191 391 282 430</position>
			</node>
			<node id="HydroelectricDams">
				<name>HydroelectricDams</name>
				<interior color="e5f6f7" />
				<outline color="000080" />
				<font color="000000" name="Arial" size="8" />
				<position>9 320 111 360</position>
			</node>
			<node id="CoastalProperty">
				<name>CoastalProperty</name>
				<interior color="e5f6f7" />
				<outline color="000080" />
				<font color="000000" name="Arial" size="8" />
				<position>280 349 383 382</position>
			</node>
			<node id="DownslopeHousing">
				<name>DownslopeHousing</name>
				<interior color="e5f6f7" />
				<outline color="000080" />
				<font color="000000" name="Arial" size="8" />
				<position>445 360 532 402</position>
			</node>
			<textbox>
				<caption>Specify the layers to &quot;turn on&quot; specific beneficiary groups as part of the discretization table - in Puget Sound, don&apos;t turn on the four beneficiary groups below.</caption>
				<font color="000000" name="Arial" size="8" bold="true" />
				<position>828 11 1023 81</position>
			</textbox>
			<node id="NonDestructiveUse">
				<name>NonDestructiveUse</name>
				<interior color="e5f6f7" />
				<outline color="000080" />
				<font color="000000" name="Arial" size="8" />
				<position>139 119 282 152</position>
			</node>
			<textbox>
				<caption>EVENTUALLY: SUBCLASS THESE BENEFICIARY GROUPS; AGGREGATE WITH NOISYMAX</caption>
				<font color="000000" name="Arial" size="8" />
				<position>55 453 289 481</position>
			</textbox>
		</genie>
	</extensions>
</smile>
