<?xml version="1.0" encoding="ISO-8859-1"?>
<smile version="1.0" id="Network1" numsamples="1000" discsamples="10000">
	<nodes>
		<cpt id="SummerHighWinterLow">
			<state id="VeryHighSOL" />
			<state id="HighSOL" />
			<state id="ModerateSOL" />
			<state id="LowSOL" />
			<state id="VeryLowSOL" />
			<probabilities>3.817896805963231e-029 0.03231857824584598 0.3758104327793311 0.4606549284186238 0.1312160605561993</probabilities>
		</cpt>
		<cpt id="SuccessionalStage">
			<state id="OldGrowth" />
			<state id="LateSuccession" />
			<state id="MidSuccession" />
			<state id="PoleSuccession" />
			<state id="EarlySuccession" />
			<state id="NoSuccession" />
			<probabilities>0.07434767189596668 0.09199066210244053 0.1572411685199538 0.07899035227623696 0.08441570692875638 0.5130144382766457</probabilities>
		</cpt>
		<cpt id="PercentTreeCanopyCoverClass">
			<state id="VeryHighCanopyCover" />
			<state id="HighCanopyCover" />
			<state id="ModerateCanopyCover" />
			<state id="LowCanopyCover" />
			<state id="VeryLowCanopyCover" />
			<probabilities>0.4616866444447034 0.07693872322712268 0.03429626518114824 0.02541070590279355 0.4016676612442321</probabilities>
		</cpt>
		<cpt id="HardwoodSoftwoodRatio">
			<state id="VeryHighHardness" />
			<state id="HighHardness" />
			<state id="ModerateHardness" />
			<state id="LowHardness" />
			<state id="VeryLowHardness" />
			<probabilities>0.2339548993476648 0.1335632946595103 0.1720519759301361 0.1946639111974083 0.2657659188652806</probabilities>
		</cpt>
		<cpt id="VegetationCarbonStorage">
			<state id="VeryHighVegetationStorage" />
			<state id="HighVegetationStorage" />
			<state id="ModerateVegetationStorage" />
			<state id="LowVegetationStorage" />
			<state id="VeryLowVegetationStorage" />
			<state id="NoVegetationStorage" />
			<parents>SuccessionalStage PercentTreeCanopyCoverClass HardwoodSoftwoodRatio</parents>
			<probabilities>0.105858832324752 0.6178742709275957 0.1386776834876569 0.01385978317246865 1.272466873580703e-030 0.1237294300875268 0.409791226103325 0.3502600470150964 0.2075995355537903 0.01658205885730959 1.257324864710032e-029 0.01576713247047867 0.09717935362233046 0.4117941475803745 0.1886157087102652 0.0433078826538412 4.312433871945343e-029 0.2591029074331887 0.1912689689571578 0.3818083298990242 0.2471792745597352 0.03303998948902612 6.394977824981241e-028 0.1467034370950566 0.12836673261723 0.4023090628397618 0.2715283496189815 0.02645236642062647 3.26588680836449e-026 0.1713434885034001 0.02359864585196422 0.3977888301997097 0.3893108917880321 0.003610756179403831 0.02569956325609141 0.1599913127247988 0.2534031551554252 0.4064340163448574 0.02397621575514873 0.001318894010388586 0.001642439267476381 0.3132252794667039 0.2080091314296678 0.0311668437797295 0.2550896085405359 0.1680381968056558 0.001824793951397372 0.3358714254930136 0.1783203523630888 0.3256929637811016 0.148333529529452 1.807906310233112e-006 2.316109806498847e-006 0.347649030310241 0.0684244689815884 0.2433381431236813 0.2623567940243745 0.063290623169983 1.449668030634451e-009 0.3625899692507048 0.09606830654604656 0.1732360463785388 0.1430274197913841 0.009810502771092798 2.737602256102003e-021 0.5778577245129377 0.005354335373199011 0.05805663051602809 0.6777296364358685 0.0001130841847117018 1.382443782072993e-023 0.2587463134901928 0.0002142374505372129 0.7693302177635233 0.0003678719395951391 0.2300865936984639 4.758850164401733e-024 1.079147880431762e-006 0.1142578750984125 0.2275254265541089 0.334196039253823 5.154924309655407e-006 2.603121980922304e-026 0.324015504169346 0.1928974214578568 0.126524123459672 0.4326894763189101 1.795466195515995e-008 6.428003602284098e-028 0.2478889608088991 0.0006379833218437003 2.519200057053011e-005 0.0001106753007562295 0 0 0.9992261493768295 0.3925812248858166 0.0002280255890697534 0.2582879915892126 0 0 0.3489027579359011 6.029862310487616e-006 0.4741850039806071 0.0004156735073582188 0 0 0.5253932926497242 6.875892524390315e-005 0.3461103695646099 0.6514300068761989 1.539116959449661e-009 0 0.002390863094830156 0.006979542076859076 0.7394416147544638 0.06770875664108655 0.1495778410451331 0 0.03629224548245744 0.0007588331073883707 0.1468549016495546 0.07976084455564592 0.0005188157403762876 1.90970528913481e-064 0.7721066049470349 6.918771468462472e-006 0.0001780581764295648 0.06382757515293218 0.004560438905130828 7.942348431624383e-066 0.931427008994039 0.03564704026552654 0.1433573300954423 0.07966879278579674 0.05435438661690067 4.429765209525055e-067 0.6869724502363337 0.02017110089118277 0.0729474073230514 0.2744489731542192 2.955935725909161e-005 5.735457287770946e-055 0.6324029592742875 0.03841623573404079 0.2478555713623892 0.0876320646403904 0.01488197026180445 4.48960373228951e-046 0.6112141580013751 0.2221484264414375 0.3101682476961133 0.2854722627797571 0.00235718270535636 0.0007888659206836615 0.1790650144566521 0.128078079120775 0.6922531114597736 0.05940953507436157 0.0458113640313088 0.004613521781066826 0.06983438853271419 0.1918885944300553 0.2763371233631272 0.3017875115315332 0.02988166729764115 0.0001916472315819274 0.1999134561460614 0.1310029391981778 0.4254623432016228 0.2065525512698818 0.06386866487977308 3.090805494488826e-006 0.17311041064505 0.1110818382869005 0.3698755245033901 0.3094847653921857 0.05445656115449434 2.2407092424855e-008 0.1551012882559369 0.2532168955861625 0.2851663878154784 0.04186790032213957 0.1539621764879531 1.686583201797009e-026 0.2657866397882665 0.003074077627549261 0.3666964671005898 0.2314107265963353 0.004462972882533475 1.677285516556534e-027 0.3943557557929922 0.002486320349477893 0.7260922943453453 0.2604244470629257 0.004739785079829532 4.196024567550777e-027 0.006257153162421558 0.1025898748816194 0.2350280976282343 0.3998040772345272 0.07478854340501638 2.453088128773495e-030 0.1877894068506028 0.05172994534930037 0.286796140455752 0.3141459452004972 0.05218364609071026 5.293514118022136e-030 0.2951443229037403 0.01225347981337794 0.1300832203028717 0.2365284609396006 0.1144098928268794 2.522383145422544e-030 0.5067249461172704 0.008110824703924305 0.4088627094816562 0.5686011752664091 4.072127922602668e-010 1.776563540897962e-029 0.01442529014079738 0.0003671576014104489 0.2917676361829986 0.01224945394431227 0.1349059081025987 2.214572148147842e-031 0.56070984416868 7.194318494731771e-007 0.2353428012376841 0.3820551644786872 5.05585818556718e-011 1.194914173811889e-034 0.3826013148012206 0.05504420244484613 0.2708900911563851 0.395068111300548 0.03538203569315027 2.985991595174233e-036 0.2436155594050704 5.704757041026638e-006 0.01619084905674998 0.0002615567864694134 0.2065961010390686 0 0.7769457883606711 0.1837739152848471 0.3707199550714854 0.2902569115529619 2.086637699159212e-006 0 0.1552471314530066 0.1963014551145239 0.569468796142783 2.882607396224711e-005 3.841327491265851e-010 0 0.2342009222845982 5.937938021754589e-008 0.4601535732970066 0.1909121862158306 1.753433162335297e-005 0 0.3489166467761592 0.09661146870354019 9.679132799677649e-006 0.5954449792173042 6.270906460723174e-011 0 0.3079338728836468 0.04096184755459042 0.05779507251261602 0.04692916188899408 0.0003724913644419242 6.420192387844358e-040 0.8539414266793576 0.0003013127722238073 0.009847140123572075 0.001495653927049865 0.0004543568944793439 1.348347762653651e-039 0.9879015362826749 0.03277954691860977 0.03346968986035326 0.2502564289605651 0.08565588951962212 1.435575933599087e-040 0.5978384447408497 0.04837364186252333 0.1719503667096698 0.1648164279879915 0.06644757908929629 2.473086119296742e-033 0.5484119843505191 0.02962602536374531 0.1797820658932743 0.2087570783758149 0.03389676805041329 4.065728554630648e-044 0.547938062316752 0.1738966099966527 0.5055967933071203 0.2252757733874029 0.03085710539402041 0.001970288614621945 0.06240342930018167 0.03523652027972007 0.4399715427469453 0.1927141868700185 0.08285508647938902 0.001248178737013019 0.2479744848869141 0.1115188017265929 0.2653415665406458 0.3573840782605513 0.0564667697311942 1.020373600047642e-006 0.2092877633674157 0.05947734365875417 0.3065569127283118 0.352507263728528 0.07666612244273412 7.61150358090605e-008 0.2047922813266362 0.1081801550041578 0.2978474561800976 0.3327969161675699 0.06321447827576184 2.054630152891436e-009 0.1979609923177827 2.649254549219705e-005 0.2620819822801055 0.2719876210292425 0.09927548986391914 1.27182825252018e-033 0.3666284142812407 7.19703714447335e-006 0.1653024088687939 0.6692512690946255 0.02861354205549311 4.496498567560115e-034 0.136825582943943 0.02578412970668224 0.3858106851922451 0.3172282384464731 0.0333502108105948 5.727493927690287e-029 0.2378267358440048 0.05472724445467377 0.1754237934140442 0.3994858781195813 0.07890227361154933 7.935872642201216e-031 0.2914608104001514 0.05278502066928457 0.2599472764044786 0.4065977579085675 0.06666847373902554 5.852850125113211e-044 0.2140014712786439 0.03835099303502935 0.6293134805081194 0.2386943317701564 3.478224977341014e-006 0 0.09363771646171744 0.3674598731963114 0.339673632761239 0.2913362856086303 9.711312335742267e-007 0 0.001529237302585767 5.258546893564413e-005 0.2331073509566928 5.254066582229017e-006 0.2145382402669642 0 0.552296569240825 0.0392401558430056 0.1829133851741092 0.4446071072353288 0.108925469009963 1.067126396966276e-028 0.2243138827375934 4.179778719768002e-008 0.1435447576867192 0.4603603550183876 0.02487657380559882 0 0.3712182716915071 2.586175531240675e-006 0.5728068639006756 0.008854990550087354 0.0004971983604249296 0 0.4178383610132809 0.1809868422217837 1.989966412577353e-007 0.8190063556354525 7.853229524869024e-009 0 6.59529289277436e-006 5.611879659382612e-013 0.3424926338708741 0.2850627582587148 0.08215882997040433 0 0.2902857778994456 0.06754998884757263 3.535339174669073e-009 0.4852722511601653 0.1203331499959907 0 0.3268446064609322 0.04209906365558874 0.1066790126340112 0.3117310394692097 0.09178432287569424 0 0.4477065613654961 6.858071282084155e-005 0.0853541248804298 0.09506155544901092 8.156918702109968e-007 4.488056105469971e-049 0.8195149232658682 5.584374807188845e-005 0.1059233057603473 0.2693044351347384 0.01802600144920469 2.106865448438917e-049 0.6066904139076378 0.04203488398278558 0.1056459066324762 0.2159238731497798 0.04487059921890092 2.644996722034868e-040 0.5915247370160576 0.02210578636340098 0.1195512107814853 0.2063323632037514 0.03319811558750505 2.305579432932097e-049 0.6188125240638573 0.03277786495197228 0.1277923372467694 0.2071473280870159 0.05376655515666176 6.836494449767109e-045 0.5785159145575807 0.1155972451597878 0.5965976939645112 0.205412922897105 0.07498721269224487 4.283102423463373e-030 0.007404925286351028 0.09325778257863604 0.2792712001088049 0.2878406492015186 0.1354013676245915 1.45675048122916e-032 0.204229000486449 0.04656120286508572 0.2140844962979171 0.4154779734881817 0.07356875111146086 2.903074485882329e-037 0.2503075762373547 0.06815501078408147 0.2677636071615593 0.3731989487859618 0.08818022253400189 1.380096748424417e-032 0.2027022107343955 0.06893875581480966 0.3449680226812725 0.3850798106515289 0.06033563624264219 4.348745664012282e-032 0.1406777746097467 3.56395012827161e-005 0.6452770439827034 0.347394233126086 1.62781148910108e-008 3.243838903305268e-049 0.007293067111812972 0.1554824076036382 5.953097065521307e-005 0.2813464372214977 9.263577590695453e-012 9.266545832990263e-054 0.5631116241949454 0.02497248646427781 0.2690559958051454 0.3146650525557673 0.1394560677299958 5.61659394979085e-062 0.2518503974448136 0.03984428222397504 0.1889269225833209 0.4306515638859292 0.09291836418159855 1.100366658631325e-062 0.2476588671251764 0.07697226388835574 0.3248935616807482 0.2478277069275228 0.08447806041901085 1.463362682380477e-039 0.2658284070843625 0.01013005850497347 0.02907475177071874 0.3411970247222765 0.0001013908149194434 4.608657004502765e-032 0.6194967741871119 0.01477192823528909 0.2372935454321467 0.7464546167449815 4.809290916738779e-005 4.193369176138691e-032 0.001431816678415189 0.1634784023612372 0.1850762777874024 0.1381838803272813 0.1517805147514552 3.500780460418766e-041 0.361480924772624 2.483383645293638e-013 0.2857254330256484 0.3073978369455591 0.09727887401059282 1.451421153116592e-043 0.3095978560179514 5.997424650064522e-010 0.1840467546828347 0.3712855337118627 8.981232614023974e-013 8.14913562915411e-041 0.444667711004662 1.66322815729124e-016 0.7479535353014731 0.1702048593118913 0 0 0.0818416053866355 0.409935442237179 0.5900568864728469 7.003948379600014e-006 0 0 6.673415945854735e-007 0.07298537397406919 2.832938773050885e-011 0.1760578802869852 0.07109510786894466 0 0.6798616378416715 7.116668477733073e-032 5.344852774129707e-016 0.4183791470702119 3.478944386849379e-018 0 0.5816208529297875 9.463348445105847e-027 1.814639782496076e-009 0.6281607688849421 0 0 0.3718392293004181 0.0002776122763667475 2.764047824807055e-005 0.1503252193238374 2.681224671722211e-006 0.01034329436768046 0.8390235523291956 9.958731586761854e-005 0.11692856179413 0.07744183167847406 0.04395448513629145 0.001066679142100394 0.7605088549331365 0.00957118686460365 0.06585003498454149 0.2188002245355286 0.09563928233354856 3.596142808505521e-009 0.610139267685635 0.01546740147638006 0.08911983853974903 0.2698513013098817 0.04761380346382994 1.572148888448647e-010 0.5779476550529444 0.01733752898591597 0.1700491041153666 0.1718093935046942 0.06554781761017885 1.101024520292241e-007 0.5752560456813922 0.08320168972477093 0.5297420623712383 0.3034746643301934 1.654610941274867e-005 2.112374464412204e-033 0.08356503746438451 0.02795749457883858 0.369048737302732 0.2428398533521749 0.08203664247316957 5.671768375768552e-038 0.2781172722930851 0.05541128040948921 0.2175391667021151 0.4273626923994827 0.09227014532850922 2.694709955094337e-032 0.207416715160404 0.0744025388117749 0.2827823126739376 0.391613674540307 0.07833730771095918 2.758518846094819e-031 0.1728641662630213 0.05947789159317763 0.3260487495329555 0.3484560119097515 0.0571918568358544 1.306461108119545e-031 0.2088254901282608 0.1730381724114474 0.2629629797349009 0.2702370753770279 2.629579688085687e-008 1.392390816667549e-035 0.293761746180827 1.379984031580827e-007 0.266747474722129 0.3064728650764892 0.3015736237670463 3.418143987982046e-040 0.1252058984359323 0.03628958614652585 0.1552084468463507 0.3555708206394431 0.1792543800471856 3.700956457636984e-050 0.2736767663204948 1.792743826390144e-013 0.1840487761244396 0.4130375301441533 0.172293907636863 8.738202232841645e-048 0.2306197860943647 0.09036411080458846 0.2302900072628583 0.4416480784311913 0.08722613887424603 8.834591240524903e-045 0.150471664627116 0.1215345252039837 0.0002026082186278855 0.05284630960779565 6.821194003107502e-020 3.198530230463383e-022 0.8254165569695928 1.255492256038471e-007 0.3310823881160939 3.305271697022497e-005 7.055251906840255e-024 1.306922172383776e-027 0.6688844336177102 0.04792557835215915 0.1488036902251076 0.3801624064417118 0.04241284553089125 1.466558650025385e-036 0.3806954794501303 0.08757303133411332 0.2100442526292425 0.4489660944035845 0.1232459953421775 1.438041703392799e-036 0.1301706262908824 6.847006328962849e-012 0.2245634262629121 0.3506881626392544 3.817931322919209e-027 3.211102410581702e-031 0.4247484110909865 5.310254911568417e-018 3.595634815870805e-009 0.554341577371344 0 0 0.4456584190330212 4.112428765478284e-010 7.554227258532514e-011 0.00794340504890154 0 0 0.9920565944643133 0.07634190163559398 0.09378853418693203 0.589954403279 0.07413848309408284 0 0.1657766778043913 5.855539769757153e-030 0.1806322134010681 0.4078114589256655 1.528367116838154e-016 0 0.4115563276732664 6.82537639269828e-023 0.4978057965984358 0.2461211186646699 0 0 0.2560730847368943 7.474791160446268e-012 2.031538630291485e-005 0.06484907313066227 0.02067256161148848 2.38117847388245e-063 0.9144580498640715 1.188757151083917e-013 0.1437798161772249 0.1476622417656773 0.0749414247564473 2.065469332748477e-065 0.6336165173005316 0.02075535043563468 0.07938208178667855 0.2296836726638224 0.05834263553988497 1.682257847605425e-072 0.6118362595739795 0.03742254344646811 0.1508922519214996 0.1973037723388225 0.07385117672081575 4.396711185606804e-039 0.540530255572394 0.03641650820141228 0.1165413305864636 0.1546551372755163 0.02941385510282039 2.194589736077975e-039 0.6629731688337873 0.0687052673668466 0.2501896365684931 0.3464967405399157 0.08791357844849851 1.114486204654432e-033 0.2466947770762461 0.07264831825946359 0.2826298639317567 0.3372264692736641 0.08012034677928538 0.00178298132347333 0.2255920204323569 0.08580452091149708 0.2918485310338663 0.3194097236811 0.04947010339786328 0.001290427651578364 0.2521766933240951 0.06839083107185835 0.3525241356345832 0.2814960604834295 0.03750366716249726 3.489299546392683e-034 0.2600853056476317 0.1010885838012852 0.3451592200124631 0.2552296772447898 0.03426718135713708 2.03074555245166e-034 0.2642553375843249 0.03714123707637002 0.1668803097640451 0.34274534086956 0.1174546296438623 1.947185878299184e-038 0.3357784826461626 0.0449273974757301 0.1808762844636385 0.3231313716327252 0.09418361206436325 4.400258065550821e-053 0.3568813343635431 0.06417718844090796 0.2212317383320417 0.2955020693185524 0.1076495787770431 1.238183409038397e-047 0.3114394251314547 0.01545927424096143 0.2077640631529839 0.3687961643947505 0.01607915799651421 2.447627294994906e-046 0.39190134021479 6.766283389938072e-005 0.1899276666764761 0.3740269720710543 2.867252771158635e-005 2.272461357097099e-033 0.4359490258908586 0.0217302174306047 0.1275366836211518 0.3377757708365541 0.07373357811648441 1.550049021398164e-046 0.4392237499952051 0.06925415881502678 0.09973376580296309 0.3122895521176197 0.07610104941602103 2.516493200236097e-045 0.4426214738483693 5.596411290030993e-007 0.1125463654763645 0.4203938164183109 0.07668804778308018 1.998916661563788e-041 0.3903712106811155 5.752979850924814e-005 0.3815247319857827 0.05506050343256026 0.0005618035283554086 1.580229132552894e-039 0.5627954312547924 0.00065715378533003 0.1483822921938341 0.3606945587467796 0.04246426655550881 7.578136417920113e-038 0.4478017287185476 0.02588927392054939 0.07732908849824247 0.4216393645931602 0.1043120802370721 0 0.370830192750976 2.406317875980482e-009 0.2042067421800977 0.2685744153660661 0.08449521629367138 0 0.4427236237538469 0.02603843130514522 0.009228477569963242 0.5241329082591583 6.257769405948253e-006 0 0.4405939250963273 0.06070928978406293 0.2402910369457028 0.2059344376125743 0.02368199217041217 0 0.4693832434872478 1.009235245456127e-006 0.02713720437948993 0.360927871569889 0.0004591304608227031 0 0.6114747843545529 0.009404749610929129 0.08189015576612796 0.1952450421667575 0.02994932541476583 0.0003983161705666546 0.683112410870853 0.01253131108115773 0.0783218684660203 0.1805226936911766 0.03678232443172058 8.098667415643439e-048 0.6918418023299249 0.0135832747145234 0.05135339109380629 0.1035973262431307 0.02562522017601883 3.451387169512802e-049 0.8058407877725208 0.002454793976943849 0.03834307769554307 0.06042045585863834 0.009435750884359819 3.518815617053292e-056 0.889345921584515 0.002300502018251878 0.02322106374221863 0.04379265273416944 9.451842220869777e-006 1.816062580400968e-056 0.9306763296631392</probabilities>
			<property id="VegetationInfluence">VegetationInfluence=((ObservedCanopyCover/100)/3)+((ObservedSuccessionalStage/MaxSuccessionalStage)/3)+((ObservedSoftwoodPercent/100)/3)</property>
		</cpt>
		<cpt id="SoilCNRatio">
			<state id="VeryHighCNRatio" />
			<state id="HighCNRatio" />
			<state id="LowCNRatio" />
			<state id="VeryLowCNRatio" />
			<probabilities>3.572743658978764e-014 0.8509160977380146 0.1488441524690343 0.0002397497929154182</probabilities>
			<property id="SoilInfluence">SoilInfluence=((ObservedSoilTexture/MaxSoilTexture)/2)+((ObservedSoilDepth/MaxSoilDepth)/2)</property>
		</cpt>
		<cpt id="SequestrationRate">
			<state id="VeryHighSequestrationRate" />
			<state id="HighSequestrationRate" />
			<state id="ModerateSequestrationRate" />
			<state id="LowSequestrationRate" />
			<state id="VeryLowSequestrationRate" />
			<state id="NoSequestrationRate" />
			<parents>SummerHighWinterLow SoilCNRatio</parents>
			<probabilities>0.2249849554133172 0.2268906030599876 0.2273556175574661 0.1839542644564889 0.06243959370498455 0.07437496580775573 0.116361029081136 0.1216352522269656 0.17497296049193 0.0826132925006427 0.3269046143376229 0.1775128513617029 0.005326587370174133 0.2347626604654007 0.2567367974482776 0.03686187011925803 0.2476156058011217 0.2186964787957677 0.174082015545438 0.2950951487536813 0.2529650227820908 0.04028745644599527 0.09891785044223232 0.1386525060305622 0.1902895673603442 0.141711733296839 0.02986377327491853 0.1040782447973803 0.2627669769989059 0.2712897042716119 0.0002040553445742136 0.4154526429974996 0.05166762624787903 0.4484274745167804 0.049483683993424 0.03476451689984277 0.1388487663237202 0.1962771197676891 0.0896868958467571 0.1686258823877955 0.178692325355742 0.2278690103182959 0.2361333776984603 0.212045131431677 0.1252104822690753 0.0871573046170029 0.285681155913167 0.05377254807061752 0.9664352055164268 0.002797260655794423 0.0014257982316702 0.001869780552802509 0.008614165842255678 0.01885778920105043 0.003548063666931063 0.09700535015437245 0.07519429344763577 0.3360033803032851 0.1039975650401952 0.3842513473875804 0.7367040267720669 0.01018589176502698 0.133528056789252 0.08374704859060697 0.03058043602018418 0.005254540062862958 0.5168341870911626 0.2256684918729906 0.1357256374425113 0.04691272104199447 0.06431119089175577 0.01054777165958528 0.6502147022516359 0.009532631257141338 0.1561755655121923 0.04495199834410877 0.03284539565128051 0.1062797069836413 0.3055549395980217 0.01830369267618157 0.2292131106542514 0.2733760466222802 0.109201856662695 0.06435035378657018 0.4932336296053991 0.03724537942939762 0.2665114083841002 0.04666143647663047 0.1174026147154138 0.03894553138905896 0.4305092246406859 0.0262704687177081 0.2658886347149547 0.04767451376262288 0.2030792701972312 0.02657788796679739 0.1234325226939983 0.1394360103724417 0.194528501639222 0.2670167612371398 0.2208430072290426 0.05474319682815576 0.3854352237871085 0.07975867351952644 0.1940816464009318 0.1299468329969452 0.1922272647580017 0.01855035853748647 0.6877717286506775 0.03249430323091178 0.2282074184595836 0.01576135568251013 0.02648026826014201 0.009284925716174933 0.1071954995844257 0.2953750683252286 0.0535230672631141 0.1522457641919033 0.2729817254185661 0.1186788752167623</probabilities>
		</cpt>
		<cpt id="VegetationAndSoilCarbonSequestration">
			<state id="VeryHighSequestration" />
			<state id="HighSequestration" />
			<state id="ModerateSequestration" />
			<state id="LowSequestration" />
			<state id="VeryLowSequestration" />
			<state id="NoSequestration" />
			<parents>SequestrationRate VegetationCarbonStorage</parents>
			<probabilities>0.07501888512437421 0.7822710412980372 0.1426110734449158 9.900011933591255e-005 1.333679299696173e-011 9.391381875950214e-028 0.05103935471920441 0.796828747878327 0.1519394969460491 0.0001923622540543079 3.820236526959776e-008 1.159659661836191e-026 0.07633899331710753 0.8888230971533081 0.03450985972688507 0.0003280476258105606 2.176888652014124e-009 3.82956309422774e-023 0.1215863386025281 0.840886955174572 0.03752346992389585 3.236297993513324e-006 1.010644183389413e-012 2.206269840877276e-025 0.09340942941846446 0.516238632843548 0.3903519377379875 2.673419811230687e-037 1.240399784350899e-085 0 0.06399896784110677 0.7387065778876485 0.1888865937482581 0.00838453437182588 2.332014159611752e-005 6.009564693859642e-009 1.851870425086066e-008 0.0156273618616033 0.8747589482938498 0.09329932708656508 0.01631434423927753 8.558273765524164e-034 0.002188087581568542 0.005688156472306426 0.7938632969709123 0.1905731363440472 0.007687322631165446 2.591216049732505e-029 0.0213225233054943 0.02335495344184246 0.7810821103649951 0.1187375419413073 0.05550287094636084 3.304077176316214e-026 0.0139344103326728 0.4118292435876602 0.1583531088832055 0.296841345937704 0.1190418912587576 5.861462619423723e-029 6.350582321434233e-008 0.001122316505308939 0.9988776199888678 2.315633201826988e-030 9.143400706186397e-056 0 0.05929367107843369 0.3316713443066034 0.2130436547103841 0.3845001755117086 0.01149084408668822 3.103061820168128e-007 6.137728960943872e-005 0.5318127381896424 0.4467820198160882 0.02134109228243545 2.772422224649388e-006 3.522333698485036e-029 0.02880553904265642 0.3285101471538945 0.628339765382705 0.0142760280342914 6.852038645267147e-005 1.032066483401299e-026 0.08490288936201904 0.134908316560318 0.7758702136353737 0.00426547071574027 5.310972654912095e-005 1.853954133375183e-022 0.06663866763617653 0.3105552977335628 0.6226394625646815 0.0001663220095040255 2.500560750151471e-007 2.547473750928398e-026 0.4344308753198951 0.5639022105819957 0.001666914098109201 1.077714167092482e-035 2.415914661510075e-065 0 0.04409999000062557 0.5218230182430715 0.3912976194804937 0.03539450219708645 0.007384868153959385 1.924763391645142e-009 1.233830953995168e-009 0.09063972381723805 0.7661913031848022 0.1385475360345919 0.00462143572953697 3.058974003970456e-032 1.410233771795864e-006 0.111778356372496 0.7499615565042894 0.117818919871766 0.02043975701767691 2.727265579806451e-030 0.0001366874801198629 0.1506374035809368 0.7554018840074979 0.08759066378973643 0.006233361141709146 1.552977815582502e-024 0.001919482344306846 0.06105179219288683 0.8743222214213812 0.05947766686600062 0.003228837175424515 7.271573411485706e-028 0.0518237474585964 0.0007037997735691445 0.9474724527678344 7.270066595205675e-036 3.936900272821245e-058 0 0.005335936068518048 0.2301904606286888 0.6213537710462167 0.1262430859623338 0.01687674626176634 3.247618051481025e-011 9.163366835030333e-006 0.3952043560402818 0.4258716569620212 0.1783580488890983 0.0005567747417638136 1.276352047631948e-030 0.000822160551431695 0.5123003089278329 0.3253184017588608 0.1567917261624643 0.004767402599410333 1.957951738765674e-027 0.006558941230575345 0.6007036701696031 0.3640448799288929 0.02289973976836029 0.005792768902568425 3.422004313973003e-024 0.01259114497674616 0.5967864790710603 0.3428096939482023 0.04616051516616141 0.001652166837829769 2.078134588186751e-028 0.1173713389774713 0.002093752578551975 0.8805349084439768 7.04211488642574e-034 9.274008731841593e-059 0 0.04259222991328468 0.02234679957103566 0.7227956765010469 0.1768859459132606 0.03537925896220973 8.913916233268103e-008 4.462436327599457e-010 0.404992624003267 0.523879308110622 0.04356109481675827 0.0275669726231089 2.971288458901813e-033 2.297405418985818e-006 0.1803028609299639 0.5475087203972278 0.2177659239812242 0.05442019728616528 4.054049618676447e-031 0.001457785504266262 0.3738409448007453 0.2868819366046109 0.2536222566129578 0.08419707647741971 4.156472329408186e-026 0.0287597126750093 0.4311487777455051 0.4036861753747529 0.1150024411381225 0.02140289306661013 2.035206612191621e-028 2.453616296572113e-006 1.058399967091156e-006 0.9999964879837363 3.050134308473209e-035 2.55121047683973e-057 0 0.002582917442039208 0.06854744764606902 0.09416310841382372 0.3281188986697646 0.5065876278281744 1.291854321074497e-013</probabilities>
			<property id="CarbonSequestration">CarbonSequestration=VegetationCarbonSequestration+SoilCarbonSequestration</property>
		</cpt>
	</nodes>
	<extensions>
		<genie version="1.0" app="GeNIe 2.0.3887.0" name="Network1" faultnameformat="nodestate">
			<node id="SummerHighWinterLow">
				<name>SummerHighWinterLow</name>
				<interior color="ffffff" />
				<outline color="000080" />
				<font color="000000" name="Arial" size="8" />
				<position>268 401 404 436</position>
				<comment>The difference between summer high temperature and winter low temperature is also an important climatic predictor of NPP (Auch 2009; Rosenzweig 1968 noted the same for AET).\n\nMEAN TEMPERATURE OF WARMEST MONTH - MEAN TEMPERATURE OF COLDEST MONTH (e.g. Jul/Aug - Jan)\n\nClimate variables have also been aggregated as Weck&apos;s Climatic Index (Iverson et al. 1994).  We have some, but not all, of these data:\n\nWCI = dT(S)(P1 + SQRT(P2))(G)(H)/(100*Tm)\n\nWhere:\ndT (degrees C) = diurnal difference between average min and max temperature during warmest month of the growing season (dT is removed in the tropics, where high max temperature can lead to water stress) (HAVE)\nS (h) = mean daylight length during growing season\nP1 (dm) = avg. annual precipitation up to 20 dm (HAVE)\nP2 (dm) = avg. annual precipitation exceeding 20 dm (HAVE)\nG (months) = duration of growing season (HAVE growing degree days)\nH = avg. annual relative humidity (HAVE)\nTm (degrees C) = mean annual temperature of warmest month of the growing season (HAVE)</comment>
				<barchart active="true" width="184" height="108" />
			</node>
			<node id="SuccessionalStage">
				<name>SuccessionalStage</name>
				<interior color="ffffff" />
				<outline color="000080" />
				<font color="000000" name="Arial" size="8" />
				<position>1023 409 1148 439</position>
				<barchart active="true" width="181" height="126" />
			</node>
			<node id="PercentTreeCanopyCoverClass">
				<name>PercentTreeCanopyCoverClass</name>
				<interior color="ffffff" />
				<outline color="000080" />
				<font color="000000" name="Arial" size="8" />
				<position>751 402 858 432</position>
				<barchart active="true" width="230" height="108" />
			</node>
			<node id="HardwoodSoftwoodRatio">
				<name>HardwoodSoftwoodRatio</name>
				<interior color="ffffff" />
				<outline color="000080" />
				<font color="000000" name="Arial" size="8" />
				<position>503 404 661 432</position>
				<barchart active="true" width="194" height="108" />
			</node>
			<node id="VegetationCarbonStorage">
				<name>VegetationCarbonStorage</name>
				<interior color="ffffff" />
				<outline color="000080" />
				<font color="000000" name="Arial" size="8" />
				<position>592 253 714 282</position>
				<comment>Use DBHs from IVMP data as values for successional stage - 2.5, 7.5, 15, 25, 45 for early, pole, mid, late, and old growth successional stages respectively.</comment>
				<barchart active="true" width="306" height="126" />
			</node>
			<node id="SoilCNRatio">
				<name>SoilCNRatio</name>
				<interior color="ffffff" />
				<outline color="000080" />
				<font color="000000" name="Arial" size="8" />
				<position>89 395 176 427</position>
				<barchart active="true" width="169" height="90" />
			</node>
			<node id="SequestrationRate">
				<name>SequestrationRate</name>
				<interior color="ffffff" />
				<outline color="000080" />
				<font color="000000" name="Arial" size="8" />
				<position>252 252 367 283</position>
				<comment>Type your annotation here</comment>
				<barchart active="true" width="281" height="126" />
			</node>
			<node id="VegetationAndSoilCarbonSequestration">
				<name>VegetationAndSoilCarbonSequestration</name>
				<interior color="ffffff" />
				<outline color="000080" />
				<font color="000000" name="Arial" size="8" />
				<position>333 82 665 108</position>
				<comment>VegetationAndSoilCarbonSequetration = VegetationDensity*SequestrationRate\n\n(Ideally; since we&apos;re unlikely to get numbers for either of these variables we are including probabilities instead.)</comment>
				<barchart active="true" width="266" height="126" />
			</node>
			<textbox>
				<caption>Copyright 2011 The ARIES Consortium\n\nThis file is part of ARIES.\n\nARIES is free software: you can redistribute it and/or modify it under the terms of the GNU General Public License as published by the Free Software Foundation, either version 3 of the License, or (at your option) any later version.\n\nARIES is distributed in the hope that it will be useful, but WITHOUT ANY WARRANTY; without even the implied warranty of MERCHANTABILITY or FITNESS FOR A PARTICULAR PURPOSE.  See the GNU General Public License for more details.\n\nYou should have received a copy of the GNU General Public License along with ARIES.  If not, see &lt;http://www.gnu.org/licenses/&gt;.</caption>
				<font color="000000" name="Arial" size="10" />
				<position>832 50 1240 306</position>
			</textbox>
		</genie>
	</extensions>
</smile>
