<?xml version="1.0" encoding="ISO-8859-1"?>
<smile version="1.0" id="Network1" numsamples="1000" discsamples="10000">
	<nodes>
		<cpt id="PercentTreeCanopyCoverClass">
			<state id="VeryHighCanopyCover" />
			<state id="HighCanopyCover" />
			<state id="ModerateCanopyCover" />
			<state id="LowCanopyCover" />
			<state id="VeryLowCanopyCover" />
			<probabilities>0.05768912211570489 0.08281389465484257 0.1239973104771732 0.1578166965789774 0.5776829761733019</probabilities>
		</cpt>
		<cpt id="ForestDegradationStatus">
			<state id="Degraded" />
			<state id="NotDegraded" />
			<probabilities>0.04779315706629451 0.9522068429337055</probabilities>
		</cpt>
		<cpt id="VegetationCarbonStorage">
			<state id="VeryHighVegetationStorage" />
			<state id="HighVegetationStorage" />
			<state id="ModerateVegetationStorage" />
			<state id="LowVegetationStorage" />
			<state id="VeryLowVegetationStorage" />
			<state id="NoVegetationStorage" />
			<parents>PercentTreeCanopyCoverClass ForestDegradationStatus</parents>
			<probabilities>0.4830276387720878 0.2763524633755935 0.2097630402576021 0.03085685759471654 8.649501064891864e-058 1.205449633367831e-052 0.4636530818446106 0.06912502840574775 0.4469349001533642 0.0185408293137588 0.001746160282518528 1.263337294964887e-058 0.4496259775251569 0.3681624025545311 0.155570031012866 0.02585361487475018 0.0007879740326957372 7.281410147193213e-059 0.4215376467484536 0.3387737635161103 0.1982145429308409 0.03802493139367152 0.003449115410923856 9.032040202964747e-059 0.1649413370822496 0.07372645149417352 0.3051347966425696 0.399070647913467 0.05712676686754031 3.299505724458252e-051 0.2046630291246699 0.2281792093315949 0.1932594226822813 0.2813582266251429 0.09254011223631097 1.41823120407695e-042 0.2261475995721431 0.01862941794044577 0.1264331206330663 0.4449250071285694 0.1838648547257756 1.64956613139812e-048 0.1498124239957196 0.09731695636510133 0.09004928914913969 0.376418970477636 0.2864023600124034 3.715908234760952e-045 0.08221806274120685 0.005816945567821605 0.07880006795670227 0.1866114259537255 0.6465534977805437 5.243332251072207e-036 0.03746740015740818 0.01604771337598094 0.03522364810438571 0.2159247239646827 0.6953365143975425 8.848516313161415e-046</probabilities>
			<property id="VegetationInfluence">VegetationInfluence=((ObservedCanopyCover/100)/3)+((ObservedSuccessionalStage/MaxSuccessionalStage)/3)+((ObservedSoftwoodPercent/100)/3)</property>
		</cpt>
		<cpt id="SummerHighWinterLow">
			<state id="VeryHighSOL" />
			<state id="HighSOL" />
			<state id="ModerateSOL" />
			<state id="LowSOL" />
			<state id="VeryLowSOL" />
			<probabilities>0.004885526187945256 0.1395455875603339 0.4487514626215867 0.3002194950471903 0.1065979285829438</probabilities>
		</cpt>
		<cpt id="SoilCNRatio">
			<state id="VeryHighCNRatio" />
			<state id="HighCNRatio" />
			<state id="LowCNRatio" />
			<state id="VeryLowCNRatio" />
			<probabilities>1.974195295608401e-047 0.02187936166287057 0.1512010509886073 0.8269195873485222</probabilities>
			<property id="SoilInfluence">SoilInfluence=((ObservedSoilTexture/MaxSoilTexture)/2)+((ObservedSoilDepth/MaxSoilDepth)/2)</property>
		</cpt>
		<cpt id="SequestrationRate">
			<state id="VeryHighSequestrationRate" />
			<state id="HighSequestrationRate" />
			<state id="ModerateSequestrationRate" />
			<state id="LowSequestrationRate" />
			<state id="VeryLowSequestrationRate" />
			<state id="NoSequestrationRate" />
			<parents>SummerHighWinterLow SoilCNRatio</parents>
			<probabilities>0.0002371697541426762 0.5716332274160902 0.3777875584729014 2.467570708724039e-005 0.04846012588987819 0.001857242759900344 0.0002221840582594919 0.01172808814387915 0.01287627964953075 0.09920056478016671 0.8675832536206091 0.008389629747554717 0.0001857137413772854 0.2693414948951924 0.02930390554789757 6.740099289804271e-006 0.6998258414323086 0.00133630428393437 1.731965617429879e-006 0.7962888264080379 0.201099112915647 9.882052777614703e-016 0.002529101958687472 8.122675200911389e-005 0.000247582048761415 0.9380898383158202 0.05543075900187536 3.651471540374457e-005 0.004827271408973072 0.001368034509166197 0.001639431815882656 0.006396175737691815 0.02243586610255245 0.8263533205620184 0.136658433134322 0.006516772647532601 0.0001901887898745331 0.1654731764754813 0.8188906778469359 1.238330393160738e-017 0.01158089643853651 0.003865060449171803 8.068024555561601e-005 0.9234038065065238 0.06682123616745166 1.370694459106486e-012 0.00935008074319244 0.0003441963359060162 7.358065791700206e-007 0.9820395245859056 0.01785921825336697 9.374085235706778e-011 9.804185569525642e-005 2.479404712188888e-006 0.001367770540792202 0.7111915458075864 0.217687519949311 9.289096779479467e-007 0.06967669443331349 7.554035931886774e-005 0.005348698080351445 0.03127998838533573 0.03420572826654374 0.323810627160684 0.01357810381366487 0.5917768542934201 0.2177337979819789 0.3535121785437276 0.2364278392512427 0.066975231597768 0.02875702403892938 0.09659392858635338 8.550432137069546e-005 0.9897188440009588 0.007134353562488725 2.123900856818933e-011 0.002818812990677642 0.0002424851032651479 0.002245323007583735 0.2202900026655116 0.05158231205071966 0.0002391819478920026 0.3576734322657171 0.3679697480625759 0.01600231482838006 1.480928710464849e-007 0.0003395820532915199 0.867660754324345 0.02616958227030988 0.08982761843080243 0.04500953168717042 0.01768044166819179 0.02236050704612843 0.3446204596637061 0.3096842467142258 0.2606448132205775 4.744698483665101e-007 0.2190495297720757 0.7775805242642817 2.263939687484463e-010 1.591113679395131e-005 0.003353560130606365 0.01086771549301117 0.03405562071258535 0.2832231468783327 0.1803046327226739 0.3680466773044077 0.1235022068889892 0.1447817973821397 0.0007272687739041786 0.0001469764491339325 0.6546314581194669 0.1964535124136504 0.003258986861704929 0.04209718394471166 0.002492174016563945 0.07571909553618061 0.5837622126496123 0.2957035280295461 0.0002258058233852659</probabilities>
		</cpt>
		<cpt id="VegetationAndSoilCarbonSequestration">
			<state id="VeryHighSequestration" />
			<state id="HighSequestration" />
			<state id="ModerateSequestration" />
			<state id="LowSequestration" />
			<state id="VeryLowSequestration" />
			<state id="NoSequestration" />
			<parents>VegetationCarbonStorage SequestrationRate</parents>
			<probabilities>0.05707063621591892 0.04535992671680136 0.4647294921468162 0.4293523706186559 0.003487574301807587 4.811537739949144e-052 1.386366259602553e-015 2.300205661443709e-008 0.3637044830715631 0.6250704061970095 0.01122508772936942 5.349384827123943e-051 8.604916170692109e-006 0.0009051514545324088 0.3458328952048647 0.3167198749292493 0.3365334734951829 2.789206792161915e-049 0.9118138151118129 0.08809082103968365 9.465710587503274e-005 4.003720146101861e-008 6.667054270542841e-007 3.291694274166375e-057 0.3418097029588763 0.5523935000483372 0.07376172574423433 0.01840604305173207 0.0136290281968203 3.676425508846124e-054 0.275694237081921 0.108620766966326 0.2593762869827369 0.2010363717399377 0.1552723372290784 3.988367743849998e-054 0.9222615281144647 0.07616514984913418 0.0001379304710225521 0.001435378767321204 1.279805746922443e-008 1.744199405840894e-082 0.2220776149097783 0.7543492035703249 0.008748737934293129 0.01053710660707713 0.004287336978526598 1.258475058447463e-070 0.1912363285662646 0.4842334012560981 0.3104937624396328 0.01161650531062399 0.002420002427380451 1.885363699774852e-079 0.7943511961284502 0.15672582737603 0.04808059482209633 0.000470812977979406 0.0003715686954441144 3.762532736683092e-085 0.8042014380673447 0.1876065841509532 0.007972677973545625 2.014366153373785e-005 0.0001991561466229062 1.786004376954491e-084 0.2683306604913886 0.3213218275263748 0.4092924977414047 8.337463598176993e-005 0.0009716396048501405 3.941167400511928e-084 0.02584431090244766 0.5755540690616122 0.3761275435925359 0.01444447074756289 0.00802960569584142 1.252253141137667e-059 1.559530696263125e-008 0.002128312120608887 0.5219859747262847 0.4327850907427023 0.04310060681509711 4.832163630004088e-058 6.388436478382122e-007 4.891679163808027e-005 0.8643891553923219 0.1126460306628835 0.02291525830950874 1.090814586292191e-058 0.5784058770741944 0.3825844314021781 0.03900969126895408 2.546730041245902e-010 3.739740568096187e-016 1.092696899557144e-068 0.3975922011486812 0.5351265239440456 0.06728127490309672 4.176538694101092e-012 4.22955735983655e-017 7.937039008883083e-065 0.7985500233013391 0.2002306720215981 0.001219304573588827 1.034232489244469e-010 5.063162933846578e-014 9.781181110153638e-063 2.567639683258135e-007 0.2829947384823289 0.4615276242020526 0.2477929763737403 0.007684404177910001 2.333549509774497e-067 4.782464542858517e-009 0.0005850453239646221 0.8430301470967001 0.1442488574618999 0.01213594533497082 1.361178847153006e-066 1.537420645440013e-008 0.2147224964991025 0.5748556940663713 0.189139013049409 0.02128278101091084 3.105473944136776e-066 0.1384806811036488 0.7367019316396825 0.1106995792585289 0.01053339265321094 0.003584415344928912 8.365233244545007e-066 0.01534551559771676 0.01505691919129355 0.2107115384113976 0.6668700288319528 0.09201599796763921 1.433636005746765e-061 0.0001830353483092128 0.5234656488339747 0.4604936757193035 0.01558503129180505 0.0002726088066076446 2.466253940847068e-065 3.617013584385812e-008 0.5373888730572034 0.4513459108066906 0.01126124827404523 3.931691925019939e-006 9.619680316083067e-064 1.388734937953449e-013 4.57730143710033e-006 0.4948225989481338 0.4186291259550966 0.08654369779519366 4.950768369760476e-065 1.098005623905207e-007 0.01595049944125508 0.8475333682393257 0.1355171230229523 0.0009988994959046892 1.35445872374106e-063 0.01516055127937893 0.8583331712978205 0.1233297249902824 0.003166597769799117 9.954662719018435e-006 6.199769430961296e-065 0.008799998585239574 0.12810769911504 0.3572440794580208 0.4286414841772274 0.07720673866447214 4.62683563599337e-064 7.570354016016566e-009 0.2841204416504 0.5883823383698313 0.1273125032301615 0.0001847091792529687 1.336514139392333e-062 1.982813763041826e-044 2.703504400889365e-034 8.36039505887092e-027 2.59162083990349e-019 1 0 1.707417059670323e-043 3.367319385575963e-036 1.229810377284793e-028 1.092645395639811e-019 1 0 8.932309241704487e-044 4.170402674751822e-035 4.682953009099965e-027 2.025218261164724e-019 1 0 8.837030943883671e-038 4.761961339447289e-036 5.464266814429473e-022 3.37490402730634e-019 1 0 1.683567053111393e-037 5.232708001325355e-035 1.605378382552625e-021 2.62960500637652e-018 1 0 2.795469469288501e-042 8.837053461684262e-033 5.889468031236148e-027 8.337753193384114e-018 1 0</probabilities>
			<property id="CarbonSequestration">CarbonSequestration=VegetationCarbonSequestration+SoilCarbonSequestration</property>
		</cpt>
	</nodes>
	<extensions>
		<genie version="1.0" app="GeNIe 2.0.3887.0" name="Network1" faultnameformat="nodestate">
			<node id="PercentTreeCanopyCoverClass">
				<name>PercentTreeCanopyCoverClass</name>
				<interior color="ffffff" />
				<outline color="000080" />
				<font color="000000" name="Arial" size="8" />
				<position>784 483 893 513</position>
				<barchart active="true" width="222" height="108" />
			</node>
			<node id="ForestDegradationStatus">
				<name>ForestDegradationStatus</name>
				<interior color="ffffff" />
				<outline color="000080" />
				<font color="000000" name="Arial" size="8" />
				<position>1036 458 1153 492</position>
				<barchart active="true" width="153" height="54" />
			</node>
			<node id="VegetationCarbonStorage">
				<name>VegetationCarbonStorage</name>
				<interior color="ffffff" />
				<outline color="000080" />
				<font color="000000" name="Arial" size="8" />
				<position>913 336 1035 365</position>
				<comment>Use DBHs from IVMP data as values for successional stage - 2.5, 7.5, 15, 25, 45 for early, pole, mid, late, and old growth successional stages respectively.</comment>
				<barchart active="true" width="277" height="126" />
			</node>
			<node id="SummerHighWinterLow">
				<name>SummerHighWinterLow</name>
				<interior color="ffffff" />
				<outline color="000080" />
				<font color="000000" name="Arial" size="8" />
				<position>549 483 685 518</position>
				<comment>The difference between summer high temperature and winter low temperature is also an important climatic predictor of NPP (Auch 2009; Rosenzweig 1968 noted the same for AET).\n\nMEAN TEMPERATURE OF WARMEST MONTH - MEAN TEMPERATURE OF COLDEST MONTH (e.g. Jul/Aug - Jan)\n\nClimate variables have also been aggregated as Weck&apos;s Climatic Index (Iverson et al. 1994).  We have some, but not all, of these data:\n\nWCI = dT(S)(P1 + SQRT(P2))(G)(H)/(100*Tm)\n\nWhere:\ndT (degrees C) = diurnal difference between average min and max temperature during warmest month of the growing season (dT is removed in the tropics, where high max temperature can lead to water stress) (HAVE)\nS (h) = mean daylight length during growing season\nP1 (dm) = avg. annual precipitation up to 20 dm (HAVE)\nP2 (dm) = avg. annual precipitation exceeding 20 dm (HAVE)\nG (months) = duration of growing season (HAVE growing degree days)\nH = avg. annual relative humidity (HAVE)\nTm (degrees C) = mean annual temperature of warmest month of the growing season (HAVE)</comment>
				<barchart active="true" width="186" height="108" />
			</node>
			<node id="SoilCNRatio">
				<name>SoilCNRatio</name>
				<interior color="ffffff" />
				<outline color="000080" />
				<font color="000000" name="Arial" size="8" />
				<position>360 476 447 508</position>
				<barchart active="true" width="173" height="90" />
			</node>
			<node id="SequestrationRate">
				<name>SequestrationRate</name>
				<interior color="ffffff" />
				<outline color="000080" />
				<font color="000000" name="Arial" size="8" />
				<position>568 336 683 367</position>
				<barchart active="true" width="288" height="126" />
			</node>
			<node id="VegetationAndSoilCarbonSequestration">
				<name>VegetationAndSoilCarbonSequestration</name>
				<interior color="ffffff" />
				<outline color="000080" />
				<font color="000000" name="Arial" size="8" />
				<position>599 176 931 202</position>
				<comment>VegetationAndSoilCarbonSequetration = VegetationDensity*SequestrationRate\n\n(Ideally; since we&apos;re unlikely to get numbers for either of these variables we are including probabilities instead.)</comment>
				<barchart active="true" width="241" height="126" />
			</node>
			<textbox>
				<caption>Copyright 2011 The ARIES Consortium\n\nThis file is part of ARIES.\n\nARIES is free software: you can redistribute it and/or modify it under the terms of the GNU General Public License as published by the Free Software Foundation, either version 3 of the License, or (at your option) any later version.\n\nARIES is distributed in the hope that it will be useful, but WITHOUT ANY WARRANTY; without even the implied warranty of MERCHANTABILITY or FITNESS FOR A PARTICULAR PURPOSE.  See the GNU General Public License for more details.\n\nYou should have received a copy of the GNU General Public License along with ARIES.  If not, see &lt;http://www.gnu.org/licenses/&gt;.</caption>
				<font color="000000" name="Arial" size="10" />
				<position>910 15 1318 271</position>
			</textbox>
		</genie>
	</extensions>
</smile>
