<?xml version="1.0" encoding="ISO-8859-1"?>
<smile version="1.0" id="Network1" numsamples="1000" discsamples="10000">
	<nodes>
		<cpt id="SummerHighWinterLow">
			<state id="VeryHighSOL" />
			<state id="HighSOL" />
			<state id="ModerateSOL" />
			<state id="LowSOL" />
			<state id="VeryLowSOL" />
			<probabilities>0.004881089387215641 0.1394487215098611 0.4487114669591176 0.3002244218601541 0.1067343002836516</probabilities>
		</cpt>
		<cpt id="PopulationDensity">
			<state id="HighPopulationDensity" />
			<state id="ModeratePopulationDensity" />
			<state id="LowPopulationDensity" />
			<probabilities>0.3109837705482575 0.1187166080915877 0.5702996213601547</probabilities>
		</cpt>
		<cpt id="PercentTreeCanopyCoverClass">
			<state id="VeryHighCanopyCover" />
			<state id="HighCanopyCover" />
			<state id="ModerateCanopyCover" />
			<state id="LowCanopyCover" />
			<state id="VeryLowCanopyCover" />
			<probabilities>0.0575747684872983 0.08269840605247379 0.1240663857204362 0.1578155152002405 0.5778449245395511</probabilities>
		</cpt>
		<cpt id="ForestDegradationStatus">
			<state id="Degraded" />
			<state id="NotDegraded" />
			<probabilities>0.04764695204094307 0.952353047959057</probabilities>
		</cpt>
		<cpt id="VegetationDensity">
			<state id="VeryHighVegetationDensity" />
			<state id="HighVegetationDensity" />
			<state id="ModerateVegetationDensity" />
			<state id="LowVegetationDensity" />
			<state id="VeryLowVegetationDensity" />
			<state id="NoVegetationDensity" />
			<parents>PercentTreeCanopyCoverClass ForestDegradationStatus</parents>
			<probabilities>7.415173311452448e-005 0.04479665711380543 0.215276849493972 0.2533728650869039 0.4864794765721817 2.248450480212649e-014 0.003718519660725678 0.0009475474376103347 0.1279328854303895 0.01751137822571993 0.8498889716870939 6.975584606205219e-007 0.0001738540707578963 0.002111325393880073 0.300105751254531 0.4040164595404017 0.2935917607551828 8.489852466127874e-007 0.005686713416464297 0.0001215435436514572 0.4402198372803937 0.3514258754605488 0.2022718895147838 0.0002741407841579628 0.001666121536025918 0.149722910136586 0.06546097292118323 0.4249555085149199 0.3403771794153859 0.01781730747589906 0.07632613753846571 0.1139479699375738 0.07740685150687128 0.419620565302172 0.3082089770806731 0.004489498634243951 0.05027868322711426 0.183428884452318 0.1955013359069808 0.4063625624989907 0.04296860951786685 0.1214599243967294 0.2619679072569904 0.1773821091361726 0.2012791663493872 0.2637972789640278 0.01427062422347341 0.08130291406994857 0.05709325133740545 0.07643853364987986 0.09873416791704678 0.009880818926276964 0.01481350167152362 0.7430397264978673 0.5361132470574245 0.04211508746892781 0.02874694916410907 0.003947520783763928 0.005613165731679279 0.3834640297940955</probabilities>
			<property id="VegetationInfluence">VegetationInfluence=((ObservedCanopyCover/100)/3)+((ObservedSuccessionalStage/MaxSuccessionalStage)/3)+((ObservedSoftwoodPercent/100)/3)</property>
		</cpt>
		<cpt id="SoilCNRatio">
			<state id="VeryHighCNRatio" />
			<state id="HighCNRatio" />
			<state id="LowCNRatio" />
			<state id="VeryLowCNRatio" />
			<probabilities>6.249911488393817e-036 0.02246674950081926 0.1516300117483186 0.8259032387508621</probabilities>
			<property id="SoilInfluence">SoilInfluence=((ObservedSoilTexture/MaxSoilTexture)/2)+((ObservedSoilDepth/MaxSoilDepth)/2)</property>
		</cpt>
		<cpt id="SoilOxygenConditions">
			<state id="AnoxicSoils" />
			<state id="OxicSoils" />
			<probabilities>0.00941728742631299 0.990582712573687</probabilities>
		</cpt>
		<cpt id="VegetationCarbonStorage">
			<state id="VeryHighVegetationStorage" />
			<state id="HighVegetationStorage" />
			<state id="ModerateVegetationStorage" />
			<state id="LowVegetationStorage" />
			<state id="VeryLowVegetationStorage" />
			<state id="NoVegetationStorage" />
			<parents>SummerHighWinterLow VegetationDensity PopulationDensity</parents>
			<probabilities>9.538505251345022e-040 1.993327811114109e-047 0.09066212770164009 0.04533951052701123 0.8639983617713487 7.196481719513749e-049 2.793801038990674e-042 6.352372353564477e-050 0.08605906542927359 0.03112652555551726 0.8828144090152091 6.036547625106806e-051 1.064804693863927e-041 1.334473396573757e-050 0.04337283490930073 0.04493101051482683 0.9116961545758725 8.607784381343315e-052 3.003631617116992e-045 2.862359243531917e-052 0.02481947441991797 0.09840765540360785 0.8767728701764741 4.188732825409391e-053 7.070689102718163e-048 5.818669155370221e-054 0.0005934776822832073 0.1224099058934596 0.8769966164242571 1.422018958883158e-054 1.525102677371684e-048 1.486707006780763e-056 0.004674172875556673 0.0322739324059013 0.9630518947185421 2.785856765823705e-058 2.310086729607817e-040 7.867893346017508e-048 0.1080509910106437 0.08934211260707221 0.8026068963822841 3.196931612032878e-050 1.17659103442987e-041 2.316764097710481e-049 0.1112529836331609 0.225456235618334 0.6632907807485051 1.063682678048343e-049 1.798971223450081e-042 9.137782123212293e-051 0.008328428404597315 0.5081610421986151 0.4835105293967876 7.612295033149496e-052 1.485860596633259e-037 6.749966191850839e-045 0.1474336812144316 0.3716913539952544 0.4808749647903139 5.107646412735268e-046 1.252902326135038e-039 4.353855140133e-046 0.256010593555218 0.4505745499468163 0.2934148564979656 2.16848075511519e-047 2.876133326519929e-041 9.734625617464287e-050 0.05234436461272109 0.9423277082901882 0.005327927097090904 1.20509143185576e-050 2.422173086542589e-033 1.924577656248555e-038 0.2446430477962323 0.08559639449573626 0.6697605577080315 4.489432722186963e-039 1.03575112959456e-035 2.482587153529254e-040 0.4039441897097533 0.03090209305999873 0.565153717230248 9.054403202442945e-042 5.38068944423968e-034 8.33628542278724e-041 0.1743355133448541 0.2628096297557651 0.5628548568993809 2.454766237058618e-041 1.875512777954899e-041 1.492020196538641e-048 0.00288197452697689 0.0267136761046874 0.9704043493683356 1.877228224599271e-051 6.573643371187046e-045 5.456751344839828e-052 0.005810815929900192 0.00337646027721789 0.990812723792882 3.876233139136007e-053 6.029456146428241e-044 3.275221040784757e-053 0.004896078641702735 0.05660511639438922 0.9384988049639081 1.491262036469482e-054 0.002982321173435774 5.189916223601439e-047 0.004065436536073603 0.04718384493309378 0.9457683973573969 3.876154188527816e-048 0.004715681678217276 1.912315444869506e-051 0.001952579067705481 0.07465052494227967 0.9186812143117975 1.848687605541059e-051 0.006958581384066537 2.783579868028114e-052 0.003470965101548865 0.1370405460396724 0.8525299074747123 1.725724857811829e-052 0.0001428237586189101 4.363164226926314e-047 0.001510700674378089 0.3635264583232694 0.6348200172437336 9.61325198795732e-048 0.0005645732198601264 9.079738958545968e-050 0.09387230274467155 0.3798405596787187 0.5257225643567497 2.120081786874113e-050 0.0001509696492807777 2.645921375881969e-053 0.05573161233730661 0.4274537014237949 0.5166637165896177 4.545240974288525e-054 0.1551913185481039 6.795962440909225e-044 0.1358372670136163 0.5502395152496938 0.158731899188586 4.631491637232211e-045 0.2017250583195835 5.832052601170001e-046 0.02387236579955696 0.4629299187823988 0.3114726570984607 1.459153691960065e-046 0.1164608556532202 4.092987196211009e-050 0.08040547981819984 0.6384201856594559 0.1647134788691241 8.743343213758479e-051 9.2468874202606e-006 8.292966569609132e-045 0.05591936170424978 0.8536359551350609 0.09043543627326928 1.029601924300306e-045 0.0007498014194984782 4.834221342829354e-047 0.04503080616167613 0.9045716041766447 0.04964778824218081 4.006827815726841e-048 0.01073785895636136 3.661551315235453e-052 0.04708677111376362 0.9319069727984025 0.01026839713147255 3.272446520466448e-052 0.004883383090577946 2.884871799486619e-034 0.07417642793052005 0.4121306724243015 0.5088095165546005 7.370535415481486e-035 0.002109634681103289 5.363281314714217e-040 0.1099871213634841 0.3714821135312549 0.5164211304241575 6.721760764786425e-040 0.005251334730658171 5.308645865316121e-046 0.3854026979879812 0.4205092608782694 0.1888367064030913 5.855960704749733e-046 0.0004416820413756584 2.205131645944759e-046 0.008799083825600174 0.1125220560724717 0.8782371780605526 7.523459262049955e-048 0.0008238687655073951 7.609519078602276e-050 0.002380306935351666 0.09005709239686528 0.9067387319022757 8.438271728432375e-051 0.0001943618124558351 1.164570399931375e-051 0.001954629104434565 0.08569194785038201 0.9121590612327275 4.841567074560086e-053 0.0001260540851561402 2.668395620073118e-005 0.002219069655993515 0.1916006879316812 0.8060275043709683 2.316686762775645e-048 0.001287181850381375 9.909234938920135e-007 0.00379061830697806 0.15910917706048 0.8358120318586668 4.465632587198899e-048 1.199975500788213e-005 5.190038031748717e-009 0.003972163449677638 0.2446790917657857 0.7513367398394908 9.911711515208565e-045 0.205701285154924 1.313966710112367e-006 0.01738543260551307 0.6898783691761304 0.08703359909672247 7.277913722141521e-044 0.3210411120436018 1.639208722334431e-006 0.05751853796063881 0.4549481535167372 0.1664905572703 8.780009853608618e-044 0.3229835134907715 9.574887215108952e-009 0.02615954582764688 0.4517444565837612 0.1991124745229331 2.36713090593868e-038 0.1046557192077767 0.0008385600865909155 0.2338526826504572 0.3548864435676543 0.3057665944875208 1.902999646486635e-044 0.100611587500492 0.0005061861102709377 0.3718174407077072 0.2989654392270854 0.2280993464544446 1.313014830012585e-046 0.2626172718593327 0.0002799579524722899 0.2169705369958839 0.4670832412971135 0.05304899189519752 2.05323178149419e-041 0.0145176178133954 0.009629131267830158 0.1873340348957212 0.638697676981021 0.1498215390420323 1.603902648513355e-043 0.03147506422910099 0.005352266873543562 0.09530605597975753 0.8025164328293074 0.06535018008829056 3.97865060149307e-048 0.05551793199704475 0.0005268395438137211 0.1254762260825731 0.8055152408225433 0.012963761554025 1.9340116365019e-040 0.166880961297638 0.02913031125320786 0.570138086550511 0.1462067480849338 0.08764389281370942 1.323092903799785e-038 0.1459046868856373 0.001654271743044415 0.6561801041925733 0.1620430692460432 0.0342178679327018 1.511122717214977e-041 0.1319808478038929 0.00154095799300985 0.8401427130186572 0.02488938842982085 0.001446092754619267 1.409404274839235e-038 0.002389605351503567 4.120565119289983e-006 0.02848814260187003 0.2735295785704223 0.6955885529110847 2.858481347449235e-047 0.005572911421227273 3.392491459884302e-007 0.0189549053764663 0.2505381925529511 0.7249336514002094 4.457807651105258e-046 0.0007740450064731993 1.912819997473665e-010 0.0121850694927162 0.2067825379717315 0.7802583473377971 2.627094205615402e-045 0.1260977628665949 0.127102460124557 0.1156072983454995 0.2729411432607833 0.3582513354025654 9.112335463431269e-044 0.03513759087355236 0.04041081620105812 0.07779775748994226 0.3883845298429839 0.4582693055924633 1.147691223486186e-045 0.05737306470516104 0.007652140410338923 0.02974953816333479 0.5925558275870039 0.3126694291341613 6.94246149145014e-038 0.1778615497392803 0.04424956835135434 0.07618253743568668 0.5243168262470715 0.177389518226607 1.731930687942393e-045 0.3211415163966841 0.0350110811321331 0.05446916256082911 0.3684383890888248 0.220939850821529 1.300237459224178e-044 0.3788648491535243 0.0002257368359996244 3.140678859380948e-005 0.4355835731688332 0.185294434053049 5.055635425430021e-037 0.5472961911480146 0.1617716866867105 0.1948447833841245 0.09389123228321455 0.002196106497936003 2.66593133373284e-052 0.7876226365340217 0.006221146620853738 0.2026234942312703 0.00353259563907347 1.269747807910273e-007 2.973856306758637e-053 0.4186159719389107 0.03347238907528349 0.519261070078105 0.02842879465923748 0.0002217742484635567 3.611500489871883e-043 0.06517474588751387 0.8154442461050552 0.08207674529404881 0.03730352634542238 7.363679596158804e-007 5.765595611912734e-053 0.09807171489819469 0.6452197207039235 0.1604861556055908 0.096222375798774 3.299351698545638e-008 2.325277280749773e-052 0.5289974644415575 0.3298145573839549 0.009577937180585153 0.1304170919248169 0.001192949069085477 7.554849715014648e-043 0.4284325983812735 0.1784523076744016 0.3447427798436891 0.04823501948680197 0.000137294613833833 3.658622754863159e-048 0.54563512895234 0.06359987461821465 0.3767981243615347 0.01396681700724553 5.506066515115343e-008 6.199730943304435e-050 0.4589522688607495 0.01539628812529854 0.5226606832739985 0.002979645296082176 1.111444387127315e-005 1.797759651405899e-046 0.0004533768782036412 2.642842481886544e-005 0.04860243576225846 0.008085151386144764 0.9428326075485742 7.572955866960185e-045 0.009665627021383981 5.97505287729354e-006 0.06977317113014175 0.01451656362388501 0.9060386631717119 1.212085039129901e-046 0.04412902942561732 3.852120139573193e-005 0.02645319940906957 0.05126707995090794 0.8781121700130095 2.001259730999589e-038 0.3999173689783822 0.3657302317968141 0.1011437761312628 0.03222348947872976 0.1009851336148113 5.035262619660991e-042 0.1428940383174253 0.223851407042058 0.2291527117297001 0.04820312664358878 0.3558987162672278 4.934508278290254e-039 0.19561457753136 0.1040915812954555 0.168327617321988 0.08086985335662024 0.4510963704945762 7.912223415750087e-030 0.05791387406949062 0.9263956905687694 1.942420101799547e-005 0.01567018076834009 8.30392382084695e-007 2.389302920033111e-045 0.101032765777443 0.8365813452075682 0.0004156689131823825 0.06195537549527391 1.484460653235211e-005 1.208350074731775e-040 0.5145320557825538 0.1303037281387165 0.04847466679833062 0.3026576491318933 0.004031900148505958 1.516904091222396e-028 0.2163148838837294 0.7793832250124809 0.004301443167042846 2.573994476669857e-007 1.90537299207703e-007 3.752313603330737e-047 0.8957904682480442 0.04854141983893962 0.05565010644932714 1.800516831182899e-005 2.953771707503358e-010 1.480801283332907e-049 0.8620060803090971 0.04831056964692277 0.08886488595987266 0.0006167902395227887 0.0002016738445846948 1.315492846347183e-036 0.2041363287082889 0.7950746821398395 0.0003933023229682001 0.0003956867050359733 1.238674153287952e-010 3.716913138318885e-048 0.1437103482653294 0.8554979240601115 0.0007914834080840232 2.442663223383434e-007 1.526647797221642e-013 4.471033671502346e-048 0.1977019578321868 0.7710317441287805 0.03111767789139966 0.0001470357166806977 1.584430952530213e-006 7.551685416021982e-038 0.4335794480318766 0.5663667002742971 3.697779631023975e-005 1.687388779948834e-005 9.716471560907983e-012 2.241850799881248e-046 0.6959407445407615 0.2980995454643019 0.005591037462276686 0.0003686725014426045 3.12173750596414e-011 2.547938238034311e-043 0.7697197143994802 0.2096434160585873 0.01751858359012286 0.002031776584308019 0.001086509367501654 1.492995313296629e-035 0.001506952318721144 0.005203244831481596 0.2570730730868763 0.01282351086674291 0.7233932188961781 1.031729747360991e-040 0.01690555151387602 0.002307496226507275 0.2731413017250211 0.02427770568832373 0.6833679448462721 8.758236073030535e-039 0.07462816684974115 0.001058706434480801 0.3972456972824442 0.07126317444556776 0.4558042549877661 7.747980235717474e-028</probabilities>
		</cpt>
		<cpt id="SlopeClass">
			<state id="Level" />
			<state id="GentlyUndulating" />
			<state id="RollingToHilly" />
			<state id="SteeplyDissectedToMountainous" />
			<probabilities>0.1760787922954576 0.3576306721239097 0.3842468902002699 0.08204364538036277</probabilities>
		</cpt>
		<cpt id="SoilPh">
			<state id="HighPh" />
			<state id="ModeratePh" />
			<state id="LowPh" />
			<probabilities>0.03434814942101273 0.4264154987073331 0.5392363518716542</probabilities>
		</cpt>
		<cpt id="SoilCarbonStorage">
			<state id="VeryHighSoilStorage" />
			<state id="HighSoilStorage" />
			<state id="ModerateSoilStorage" />
			<state id="LowSoilStorage" />
			<state id="VeryLowSoilStorage" />
			<state id="NoSoilStorage" />
			<parents>SoilOxygenConditions VegetationDensity SlopeClass SoilCNRatio SoilPh</parents>
			<probabilities>0.256308086023436 0.1877609661922543 0.04412292910699095 0.228235980783909 0.07052260584564221 0.2130494320477676 0.2458615824069923 0.2240538711268663 0.05101467231074547 0.1223801493616041 0.04208968578999861 0.3146000390037931 0.1550640497805916 0.2027287603839887 0.2057201821953065 0.2028642603266615 0.05616993777425637 0.1774528095391953 1 1.342346763181335e-024 6.269231081099278e-034 2.132658920848919e-033 2.622101389773122e-033 2.38084565484851e-033 1 3.080486053343813e-024 5.382407918943252e-034 1.722514256569683e-033 8.615365887168097e-035 1.758923958558113e-033 0.9604040843066286 0.03959591569337134 2.309800984527973e-032 2.208157743973814e-032 1.781256133646193e-033 8.006488046931714e-034 0.1020934211784514 0.03633432531068594 0.7385668465513593 0.01185923579996548 0.1015734546846923 0.009572716474845472 0.1714730260196415 0.01767585048292859 0.5333337922897378 0.028468161147368 0.14893820625307 0.1001109638072542 0.01934864860769257 0.5822691255467332 0.3832995648460137 0.001780850844795043 0.005019870767304079 0.008281939387461506 1.420063697870019e-010 4.789874738730168e-006 0.4489979161810502 0.5494597791751211 0.001537514616982704 1.010096939877884e-011 2.162835834439557e-011 0.2889585238177073 0.3036264351906102 0.2207810355104951 0.1866340054327767 2.678218620989794e-011 2.073891367968415e-010 3.101217097251841e-005 0.9469595976558577 0.007779732407143384 0.04522965710807207 4.505652117111319e-010 0.03724271031525669 0.2311487796662621 0.1999599442861432 0.290640618314565 0.003249974965178847 0.2377579724525941 0.02165637860082294 0.2140432098765426 0.2531378600823052 0.03801440329218082 0.3592849794238694 0.113863168724279 0.3423797542565388 0.1770891858221172 0.02855607396731544 0.2450228399736183 0.1663898185016013 0.04056232747880897 1 3.292817798806626e-028 2.177148615482541e-032 2.661422194474207e-032 2.527764201210672e-032 1.161272139771282e-031 1 1.578047199763511e-027 3.021989002748125e-032 9.45654043259648e-032 6.533652149460001e-032 2.864205111915343e-032 0.9194342472560095 0.0805657527439905 8.338729146547484e-033 6.138121023541328e-033 9.771080757605622e-033 1.14937096054562e-032 0.006663150018742095 0.1519153634707838 0.7157241698525662 0.02393385658906023 0.001325944568946983 0.1004375154999008 0.01314878637441698 0.02846152421820459 0.8006796144083315 0.002393624593814455 0.1066401025933893 0.048676347811843 0.2391550192319296 0.1870493388348604 0.5737956215691321 6.973713540458526e-009 8.9469808034141e-009 4.443383442955868e-009 7.586175048985039e-025 0.02637948219486435 0.767993882671683 0.2056266351297924 3.660116704066272e-012 2.858893629279664e-024 1.085634008709359e-022 0.3325709209101777 0.4300398674689682 0.1599631375697506 0.07742607405110351 2.606407129881841e-021 4.465422889033892e-015 0.003886796918195671 0.753770123246953 0.01280159566942188 0.2295414841654138 1.123760694888535e-014 0.1124924368476781 0.1697076841627587 0.0003876115564967466 0.2144815459083349 0.2303547118438969 0.2725760096808347 0.04679445667659633 0.20090661831369 0.3414972153866079 0.1266675301126795 0.2570392436212926 0.02709493588913358 0.2258299643181029 0.2511208861993272 0.2729537999949145 0.02373142803868223 0.02224821378626458 0.2041157076627087 1 9.15924048172722e-025 3.461034544371277e-032 1.96362755282355e-032 4.215665060363774e-033 1.715153054725674e-032 1 1.201417371931923e-025 1.449465763361857e-032 2.50356414391422e-032 5.656384450664513e-033 6.091490946869471e-033 0.8159217260600025 0.1840782739399976 3.425886814512352e-032 4.795308280548893e-033 6.240488480725766e-033 2.713864508860161e-032 2.551768566100532e-005 0.9999321843244712 8.968168333645787e-006 1.039799795567873e-005 1.469902616575569e-005 8.232797412849729e-006 3.847808967858545e-005 0.9998967670237251 9.434119273496092e-007 1.81329321918521e-005 2.960774731889317e-005 1.60707951581401e-005 0.0007688846833781428 0.01221443951624298 0.9870166534418964 9.12341002275244e-009 5.365587737633508e-009 7.869484753844675e-009 2.026245164307698e-038 0.03501292590250482 0.5174364045742782 0.447550669523217 8.786768195372358e-019 1.247395118293809e-038 1.040886193896812e-022 0.280442321720225 0.3887495885904432 0.3233141584725024 0.007493931216829473 9.911052331210218e-023 4.944020299671803e-022 7.832567690918207e-006 0.981230629900272 7.912696150934705e-008 0.01876145840507566 6.754010637300935e-022 0.09631137078127196 0.209209537772526 0.2189690511097981 0.1291859048702742 0.1350576599050307 0.211266475561099 0.2760857949774827 0.06549118387909328 0.2750086931447134 0.0576461508451435 0.2365044229024076 0.08926375425115959 0.1552297417376101 0.3170521970934735 0.05946341043941864 0.003454008656519618 0.04063118066901715 0.424169461403961 1 2.137794836607958e-024 1.50130404246556e-033 1.024989975679616e-034 2.055370336888713e-033 5.531678968349057e-034 1 5.488955721184376e-025 1.062609931928002e-033 1.750371384171958e-033 1.609993038600663e-033 1.078787116624599e-033 0.2278707615118455 0.7721292384881545 1.602537136484401e-036 1.375633970381343e-034 1.209680856875106e-034 5.332626714000179e-035 7.414464491152691e-010 2.39618361461368e-010 0.9999999975517011 3.744438403131233e-010 4.943868561429256e-010 5.984034951776525e-010 4.036155225851452e-009 1.940067663436728e-009 0.9999999866431054 3.977226361673935e-009 8.727405239287239e-010 2.53070479180629e-009 1.923430015871656e-015 3.214422823372454e-011 0.9999999999673869 1.800144356467237e-013 1.86839509896591e-013 1.00074202341916e-013 2.528236055103409e-032 8.803232068341511e-020 0.169554524863223 0.8304454751367628 1.404995336444609e-014 3.37896614231316e-032 1.663044748024247e-019 0.3409045905202612 0.0005082476733331294 0.2615547444033843 0.3970324174030213 9.960401816787772e-020 6.003613703598112e-018 9.435031875415155e-006 0.177861746774754 6.990616303493809e-013 0.8221288181926716 1.192751066327346e-018 0.1615907778514442 0.08806168060397245 0.1750967769531835 0.1981307611694542 0.1517312915713138 0.2253887118506318 0.02328701485385745 0.3471421726333068 0.02969402423163837 0.1830926141419667 0.1997946471353264 0.2169895270039043 0.2241190931439505 0.3403270964217428 0.2500512155148863 0.01872780661021584 0.002014476918874627 0.1647603113903299 1 2.834696846092224e-024 1.826555216433268e-032 1.183706680023615e-032 1.686580131892446e-032 2.52692912590563e-032 1 1.061261195015388e-024 3.462373725763705e-032 2.017200701327799e-032 2.546434186968498e-032 3.138480435117915e-032 0.9999999797523912 2.024760876008653e-008 2.785834664607525e-033 2.852110944749836e-032 2.420432059783591e-032 1.205893663795576e-032 0.1325005567614419 0.1764809825880547 0.19377865181172 0.2525267538938534 0.1291935140527726 0.1155195408921573 0.02696507334901458 0.231838577805261 0.2258174809007279 0.2703528429471596 0.04495535624752693 0.20007066875031 0.03288639777042177 0.9205096590370318 0.0456257073454744 0.0003846587569949312 0.0005467901643891214 4.678692568797348e-005 1.082645813977259e-010 4.153640599489193e-007 0.4775760156137213 0.5139538351415905 0.008469733744553154 2.78104673526877e-011 3.607113981957598e-011 0.4793972495069235 0.2397431431809091 0.09012459515869731 0.1907350120788073 3.859155507538026e-011 8.066536420620757e-011 1.924664784483465e-005 0.1978316490313862 0.6358726486694183 0.1662764507806418 4.790043482180954e-009 0.07160737608060216 0.1821941663038746 0.2101654331737056 0.2480176005970511 0.1148236830648675 0.1731917407798992 0.06566164454899713 0.2247382692549429 0.1593819024188755 0.2276204500152635 0.1724280352685555 0.1501696984933656 0.2226041996122164 0.1123059363870137 0.1969719888340354 0.1340190591438508 0.2661404546142118 0.06795836140867194 1 1.937396901194152e-025 9.944683527253906e-033 1.351141452962421e-032 1.198223913381167e-032 2.893732437669723e-032 1 6.413806281783085e-026 2.500266001105101e-032 2.971567551708005e-032 5.435753051331574e-032 2.232856867728734e-032 0.9998431282673054 0.0001568717326946209 5.54076566872825e-033 2.793739528701929e-033 7.034896891590316e-033 1.549420353040744e-032 0.0216802446276051 0.2572931275699052 0.2206492207012378 0.1767488334360819 0.2407669920682977 0.08286158159687218 0.1433903373439033 0.02674069021712855 0.130079626219033 0.2378442618957283 0.02888428689612689 0.4330607974280799 0.02711403083316108 0.7180361101577582 0.2548498582188629 9.12219911978378e-011 2.013592675980868e-010 4.976366166059811e-010 7.851489199679627e-019 1.473695732527203e-010 0.1686277299435135 0.831372237697628 3.221148884922225e-008 8.148651872402644e-019 2.622633681566471e-017 0.3340444698284968 0.4605120972662783 0.2019994489721406 0.003443983933084182 5.216292721557183e-018 1.012148038040611e-012 1.02114579403625e-005 0.8242279888861455 0.01181628723254253 0.1639455124180863 4.273316197053484e-012 0.1530541406334945 0.1574954624913225 0.215324651427329 0.1740730517986933 0.09740797430557276 0.2026447193435881 0.1216807378305327 0.04296581125135847 0.2343707914216988 0.2317794681750207 0.1039222788783937 0.2652809124429956 0.05077745383867833 0.2934168376345246 0.1942374833531296 0.2513317496310693 0.1395187704711514 0.07071770507144665 1 6.594377242974836e-029 5.620823465031258e-033 1.323677221843485e-033 4.107384782987678e-033 2.900032550072807e-033 1 1.135618894112989e-030 1.220759321281007e-034 2.460736160707747e-034 5.931285862120013e-034 3.176253522366502e-034 0.999998946024895 1.053975105008222e-006 5.752194386715988e-033 3.279411972196713e-033 1.785526061088325e-033 3.021645553922529e-033 0.03102295483266216 0.6002051192349154 0.1393356290177726 0.1679204223566665 0.02562189708885851 0.03589397746912489 0.4097546378247324 0.1297154398253583 0.2877706498501136 0.02621701594737318 0.1425201611607203 0.004022095391702263 0.6833471508472844 0.1863066795455146 0.1303461696069746 1.28796623551784e-013 2.818790230962841e-014 6.942257498280924e-014 4.625999518072561e-040 5.850819912315858e-017 0.0007751319763789349 0.999224868023621 6.515801660590302e-022 1.805589264677528e-039 2.280540699773166e-022 0.9822504577644732 0.01735736243848688 0.0001553443341035969 0.0002368354629363416 3.015933212594863e-022 3.685521071747575e-019 0.028905541187617 0.9164298613580938 5.14418924617078e-008 0.05466454601239674 4.1845655520589e-020 0.1897440727050128 0.2904904292138533 0.02028347420714336 0.08208744378781818 0.05071457161019945 0.366680008475973 0.2679646780099074 0.1529959078182209 0.1772388541891022 0.1092052552229161 0.2070299375403833 0.08556536721947014 0.1953759979211478 0.2083182953413506 0.09144061557117909 0.1744431130808875 0.2232528259394536 0.1071691521459816 1 8.09632241072727e-027 7.402878200661324e-032 2.535088791539127e-032 6.275731754936797e-032 2.60217410234693e-032 1 1.322976678587564e-028 2.042463458320494e-033 1.6846119913857e-033 3.478946636351556e-034 5.983972843989832e-034 0.9996385654882634 0.0003614345117366341 3.661699344834298e-033 2.399540987056289e-032 7.073645819063826e-033 2.445765409478703e-032 0.1416709524558099 0.02458192366255203 0.4330050265860952 0.1820307005391511 0.09531367869356852 0.1233977180628231 0.1464717608139284 0.1230666547177619 0.6004414030725825 0.04720124180992069 0.009872081070102273 0.07294685851570422 0.0001373929191367052 0.9990848509031897 0.0005638684706145274 8.817275208526792e-005 0.0001145013320095382 1.12136229642845e-005 1.211316821995293e-026 6.603219921073013e-019 0.9995843387738594 0.0004156612192044027 6.936328215678644e-012 5.081108569018325e-027 3.715409537408238e-018 0.65200380704081 0.3322488896524813 0.0003375443329173929 0.01540975897379137 7.095912198820722e-019 2.90815044768228e-015 1.569418531914274e-007 0.001056272195612729 3.280697852856732e-014 0.998943570862494 4.447342947326957e-015 0.1256171421410982 0.2087130863372459 0.04280522952257626 0.2507079904765893 0.204953844868634 0.1672027066538563 0.1197244194947697 0.1236335799948968 0.1053125797397284 0.2739882623118109 0.3156315386578237 0.06170961980097043 0.1543087924191856 0.2831005122646296 0.1082399426543336 0.1917408255677711 0.2544713883595311 0.008138538734549033 1 5.437716631492272e-023 6.34417644093252e-032 1.665425803421539e-031 2.068516644222481e-031 1.01454537827542e-031 1 1.997244788480104e-022 2.09106451170103e-031 7.39290614744691e-032 4.690518176697652e-032 2.6505825361169e-031 0.9996336439894235 0.0003663560105765509 3.643331394311209e-033 1.83217100853794e-031 7.377559809094038e-032 2.232266910121859e-031 0.07701121630950678 0.06068414166112176 0.02873701034449887 0.3447530699276108 0.1302365294940139 0.358578032263248 0.2846734352192163 0.02221802319042683 0.04814419330797052 0.2733237952140004 0.2449797737522023 0.1266607793161837 0.01420443682419541 0.6073646941667289 0.3703261573627354 0.005348584217688922 0.0009200012795123 0.001836126149139062 1.149479968383709e-008 0.000923059528195313 0.06590676926286582 0.7153444588143246 0.2178256899897859 1.091002875630788e-008 1.373106985048448e-010 0.4049119738649661 0.03568571258780374 0.2575867703045589 0.3018155430270521 7.830854117065549e-011 2.742131781938336e-009 0.0001874707820814466 0.9765959778149507 0.004712075079465394 0.01850447100612589 2.575244554551622e-009 0.246517797921733 0.09084125580366992 0.2094848551846118 0.2653382710590321 0.00780271206426413 0.180015107966689 0.000594912309925516 0.1895866549270638 0.1092853913333172 0.2363110677486142 0.2522071246698228 0.2120148490112565 0.02548777424217062 0.1655606263607437 0.2630422039859324 0.1228751465416183 0.2866877407469428 0.1363465081225922 1 5.564150206584767e-019 5.077453697377895e-032 1.188919950093e-030 8.791693250451266e-031 1.38743368493937e-031 1 7.058424088859121e-019 1.318400733314418e-030 1.192495582898211e-031 9.773546272206949e-031 3.315078371227874e-032 0.4932341632196133 0.5067658367803868 2.116930884654006e-030 1.085801883157143e-030 8.555880660387918e-031 3.407968733760789e-031 0.1986171719078186 0.09333147833389342 0.2350443300051209 0.1664931549854166 0.09231124210902755 0.2142026226587228 0.08342855831546646 0.09436763441446197 0.2441899777744108 0.2638605566720725 0.1151837403892496 0.1989695324343386 0.0008400429627113977 0.8363974136128681 0.1627625434244178 1.140478641162575e-015 9.14237910619092e-016 5.743977348221752e-016 1.847288622011512e-018 6.577024012431893e-011 0.23954462674377 0.7604553683043331 4.88612654043239e-009 1.79351746718763e-018 9.550559767916022e-015 0.7701695605221112 0.03958971443965113 0.1839684710401503 0.006272253998070668 7.435239479862243e-015 2.473016578123781e-013 4.044309604900287e-008 0.9991684244445827 1.27438167821625e-006 0.0008302607302657061 1.301008020440525e-013 0.263083355159134 0.1511218461717545 0.2101291117384009 0.05282813879269368 0.1965874147581217 0.1262501333798951 0.01536331507548066 0.2104591991644301 0.1086726824469572 0.2069736091038268 0.1856349967815982 0.2728961974277069 0.3825067734715515 0.1048297797149251 0.03266580280362817 0.1735540110731536 0.05213806102014386 0.2543055719165979 1 2.460644364026785e-020 1.829426417875296e-028 1.092847693119912e-028 8.704316284117158e-029 4.256770499244391e-029 1 6.770948860975548e-021 1.242965268682714e-029 8.13299867544112e-030 1.197064364838692e-029 8.857704163894406e-030 0.9382161471558419 0.06178385284415808 1.961361887453281e-029 2.025047728564549e-029 9.10046989813111e-030 1.178998154427834e-029 0.1665080411732402 0.2814416797969889 0.1958416618242029 0.1853800208927409 0.01271807328922842 0.1581105230235988 0.1277023595588867 0.1594281216014966 0.1660505412197063 0.1853356655113131 0.2270426093733344 0.1344407027352628 1.464684044685358e-010 0.9666101165738398 0.03338988327969176 1.047701640768811e-019 2.367366324947598e-022 2.004969887924622e-019 7.526402458176526e-032 5.757931553084485e-016 0.07625995080666514 0.9237400491933342 1.283002018254547e-019 2.830135757747897e-032 1.925892949399812e-015 0.8044246866800915 0.07156469762320708 0.08571789382616249 0.03829272187053678 1.616805095522203e-016 9.036897879595677e-019 1.306198307944264e-007 0.9999949694898054 7.735182048314552e-014 4.899890286625392e-006 3.256110977302314e-018 0.1985911769471522 0.1814584559231119 0.2539548528496257 0.1116910140626468 0.03705409300619973 0.2172504072112638 0.151973818776846 0.3001690152974992 0.1826764702716087 0.01115285657383385 0.1966498369056207 0.1573780021745916 0.3389936218786039 0.1120289957400739 0.1554519993410058 0.03491491915554613 0.09831956506389894 0.2602908988208713 1 4.977589006739757e-019 1.653373776247941e-029 5.706161927268277e-029 7.768509766562752e-029 3.81709125510096e-029 1 3.837406697435373e-019 4.03820636887618e-029 1.492225451405642e-029 8.115669022048503e-030 4.427038242668924e-029 0.3788592388047429 0.6211407611952571 1.14610364918734e-029 9.01935633652233e-030 1.223016263197253e-030 1.258581352294805e-029 0.466277969995404 0.003311481573850527 0.2329967743044674 0.2396017151660231 0.03847727944841806 0.01933477951183693 0.2529582687327162 0.1952994881878751 0.0190248424781033 0.1909059040672408 0.1479516082495455 0.1938598882845191 0.002079672399527234 0.8661578550244719 0.1191263722869927 0.005010634824074957 0.003608272073732256 0.004017193391200915 6.422548854824535e-021 5.407866653067389e-015 0.9999998158711747 1.835122217708438e-007 6.165981571739558e-010 1.630045582726963e-020 3.652914888871982e-015 0.6039291350576315 0.1190934729673953 0.0585816620665895 0.2183957299083801 1.188362235574116e-016 2.433327737742617e-012 9.776578594949181e-007 0.9479817755933399 1.978906289866442e-011 0.05201724672420011 2.37812351427612e-012 0.2820196524966228 0.3162006578947402 0.2507907388663946 0.004786605937921741 0.1253268387314461 0.02087550607287472 0.08870316286584261 0.09041198036413374 0.01615609271111648 0.4140309451314228 0.3189896228173739 0.07170819611011051 0.2525195611498538 0.1439764415716972 0.2108139139309404 0.04217341384589177 0.07334368089811207 0.2771729886035048 1 3.852468103914483e-029 1.915833161998443e-033 1.76157038495861e-032 2.903087643982669e-033 1.213361002598996e-032 1 2.335056797712654e-028 2.654014390507211e-032 5.292879631913803e-032 7.725483381720236e-032 8.000498703854065e-032 0.1492427545626452 0.8507572454373548 1.456426034195646e-033 2.81174292873178e-033 2.726538597558118e-035 3.100139303009203e-033 0.05712910365086683 0.07207230462785585 0.4129600633883765 0.04573601444768586 0.366706403756298 0.04539611012891701 0.2273793142903231 0.001177026346527034 0.3034989240308317 0.2265178674714889 0.04635607386503286 0.1950707939957965 0.004712311519063616 0.3843042448599533 0.6041187879636741 0.0009706478440882501 0.002825479679941475 0.003068528133279259 9.378809244096955e-010 0.0002754880432337086 4.315625088277854e-006 0.4140531108742627 0.585667084031161 4.883732950605668e-010 3.426467727085277e-012 7.784879402031662e-005 2.981360837705181e-007 0.003919071647455303 0.9960027814177236 1.290472154299436e-012 4.380862470322932e-013 7.020996136568593e-008 0.9993373850439228 1.479782482052678e-005 0.0006477469201057819 7.513593567040499e-013 0.3719891861475042 0.07712821265612167 0.2188581843982044 0.05373897513058583 0.2627252376233987 0.01556020404418519 0.04762267767298977 0.1259773920240455 0.3463289264478484 0.1532572474026962 0.07062269945331361 0.2561910569991067 0.11808558762327 0.2925721523568255 0.2308423052564924 0.2640550076902194 0.03366506830724712 0.0607798787659457 1 9.103652614745293e-030 1.074225017631283e-035 3.240048244637418e-035 3.035835218333901e-035 3.8616339971405e-036 1 8.176407967328981e-029 1.439713421462426e-034 1.468528457485181e-034 4.987856776050998e-035 8.604013999450035e-035 0.1089694401738651 0.8910305598261349 1.188878360738936e-034 4.087079284438491e-035 8.463967641890593e-035 1.590093126838708e-035 0.139365357042576 0.1981300552406649 0.06506971576263265 0.1615749012757368 0.1771813556128333 0.2586786150655563 0.0744526407015481 0.02323903692791221 0.3903432692308934 0.1626509561566843 0.1957104562265566 0.1536036407564053 0.04864464449098403 0.2359114351462036 0.7154439203628112 3.5321711366023e-016 2.519428832830718e-016 4.517971028085403e-016 3.685826792615495e-019 3.371393945123215e-014 0.4006823447644817 0.5993171900829059 4.65152578638039e-007 4.560245592601451e-020 1.380719855180794e-015 0.04845640022359075 0.0006974093794464126 0.2760979260412335 0.6747482643557257 2.327619567010509e-015 1.12094711960494e-017 1.539168304592734e-012 0.9998928649160982 1.194000060147144e-009 0.0001071338883627154 1.554892479778107e-018 0.2020063471572265 0.2789611460742656 0.2288741864342959 0.02370322557509911 0.1166962508740787 0.1497588438850339 0.1123665758563709 0.0164128444464294 0.1237885757670494 0.2744071278638742 0.2570340761913265 0.2159907998749499 0.0600854236448797 0.2234976924611228 0.1659295839552105 0.1576898475167308 0.1911921481776981 0.2016053042443582 1 2.691311942039959e-026 2.826659170817636e-033 9.938800944540443e-034 6.236998731388722e-034 4.066130528877499e-034 1 4.336734744050848e-027 9.944194346783361e-035 4.330191659404992e-034 1.359280360069522e-034 4.467950936558393e-034 0.5389165575877744 0.4610834424122257 7.70920804126494e-033 5.210375780380155e-033 4.977563457838825e-033 2.554935230363181e-033 0.1706246671654088 0.1155504912418835 0.07562723478896238 0.2181992598970627 0.256657827910714 0.1633405189959686 0.192126448299446 0.1161433941435062 0.1525624310718921 0.3017523965868965 0.1977888596048368 0.03962647029342249 0.1469580982218685 0.09079406500641088 0.7622478367717186 8.161511689526919e-017 1.542366639377614e-016 1.758824123317242e-015 7.928870413835653e-028 8.887100363370382e-021 0.7963489709243163 0.203651029075605 7.866811343769677e-014 7.094672955627014e-028 2.947413110150401e-018 0.03577213675981226 0.1977467038063335 0.4119195912636 0.3545615681702543 4.08045760804056e-019 3.286442033314176e-021 4.512327526924673e-015 0.9999952056733849 1.532951858242948e-014 4.79432659523956e-006 1.826952795120892e-021 0.04835964019863614 0.1824289613908556 0.2538654471831345 0.1643381649324615 0.2073692798936309 0.1436385064012814 0.1466389947974381 0.09156133200608525 0.1552880190823206 0.2636778543658323 0.1317074545010611 0.2111263452472626 0.2110655171460941 0.1871286855121721 0.1493824090193156 0.1959089778662023 0.1975323993478681 0.05898201110834777 1 2.109496596266058e-024 3.692190191949045e-032 1.455489402165343e-032 3.332867491131554e-032 2.080086570092824e-032 1 2.553480728110678e-026 4.830270772059249e-034 8.552854317015075e-035 7.612520454254243e-034 6.085763941850435e-034 0.06670366098336833 0.9332963390166317 2.586028309533046e-033 4.418311510887071e-034 4.043209823134591e-034 2.440897763821085e-033 0.009346989456388639 0.0103479991196804 0.9719519772991691 0.0001562534463841576 0.007795389206628134 0.0004013914717498217 0.01517822812234211 0.01593162008028653 0.9466241382935032 0.01392884888621 0.004199867660222415 0.004137296957435672 1.423291582644001e-005 0.9995159999166967 0.0003640931751081982 7.590167421729168e-006 5.917042742131701e-005 3.891339752547976e-005 3.847945885852299e-024 2.187378160929032e-021 0.9999999997963153 9.796720790206809e-018 2.036847098011288e-010 3.758234782456185e-024 1.02822375976922e-018 0.688246070920148 5.157908466334429e-008 0.1830707461954302 0.1286831313053372 5.660792402921475e-019 8.936200287267188e-017 9.46412979207636e-014 0.9941826100338748 3.754231885654048e-016 0.005817389966030088 6.778165487418064e-017 0.1391489443673909 0.07488634612420995 0.2763715518569959 0.03399021420866119 0.2462436430882997 0.2293593003544422 0.1832481244245921 0.02750190985485104 0.05416152474976215 0.4330571389394924 0.1872245401657143 0.1148067618655879 0.03778510905940628 0.2798162960149974 0.3384520447155472 0.1610614008022226 0.05571642180713317 0.1271687276006932 1 2.244423518598452e-025 1.298010594084745e-032 6.601996389215319e-031 7.967706098474067e-031 2.417711313951418e-031 1 2.036718365554311e-024 4.719567557089943e-030 5.207588657927931e-032 2.851535461901111e-030 1.669778281369551e-030 0.007426358598181286 0.9925736414018187 8.315091950338888e-032 5.550832103997832e-032 9.530705174245484e-032 8.292779539023007e-032 0.002135993118098557 0.1861399336138547 0.03111352163049212 0.2170525006841163 0.3292989390401934 0.2342591119132449 0.139311156200189 0.06275798400548484 0.2842022933346883 0.1544366979674127 0.1320906139543969 0.2272012545378283 0.09487468496752578 0.4463060233425396 0.4258118424193643 0.001493690774719704 0.00614019594551702 0.02537356255033368 2.619548899376162e-007 0.01153411739192127 0.000635590681349203 0.9528287551719331 0.03500059224055183 6.825593546539103e-007 8.797855238515747e-009 0.2620497245533265 0.0001319269484803246 0.08224008279551583 0.6555782516352408 5.269581252941426e-009 6.519374694288231e-013 1.196191914641625e-007 0.999999744616725 6.226266578657137e-008 7.34999339927196e-008 8.318046299799094e-013 0.1815998055856728 0.2163420196657563 0.2086121808053233 0.02715257785919916 0.1653736867686105 0.2009197293154379 0.2032188696996167 0.1546535851085272 0.1867146025132718 0.1732880854781272 0.1892614743632824 0.09286338283717464 0.1722006983307025 0.2388673649973703 0.226211316783852 0.1244272253312289 0.05238436887166974 0.1859090256851766 0.9999999999999997 2.740053289933652e-016 1.254090332255102e-031 1.220435060995561e-031 2.183493592422831e-031 2.961663870840897e-031 1 3.307298194001181e-017 1.706394057037633e-032 4.977582664270165e-033 3.938866281870875e-032 4.115025668349872e-032 0.00259827803995097 0.9974017219600491 5.367592677283161e-035 1.488179988480807e-034 1.250187399176447e-034 1.742269074257412e-034 0.2807786918663788 0.05108845678463173 0.2430118033048785 0.1337037178685915 0.03929133001456098 0.2521260001609585 0.1770285218545355 0.103448321179941 0.2001776251481209 0.1963007375115273 0.1902686357112345 0.132776158594641 1.04994509061576e-012 0.4659939197297797 0.5340060802691704 1.80624547082273e-017 2.664551254827834e-017 4.412523567990736e-017 7.189749526438113e-013 1.469113640739707e-008 0.001591197947391954 0.8651775692356011 0.1332312181247697 3.818840614410702e-013 6.011305881504103e-014 0.05392198879124204 0.01553601814224364 0.03082195943229475 0.8997200336340122 1.47326109220202e-013 6.857387046716236e-019 1.240980326443561e-014 0.9999995986073968 6.754405390031459e-012 4.013858364236958e-007 9.521278450879522e-019 0.1495066270853371 0.1208972697244637 0.1105176234477572 0.02740728352218096 0.2868566291759002 0.3048145670443609 0.005813533244529824 0.1705027725287321 0.2611340003923878 0.09599041747983865 0.2716665117767931 0.1948927645777184 0.09315320847405603 0.1910551632381539 0.2081567905025073 0.2787841571998765 0.05923651622147182 0.1696141643639343 1 5.638808976495488e-021 3.451551134021891e-031 5.274228537683181e-031 2.454731169146114e-030 8.399312769656857e-031 1 1.474012235905705e-022 1.722491187451289e-031 1.626582018387967e-031 9.679015882475318e-032 1.799281004245307e-031 0.7651099399116105 0.2348900600883895 3.884464208897916e-032 1.339893742921952e-031 6.441399133898519e-032 1.318112934319727e-031 0.1146414759487738 0.3629153292539809 0.2018448848610367 0.03646429682616478 0.1289413640692342 0.1551926490408096 0.1081793172631919 0.355512039711657 0.01639515028920593 0.1613960859488344 0.09092392760695957 0.2675934791801514 4.15613038490113e-005 0.5921150664141081 0.4078433722820429 1.892699189616837e-019 1.179993207934011e-019 3.514570106194187e-019 8.077169645008186e-020 4.620381205020244e-013 0.8008535313040003 0.1991464633943688 5.301169132478377e-009 8.03878233605549e-020 2.166525507068476e-014 0.0174530624428101 0.2772150439342427 0.1960079827684021 0.5093239108544809 4.25048025402406e-014 9.867852390745377e-019 7.939470159329403e-013 0.9999999510201079 8.440902956903858e-017 4.897909800478049e-008 1.597862612795409e-019 0.1831826552821024 0.02960823706680066 0.2604051565377539 0.2223003515821195 0.2632010714883641 0.0413025280428595 0.2282840726855628 0.147250926624114 0.07460784417846443 0.08141547807432137 0.1673976996357224 0.3010439788018148 0.2623871841155228 0.2097698555956681 0.06351534296028873 0.09892824909747269 0.1592509025270756 0.2061484657039721 1 6.17896940108945e-020 1.128718969513078e-029 4.404108560141327e-029 1.010604086180651e-028 5.249263195802254e-029 1 1.114793202046581e-019 7.642782801224417e-029 1.324936033772572e-028 1.54480750962605e-028 1.481109591962385e-028 0.01301656293125055 0.9869834370687495 2.227578409450873e-030 2.776467818679486e-030 1.722717562459853e-030 1.817000948261557e-030 0.1075642270453592 0.1961002417026279 0.3727914182395861 0.1314236703075796 0.1041520492984782 0.08796839340636911 0.217716741534943 0.02617666009492406 0.2725753187578671 0.1986187817511767 0.1487772584459329 0.1361352394151561 3.829580645674855e-005 0.993601745034251 0.00437867263221498 0.0007216965704812093 0.0006463564545107418 0.0006132335020851874 7.474956430206389e-016 5.227280305809068e-013 0.999999416257327 4.516185150407434e-014 5.837421033354609e-007 9.492507250269117e-016 5.215024023332719e-013 0.5549628998866456 9.83378552388527e-010 1.242238050751165e-006 0.4450358568903612 1.042251417680206e-012 1.93887890367096e-011 4.348359458728966e-010 0.9782891440574442 1.382745512075234e-010 0.02171085533342802 1.662865057629629e-011 0.007412749080034309 0.3170620486335735 0.1056555351707877 0.1222944526337 0.273656638069084 0.1739185764128206 0.1568678765126838 0.2216617183904458 0.06417117125247052 0.2317237147266089 0.1915118262297711 0.1340636928880201 0.02447416060730326 0.2948001160197228 0.1462248582258952 0.3213646319874406 0.2100457077703219 0.003090525389316188 1 2.558170081859682e-029 2.122662879831072e-034 5.647309493201674e-034 2.67818267665107e-034 1.380247551624275e-034 1 5.715508261893967e-030 2.31278373203872e-033 2.201625206418114e-033 2.608316690378405e-034 1.653745234941351e-033 0.9999999522943405 4.770565939244056e-008 2.683340742719936e-034 2.963452231876901e-034 6.598290568009442e-034 7.181039994752203e-034 0.03826547284947542 0.0557373135283919 0.7867092716742821 0.0459099179932921 0.02378798110350873 0.04959004285104977 0.03108603351106342 0.02610134628683954 0.8533644716874229 0.07967244662716934 0.005876850988558419 0.003898850898946434 0.1448652650933625 0.3593778787804461 0.3933018191650032 0.02026527801891337 0.02178311346023056 0.06040664548204425 1.38558654489573e-014 2.259925338036337e-009 0.6280575557352225 0.3719049911567839 3.745084804386301e-005 1.051040519393924e-014 2.411563104200435e-013 0.07258157583596131 0.2636920573723937 0.05963167330793107 0.6040946934834351 3.767987492999426e-014 4.050556693453229e-010 3.161669387845885e-005 0.1188613656108033 0.5985014813661947 0.2826055355627111 3.61356777367691e-010 0.1766501299314897 0.2525490196078427 0.1333427828962915 0.3093030947318691 0.04986534372785271 0.07828962910465423 0.05817618231250097 0.0790257502554251 0.2636846935771532 0.2491125080090742 0.08035915285642603 0.2696417129894206 0.2361120087900728 0.255372608583248 0.09966390899689735 0.2079239917269891 0.1379912099276119 0.06293627197518076 1 3.257281243551029e-031 1.832242535568321e-032 2.194970318087022e-032 2.184682600312903e-032 1.669182208848749e-032 1 2.806993840666057e-032 2.187114288844999e-032 2.008672391896786e-032 1.280320610603386e-032 2.533274411049799e-032 0.9980597945945587 0.001940205405441295 8.471414105447718e-032 5.632959030778966e-032 8.579651934733695e-032 7.329669003191914e-032 0.24949552858981 0.188345366017458 0.1058131830644272 0.1194270713781256 0.1663303523932075 0.1705884985569717 0.08033854077061516 0.1105501172193118 0.2748328919199464 0.1757940289294981 0.1843270696058454 0.1741573515547831 0.2023138064012766 0.6783206206875619 0.1193649012186106 1.489476511988004e-007 1.078759711008359e-007 4.148689283301811e-007 5.701753257332184e-026 0.001735716559763526 0.194740354620407 0.8035239288173113 2.518061947190708e-012 5.224410791515443e-026 4.035712539536044e-023 0.1858091927839978 0.304619907949487 0.3539566923725957 0.1556142068939195 1.100587491959802e-024 1.605775400469183e-014 0.2531314387507916 0.002194622505719631 0.5350812750735471 0.2095926636698628 6.281668342760033e-014 0.05115404168784956 0.2323538383324861 0.168520589730554 0.2571631926792073 0.1220132180986271 0.1687951194712759 0.2047069163350501 0.05076780352042185 0.064207416811113 0.2438172896169523 0.2207709772710632 0.2157295964453997 0.1891480680122903 0.1865496902694208 0.08946125650829398 0.1552308406690577 0.1505181935840816 0.2290919509568557 1 9.1941341040709e-029 1.287559348833999e-033 2.028324799566211e-033 4.427234167945591e-033 4.885822479679531e-033 1 3.728595711607858e-029 3.453434138867246e-033 2.671291335432593e-033 7.764677911556257e-033 6.903084936215151e-033 0.7585490776374196 0.2414509223625804 6.606554137625072e-034 1.500297972690311e-032 6.477737631634884e-033 1.985130155469733e-032 0.004587962760156006 0.8322442209160419 0.009003317539089258 0.05699259824448328 0.0295841555964914 0.06758774494373816 0.1241928448682705 0.5608515230052114 0.03194043680382837 0.07914164874787576 0.01327185560306503 0.1906016909717488 8.770584940542599e-008 0.0001439099708060334 0.9998556768254089 2.105155953039518e-007 2.245835693863006e-008 9.252398338776261e-008 1.052831897542817e-039 0.001443007443455325 0.2320996306851056 0.7664573618714391 1.972050668341347e-021 1.745228106318308e-039 9.381869382101544e-026 0.4510633769868276 0.1690260377403602 0.3798804402309792 3.014504183284749e-005 4.801040876640561e-025 2.519259734938884e-020 0.3866542172546212 0.05474204060768984 0.04885666099274078 0.509747081144948 3.049944595174216e-019 0.2346669146306495 0.1564187801721805 0.2021913817018077 0.1387513463669402 0.1901108863937515 0.07786069073467064 0.03324151928095104 0.08319802841403304 0.02592055668309652 0.09046100318933038 0.4198028414033054 0.3473760510292835 0.0661227154046997 0.2284129056322267 0.1481816486385677 0.2776296158149947 0.105361805296531 0.1742913092129801 1 1.585201510931381e-028 1.692422992012338e-034 3.60699446037435e-035 1.176471033602805e-034 2.530912269358005e-034 1 4.967572930754937e-028 1.436426427217626e-034 4.138370667088381e-035 1.710378809396367e-034 2.116644559846814e-034 0.1601220007973196 0.8398779992026804 6.744993266883576e-036 3.587651735080553e-035 3.56056775954697e-035 4.098347177741817e-035 2.049109554479867e-008 1.909059286411479e-008 0.9999998957912896 1.320580264156005e-008 2.187820340707005e-008 2.954301616532926e-008 2.485839485295216e-008 1.403517808095982e-008 0.9999999108801936 2.383293368293651e-008 1.408119236422974e-008 1.231210750922672e-008 1.014372972627022e-011 5.631910649994589e-011 0.9999999999119736 3.5367742099875e-013 1.515960344096226e-011 6.050310182177861e-012 6.27945940925905e-033 3.547358486990186e-020 0.1584252446021181 0.84157475539788 1.882782291074967e-015 5.706903736985721e-033 4.704239228873387e-021 0.5224077607973396 0.2842555793126325 0.1413536193265575 0.05198304056347033 1.301936520442803e-021 1.25507441948775e-018 4.175083706885782e-005 1.965999287303792e-006 3.52991904422667e-011 0.9999562831283447 5.808131067012609e-018 0.00853057338649638 0.2411371584235882 0.2288173137648512 0.2493755243239221 0.1396751783879644 0.1324642517131777 0.2713007276673797 0.0388207874464046 0.2598697671108513 0.1603625882897128 0.05283149785614004 0.2168146316295117 0.1387403586807428 0.03946434486348328 0.05291487247432741 0.2552169592580274 0.1701722424643923 0.3434912222590268 1 1.449216877676366e-021 4.567896217383623e-035 5.891361880571464e-035 3.312075654376369e-035 2.706583777831898e-035 1 8.11212235238534e-023 2.33006907864863e-036 5.886420035961745e-036 7.181792918676806e-036 1.148179004519686e-036 0.7859071096044272 0.2140928903955727 1.345228004657668e-036 1.00969663252131e-036 3.492054246309442e-036 2.4969509303162e-037 8.55397878482679e-011 2.235373824103001e-006 0.9999977643826652 5.173496651611306e-011 3.849332921540464e-011 6.774271021896062e-011 0.2839617452587582 1.046461686967473e-006 0.7160372082795549 3.628200098507043e-017 8.653036177775035e-018 3.372155469831783e-017 0.2273617299002906 0.2560254624179079 0.5166128076817654 1.57348134750166e-014 8.869575594024538e-016 1.946647350287545e-014 3.266502312879698e-034 0.01191265450158955 0.1525465998298602 0.6973277909857734 0.1382129546827768 1.27374022868872e-034 1.170086880530793e-034 0.2144960435982797 0.2929475631729102 0.3015992905952508 0.1909571026335595 4.318449305662814e-035 0.0001695612005259211 0.02301249644281245 0.7719535438973196 0.06819721527390266 0.1366671831854394 1.399123549837869e-026 0.2219313210479201 0.08266472982788073 0.08693816191747178 0.01501613093931079 0.1559211526442849 0.4375285036231317 0.191651751038473 0.1285333153220108 0.007176387153422655 0.3089561311674721 0.08410725743811327 0.2795751578805083 0.03039128127467271 0.3848742541322019 0.02324648261043888 0.1572761749440201 0.2043386531019067 0.1998731539367596 1 1.310004046549037e-031 7.266713211443918e-033 1.274885643435291e-033 6.467547951894202e-033 8.178341918720634e-034 1 3.950964588970028e-034 1.902990188869434e-035 1.929702115583754e-035 1.426929855624945e-036 3.89856504176004e-036 0.9302437190580154 0.06975628094198459 1.373293617099967e-033 3.650108570075804e-034 1.349295636715483e-033 1.660849285776876e-033 3.668450012134537e-019 1.190078639887171e-006 0.9999988099213601 1.422004715566083e-018 7.153714401622461e-019 7.922251783989297e-019 0.1051421871777727 0.001047318133168411 0.8938104946890589 1.553723735514658e-026 6.44999787572195e-026 2.318447136588197e-026 0.1073930339340332 0.2873039505620337 0.6053030155039331 1.503955436135055e-028 1.310058645396143e-028 8.492640809507421e-029 4.543917544137268e-038 0.03795091515458207 0.2454886574086175 0.7118508733395447 0.004709554097255896 2.038494560830131e-039 2.401014511483023e-042 0.1557422566729982 0.4106996069021345 0.2970707179766132 0.136487418448254 2.966100458176425e-042 1.325405386633287e-005 0.008683125768238617 0.9697073739108282 0.021578440394096 1.780587297100558e-005 1.227139449476964e-036 0.1854456294809765 0.1726601822330819 0.1521791904707974 0.1776934405800364 0.1833983395102704 0.1286232177248374 0.1662661815075044 0.1352648160438174 0.2182224561564091 0.2180851469589819 0.1913174817493178 0.07084391758396946 0.007899553928450983 0.2148963016936548 0.2249906698181884 0.1996036894204613 0.2444418774102974 0.108167907728947 1 2.804446949846142e-029 3.518060082355602e-030 3.150387091053485e-030 6.098482132133575e-030 3.034620432123225e-030 1 1.513281748998254e-029 1.602790674121463e-030 1.639997114046532e-030 1.361023526335283e-030 1.302449532557676e-030 0.06760313124980404 0.932396868750196 2.826298482368412e-030 4.036304512919953e-030 6.179749265942658e-030 6.314664842118309e-031 4.32687422142284e-027 0.0001998255683502273 0.9998001744316497 1.200133957817005e-026 1.290932757766545e-026 5.762609758531301e-027 0.009914774525225286 0.0004102891963381434 0.9896749362784366 1.703971816973295e-035 2.546893453997042e-036 4.102834040085187e-036 0.04712759784942144 0.2861497685683418 0.6667226335822367 8.069437112745643e-035 2.628410022966348e-034 4.699893574469753e-034 1.313170246590587e-041 0.08050368119217662 0.5032634694596037 0.4161646807771842 6.81685710357282e-005 8.254645725396533e-042 7.854538235809615e-046 0.1357223355483113 0.5212610009970439 0.3327429303614341 0.01027373309321081 1.578770375740008e-044 0.004310947585864354 0.01100181140082173 0.9559751186144888 0.02871212239881622 8.896879243172886e-015 9.144886089139297e-045 0.1072217502124045 0.01060134050788257 0.2128858680260543 0.2541300859057868 0.2782120268101582 0.1369489285377137 0.09589795816151021 0.2481927308546355 0.0585087733943266 0.1121842496285286 0.2282919010968828 0.2569243868641165 0.1554988724050858 0.1595402239769736 0.1424753117751752 0.1697303409769912 0.1707904729473593 0.201964777918415 1 4.874622348348279e-031 6.932369896225822e-033 3.332698369581425e-033 7.545713431783146e-033 2.239597123525165e-032 1 3.57565425636557e-030 2.63494463780454e-032 1.219231770853671e-032 6.642432784690524e-033 1.799637735628686e-032 0.0008149843114683489 0.9991850156885317 1.034030012523611e-033 2.091622851880861e-034 4.871226235093761e-035 6.178996881992774e-034 7.763410048432993e-032 0.9433466844446875 0.05665331555531249 7.652731078940522e-032 4.259403211587518e-032 1.128081747799731e-031 6.140235746159225e-036 2.450705331093466e-005 0.9999754929466891 1.81523900171039e-040 2.38979980487835e-040 1.12410765435191e-039 0.003808900409044591 0.1493571537037974 0.846833945887158 3.7002781056552e-039 1.823720143479172e-039 4.216262236386545e-039 7.245359825264204e-038 0.002321100138715072 0.208134724926011 0.7895441693231358 5.612138156836407e-009 3.058771528540205e-039 4.475497370116332e-046 0.08414248756816289 0.5721767938745288 0.3193864674733553 0.02429425108395311 1.925639227691916e-046 0.002469738887728508 0.02096630684888838 0.9427772602780443 0.03378669398533878 3.384782746446401e-027 7.81586589102968e-049 0.2170271831274586 0.10332942075159 0.2890559499189477 0.1346207590408577 0.03762599444786212 0.2183406927132842 0.04212575552180712 0.1749752830977208 0.1225448726442486 0.1493410524813715 0.2417160155334318 0.2692970207214201 0.2866200035797969 0.1949110229767003 0.08538779662932908 0.2136202202522883 0.01679682716130776 0.2026641294005776 1 3.053136102631675e-026 2.882261986325896e-038 8.560791867493338e-039 1.148251883118152e-038 7.628325815252109e-039 1 4.051696210530833e-026 4.203758001814578e-039 2.911569085661745e-038 1.410909612829211e-038 1.563529175097584e-038 0.9999985312242441 1.468775755939377e-006 1.352651344927694e-038 6.884514495899234e-038 1.792210765748488e-038 3.797406625414031e-038 5.528254804307746e-006 0.5184944926236704 0.4814758259085776 8.30230423506408e-006 1.011447851565e-005 5.736430196871063e-006 9.914643555385354e-007 0.6033993947497978 0.3965996126417555 3.11686914295079e-010 2.305027155350231e-010 6.019015470674238e-010 0.291606234290116 0.6879278028902173 0.02046596281966674 3.58642834949303e-018 1.977075182757376e-018 5.7095599234198e-018 2.867786063063349e-033 0.005258436066691843 0.05559653216067129 0.1970683199174474 0.7420767118551894 4.601890792021642e-033 3.842379410614031e-033 0.1054664172961809 0.0507845480542774 0.4123951907774369 0.4313538438721049 6.947030228696195e-033 0.004238794830583104 0.008144630002961794 0.1497418242253165 0.06350905847890562 0.774365692462233 2.833275682733898e-025 0.1257552405896347 0.3076559412259716 0.0787814033528403 0.07496146972891804 0.293132629230055 0.1197133158725805 0.139204890841832 0.06856904666794256 0.3858832519929816 0.1934800354308108 0.1023846327526623 0.1104781423137707 0.007974432170783514 0.03020665260022295 0.3048746431674352 0.4443961772371913 0.06911691696661199 0.143431177857755 1 1.081620285186341e-033 1.53511245124027e-035 2.181475588604495e-035 3.528178143458287e-035 1.931990235374908e-035 1 3.917517334258044e-035 2.38872123429392e-037 2.330331246394403e-037 1.926211066984828e-037 1.82743101226762e-038 0.999998999984076 1.000015924015027e-006 2.888052455404011e-036 1.059242823509609e-035 1.960973104392921e-035 7.979151959704218e-036 1.031928493247265e-011 0.1953456540971272 0.8046543458791534 3.480200548702929e-012 7.330552731664394e-012 2.589511066475568e-012 3.442587327470834e-006 0.5348809489918429 0.4651156084208297 2.343435700285527e-017 1.545620391544498e-017 1.049518950242932e-017 0.1334534694464467 0.8526020409138286 0.01394448963972469 2.689015331780581e-032 4.295124036735773e-032 7.094322751894899e-032 7.543600853115897e-036 0.008784127134191879 0.207263447451786 0.4746828178136276 0.3092696076003944 1.211797277737333e-035 4.91071540371944e-038 0.09235896733052469 0.1029142717992567 0.3707232624346705 0.4340034984355481 5.607442998084982e-038 0.02845359907863215 0.01237501532709582 0.1289420917460047 0.001473000284588098 0.8287562935636792 8.202410637829453e-030 0.2263031460739184 0.1702893307477835 0.2540399216616944 0.06164799861075205 0.2539530934946433 0.03376650941120858 0.2594645499798196 0.229230010314369 0.01730122427014622 0.2566841562401891 0.08525942867393081 0.1520606305215454 0.2077757087415793 0.2675118776213449 0.2026243887158255 0.2557386749273419 0.05924888185029809 0.007100468143610449 1 1.157380913226996e-032 2.130806751816428e-033 9.424406180170048e-034 1.011453123559507e-034 1.655752414722258e-033 1 3.054650386876074e-032 1.391394936583771e-033 4.192380651571278e-033 2.211821965737954e-033 3.872632753784271e-033 0.9994581992318421 0.000541800768157968 6.828744304326763e-032 7.311814188606084e-032 6.349213393558764e-032 8.488227966621996e-032 8.666574558983783e-023 0.005889934890325406 0.9941100651096746 2.567860443623724e-023 3.857440322905543e-023 6.139537446756209e-023 2.819818482374629e-013 0.2526820431636753 0.7473179568360427 5.227084600233898e-032 2.455004651680779e-030 2.437581036346749e-030 0.0579305214605897 0.8337354642072952 0.1083340143321151 1.365487750780949e-041 2.945795669610893e-042 4.54554458560241e-042 2.528293744391601e-039 0.07539079137785548 0.1070301087239906 0.7604470441183003 0.05713205577985349 2.491639114648618e-039 3.197087292485089e-041 0.05158766550047079 0.05349557670611092 0.3165570203616018 0.5783597374318167 8.122763797344942e-041 0.05673662060502503 0.001975274783392586 0.9412163801102388 7.172370249731758e-005 7.988463290524161e-010 5.641023279095118e-041 0.0552229408734478 0.3661725144525205 0.01292427451204857 0.2465685993932788 0.2236964111956976 0.09541525957300673 0.2593120122564276 0.1489443194331405 0.2597788097859905 0.09144443912481445 0.2209508306602195 0.0195695887394073 0.3273560116469005 0.05636436806098012 0.138011031413489 0.1491252988660839 0.3132826740525058 0.01586061596004067 1 1.707473923556119e-030 1.068740704016467e-031 4.903448969559819e-031 3.27331300893487e-031 1.325791540795495e-031 1 1.894199885841601e-030 1.133886321034809e-031 3.36052657371743e-032 1.963890279168023e-032 1.490349761049441e-031 0.3100070297611581 0.6899929702388418 3.212341243264699e-032 2.827151003687708e-032 4.874473465741214e-031 2.922721789545033e-031 1.339453773320224e-028 0.9909023665689034 0.009097633431096678 2.052245441574828e-029 6.483198829982775e-029 6.36601885253673e-029 2.012547243552147e-034 0.7597999659153981 0.2402000340846019 1.100635488834535e-035 4.339189784484643e-035 5.599507457388202e-035 0.0006118086314809139 0.5031860159578571 0.4962021754106619 2.812286781542228e-042 3.911390528765389e-042 9.518387299465248e-043 4.149800607117894e-037 0.04391035278768877 0.040998879091495 0.9150375604668978 5.320765391834375e-005 2.022107445703195e-036 1.31788308114895e-040 0.2472195583840801 0.05800013374115776 0.5741448622679931 0.1206354456067691 4.550716218525271e-041 0.03624258082048559 0.009828935025394586 0.9494566829040207 0.004471801250098971 8.877321707306617e-023 6.228182987322511e-043 0.03665564376272708 0.2606288441031062 0.252248564688648 0.0445512026454954 0.1520406734384001 0.2538750713616232 0.107622960173456 0.2461485792536838 0.2555745749172498 0.2257788428620358 0.05150062763893794 0.1133744151546366 0.01259396888823298 0.241874169147879 0.1867017017406133 0.1864995763140053 0.2000342058414236 0.1722963780678459 1 1.095155083614531e-023 1.629444341965107e-038 8.313797802989786e-038 8.174534186362289e-038 5.128442709735896e-038 1 4.070684734115663e-024 4.968616322476368e-040 3.835869171767031e-039 1.139238538392537e-039 2.602640749212285e-039 0.9883368956789707 0.01166310432102927 1.149038428930152e-038 2.049468848186272e-038 9.240184032646692e-039 2.127239132095628e-038 1.675395459189852e-006 0.1214366192483075 0.878558484137605 1.914629997298762e-006 3.137244730516576e-007 9.928641581582739e-007 0.0001645112476242597 0.02741248983228638 0.972422958328066 1.019738095649488e-008 1.565775519445711e-008 1.473688733154702e-008 0.1464273519706124 0.7762135862238104 0.07735906180557735 8.882783727299715e-022 9.881707300842418e-020 1.449296292348956e-020 6.981067989233092e-034 1.698897077909205e-007 0.1548906332965219 0.6238208270040355 0.2212883698097348 7.684667573011027e-034 9.140646545438638e-032 0.3644074938621106 0.08327037659765747 0.1532686159334706 0.3990535136067614 7.891769131367708e-032 1.610623917993178e-009 0.002986905537848761 0.7001040287237861 0.004558139801730691 0.2923509243260106 1.146822694685887e-024 0.2713518848394285 0.1136319869048245 0.05808579269173357 0.2438255259737178 0.1891699966299137 0.1239348129603818 0.1600011884953694 0.4411546232469745 0.138831114808649 0.1903523888756778 0.05467078678393135 0.0149898977893981 0.3799803460586438 0.01868368349690895 0.1571071388588247 0.1722207709818264 0.1435359679566096 0.1284720926471865 1 5.856361650098684e-026 1.423567894578887e-033 1.317076902465002e-033 2.927042449907219e-033 1.874425861191063e-033 1 3.758861796660304e-029 2.547740537870312e-037 1.417600446906431e-036 1.20977697194932e-036 1.176834808328824e-036 0.9497514939706271 0.05024850602937282 7.382465732794677e-036 5.832514471436202e-036 1.244598894135562e-035 4.228703899836461e-036 3.14030597295726e-013 0.6596124432674161 0.3403875567283573 2.578432504365054e-012 4.707060359897927e-014 1.287134609965656e-012 0.03432112670397416 0.2377472843342623 0.7279315889617635 3.77648888749059e-017 1.947531739668584e-016 7.756568111925159e-017 0.05411878277829448 0.8047303008992539 0.1411509163224516 3.815591820523923e-036 3.364279118291081e-036 2.063613048912726e-036 2.009786284999883e-034 2.52023622716146e-005 0.1089446231774256 0.698419925918537 0.1926102485417658 2.351195664401219e-034 1.658221161934743e-036 0.3556075262700717 0.08507822106708193 0.3744965379323193 0.1848177147305271 2.670629722838173e-036 7.294902691543498e-008 0.005096013014732928 0.994357992742667 1.126638061802546e-006 0.0005447946555113692 8.539660540817939e-032 0.1595607335625062 0.08681111854283109 0.1281167851420918 0.1714834575121738 0.2477095615112996 0.2063183437290976 0.05172976247805821 0.1441132151678485 0.3303869634784805 0.03543411057430922 0.002190359312133942 0.4361455889891697 0.03547319036420903 0.08283317538872073 0.08519649479952976 0.3708773530822552 0.09910732044037411 0.3265124659249111 1 7.748990110595586e-031 6.281241752967416e-030 4.153908362661591e-030 8.614708941721129e-030 8.255943793170818e-030 1 6.830004945243611e-031 2.083751180117439e-032 2.00515477793335e-031 1.628018250414765e-032 1.488143297375262e-031 0.6099898197280091 0.3900101802719909 5.359363176220202e-030 2.441223436300093e-030 2.712758738814601e-030 8.610868709514157e-031 2.466946807217259e-027 0.1262047490505506 0.8737952509494494 2.88691806078895e-026 1.662422080755942e-026 2.940536645432341e-026 5.586290453709681e-019 0.2485797345521884 0.7514202654478117 6.188592348342645e-030 4.019639367519482e-030 6.289828211793484e-030 0.04503735894853047 0.7923194345150052 0.1626432065364645 2.707728276494237e-048 2.581299425455763e-048 2.186799442132449e-048 1.886770061897734e-036 0.01711353769942144 0.2149053549133731 0.5582728496046356 0.2097082577825698 8.705037532018254e-037 2.611006637296151e-038 0.4182827743321914 0.2012312486889983 0.3358855134784992 0.04460046350031115 2.015155914602564e-038 2.087659012920161e-013 0.002637138235289101 0.9973622163562376 6.454082645880058e-007 2.176526916612642e-018 1.500591728287263e-044 0.1002000938238988 0.2232242869862411 0.08650946376769986 0.3080200285301245 0.09589185359642348 0.1861542732956123 0.2229377161953521 0.2429205182825544 0.04839844437061514 0.2100001954308272 0.1059919091637513 0.1697512165568998 0.1266448534700213 0.2036528662742999 0.2197696445394403 0.1572778751380211 0.03102809039982965 0.2616266701783879 1 7.835199995331616e-030 8.264644510021837e-032 9.81403002978221e-031 9.177708880719012e-031 6.396470880079942e-031 1 1.414273295443499e-029 1.845612046404013e-030 8.43364983739904e-030 6.868465060906599e-030 5.881361070817761e-030 0.823962565618218 0.1760374343817821 2.56306407539442e-028 1.959692437080612e-028 2.343061197148943e-028 6.350499583467875e-029 1.459101213329927e-035 0.03071369530951432 0.9692863046904857 4.951831106578374e-035 2.061375021902602e-035 1.715691238283979e-035 1.620379893671459e-037 0.5524387273175209 0.4475612726824791 2.660732999658114e-037 7.896796108359324e-038 4.606492694386088e-037 0.06168414037366012 0.6375099423636832 0.3008059172626567 5.552055773985716e-050 8.510072377725437e-050 3.327593690056479e-050 1.657255584054244e-033 0.0003570048313436696 0.6315378856434982 0.2142630551921914 0.1538420543329667 2.027504271637604e-032 4.010940463319485e-036 0.5479893795907598 0.3040835956625471 0.1342835095608806 0.01364351518581258 6.559689027152832e-036 3.587372988541187e-012 0.003013889170896927 0.9969861107678517 5.766391571530866e-011 1.527292778090368e-031 2.102122283872826e-044 0.005611768435301752 0.2215748935477444 0.2435336149213176 0.1803648077862178 0.08030397792989916 0.2686109373795194 0.03491013322276573 0.2006003136774129 0.1957599466387736 0.2379080961222985 0.09362549800796612 0.2371960123307831 0.06095102989613249 0.1549795284880496 0.2078332502300089 0.1922777102807021 0.1635824794758105 0.2203760016292964 1 3.586665886349621e-027 4.399687046512977e-038 3.126304368679632e-038 1.254946443670818e-038 2.456027020571964e-038 1 1.22733096641532e-026 1.706390745128816e-038 5.533962765489856e-038 2.752265217073154e-038 1.07414319949087e-037 0.7165982246644672 0.2834017753355327 3.213452035202287e-039 1.686720784844853e-038 1.563616883071178e-038 2.088060755609088e-038 3.06522442730105e-006 0.01979325385402983 0.980196184559477 1.981974741528041e-006 2.412923983607692e-006 3.10146334083958e-006 1.528362375282337e-006 0.5304489713666493 0.4695490319302954 1.998758335658124e-007 9.486662170458825e-008 1.735982247368402e-007 0.1113094308841549 0.7286171066689107 0.1600734624469345 1.188425035966897e-023 1.22116272929569e-023 4.302668266064433e-024 1.251215482759685e-038 2.817127938314002e-008 0.00315807553798926 0.9802694921817007 0.01657240410903063 9.548712951325304e-039 1.187049934662121e-032 0.007547908085122064 0.2524905341206944 0.5568194018765117 0.1831421559176719 1.034768983147696e-032 1.678823998684705e-013 1.601554252311396e-005 0.2994098767361635 0.0188059830691846 0.6817681246519609 8.10866033786782e-028 0.08282839940754916 0.3988112412718565 0.18427683844037 0.02333275626598974 0.3082693750360708 0.002481389578163807 0.1191118975286413 0.2044027816628814 0.2081042928422308 0.1142589496555477 0.1547153609461323 0.1994067173645664 0.08936767738821382 0.186405722058881 0.09130720961867637 0.1580060555531131 0.224301197946376 0.2506121374347397 1 1.39174778834589e-030 3.703488085029557e-035 1.00627456386788e-034 1.515112429300044e-034 1.072141969406957e-034 1 4.275903317295703e-032 4.81004091199672e-037 7.968503665498719e-037 2.052702614320135e-037 9.839476185982339e-037 0.9162171840568874 0.08378281594311268 4.919480102935663e-036 5.409897782299235e-036 4.019431981664972e-036 1.545278348183957e-036 1.892323869916318e-013 0.00640951048114126 0.9935904895183726 7.713452045082497e-014 1.024771831771502e-013 1.171694727868291e-013 0.0001998057178381862 0.2543295030582215 0.7454706912239358 2.455899694568242e-015 1.154140023827715e-015 9.635377462770162e-016 0.0124160466645763 0.9282295496296186 0.05935440370580507 2.507543107935675e-038 1.577601812579139e-039 5.253558926384374e-039 2.168037744021774e-039 7.718202572574193e-009 0.05138991243169836 0.9438524117496615 0.004757668100437544 5.973702271673044e-039 3.323157522249539e-038 0.05508499434157473 0.3025365429632734 0.5132711922015524 0.1291072704935995 2.643571808949562e-036 5.415477642302204e-010 0.0002639583525769684 0.9865716584827909 1.725979319680002e-005 0.01314712282988744 2.616776802898057e-033 0.2428533043610305 0.2657040385985844 0.00398369139826407 0.128798233624224 0.2869542868491443 0.07170644516875274 0.1854578560266109 0.2105908328434823 0.08354958494028625 0.13498401410773 0.1920027527276329 0.1934149593542575 0.2085752992719233 0.1991475404640993 0.2520301371382426 0.04076911497904467 0.1198434516688723 0.179634456477818 1 2.301626616249307e-032 9.286780221343533e-033 6.185663452107531e-033 1.214989029553124e-032 4.331320150814099e-033 1 1.594939279611267e-032 1.928567582919497e-032 1.173261066330779e-032 1.999300461786927e-033 4.666176737691146e-033 0.4095837642643926 0.5904162357356074 4.414050289306148e-032 5.918656560139283e-032 3.679721644910175e-032 9.51153515854499e-032 9.110485020124378e-028 0.006962252858820683 0.9930377471411793 1.156262458534429e-027 1.204120820162042e-027 4.62593815639519e-028 1.077952962983016e-029 0.632187061944438 0.367812938055562 2.491035763213985e-030 3.169345971037496e-030 1.772071495315643e-031 0.005845845958488728 0.9391133454203866 0.05504080862112458 5.244077366328664e-053 7.301453887068813e-053 2.294566987821579e-053 7.043092430633504e-040 0.0003015840337115562 0.01469894752459629 0.9107721295209198 0.07422733892077237 2.348962272313041e-040 1.652022225573437e-039 0.09533686751699114 0.3461744150958743 0.4845397699073953 0.07394894747973946 2.42494527852644e-039 5.483127300772664e-016 2.321260602065849e-008 0.9999999689782055 7.809187936358688e-009 4.146195090816662e-018 1.472961079658433e-046 0.1791623090506957 0.04673650282030618 0.2483155314005518 0.1767706208102599 0.2176093404426777 0.1314056954755086 0.2253641903070895 0.203815423106412 0.07033614462693209 0.109357975868609 0.1420947500100893 0.2490315160808682 0.2270646164478223 0.01036627505183132 0.1258206634416033 0.1466108039622201 0.09845081778392043 0.3916868233126027 1 8.167579378351854e-028 2.037673206669212e-028 2.744586238890175e-028 1.293885743029265e-029 3.239176032549121e-028 1 5.629692269669119e-029 1.609709365936178e-028 1.932420656230043e-029 1.13720834789933e-028 5.597016234532517e-029 0.003547404402646697 0.9964525955973533 8.412705913360968e-030 8.765328228648628e-030 1.627491511868268e-029 1.51652964085614e-030 4.86902122699062e-032 0.01342315363275613 0.9865768463672439 4.584877662202464e-032 5.472597743956943e-033 5.830062782026979e-032 6.811608318180288e-035 0.8252791038206572 0.1747208961793428 1.239457461244376e-034 8.284335118303082e-035 9.186302954861718e-035 0.01689001627992625 0.9215101602592689 0.06159982346080498 1.236767172694912e-054 1.205207766765612e-053 2.358293555242256e-054 9.178087813718571e-037 1.392108491899904e-011 0.0009662323617581273 0.8920329445073117 0.1070008231170091 4.558509499058943e-037 5.295850019679353e-037 0.08713809391653413 0.4423729089791672 0.417700037576004 0.05278895952829474 2.945868557614989e-037 1.588554830270296e-016 0.00207744476745345 0.9979132753838543 9.279848692110394e-006 1.553771891189237e-031 3.591675026762452e-047 0.2567191084889993 0.0698377581120905 0.1813913470993158 0.23676663389053 0.02681907571288077 0.2284660766961836 0.0466990250462227 0.3124474701630548 0.1700180702639009 0.06423348461926166 0.2688056816271727 0.1377962682803873 0.2171875538403173 0.2695749055281967 0.1751720018837066 0.2603746712150769 0.0634253356764603 0.0142655318562424 1 4.205263776830545e-025 4.417322497041407e-038 3.180720303977295e-038 4.827938105705704e-038 7.12684795099538e-039 1 4.21820502788178e-025 3.638587544928093e-038 4.881327225577443e-038 4.846459137491947e-038 5.498902597492468e-039 0.7985289538659726 0.2014710461340274 6.757897686734732e-039 4.59993035794229e-040 4.170736855849897e-038 6.391903227819485e-039 9.830955386335672e-008 0.829535414045093 0.170460417580297 1.534941485193865e-006 1.55660920802286e-006 9.785143629496044e-007 3.640587512313942e-006 0.9564404384374394 0.04355581412410832 6.992604409303271e-008 1.201430691041243e-008 2.491058895239909e-008 0.07753617497199651 0.6583321365304684 0.2641316884975351 4.341825533205013e-020 2.227055721595233e-021 6.762037903278882e-020 7.478886073003419e-033 1.34415783177135e-008 0.0002348441453772134 0.3599156677038636 0.6398494747091809 2.614562060972521e-032 1.039431421943574e-030 0.02362795981091968 0.04376352811089246 0.1067176563684976 0.8258908557096903 2.243328488598226e-030 1.158205926328776e-015 4.932249949211324e-007 0.6191860989358946 0.0001807207998018133 0.3806326870393076 6.219322748387453e-027 0.1354246365722964 0.08538343829086099 0.1377788240833336 0.4157495144488361 0.02009887587546434 0.2055647107292085 0.01561469100505804 0.1943875082471975 0.07369254453485788 0.238768418737619 0.211735210028586 0.2658016274466815 0.2010160260566334 0.2081404129703538 0.04863500102975754 0.212556922630987 0.2269887642163619 0.1026628730959064 1 4.340532416313121e-030 1.226449456846134e-037 9.993484345403134e-037 1.403215568029589e-036 3.775860736997116e-037 1 2.096875610095762e-030 7.011130336149545e-038 8.081589286400573e-038 7.35792897299071e-038 4.741728730150343e-038 0.5906392790235876 0.4093607209764124 4.963732359999768e-038 3.348331895437423e-037 7.538535501289284e-037 5.020014794572306e-037 1.391810005177369e-017 0.9519627320944675 0.04803726790553256 5.247456992154081e-018 2.596352529612471e-018 2.445586337489412e-018 3.456803701190096e-010 0.9989227760332373 0.001077223621082297 3.076929122116262e-021 8.536273507972896e-021 6.03779971146118e-021 0.0333699543493597 0.6895671891573355 0.2770628564933049 1.287670784732929e-041 6.635474720810705e-043 1.016143827538366e-041 3.071373634186925e-037 2.322275665574416e-008 0.0005516997599742232 0.9948584191054893 0.004589857911779734 4.022937312532601e-037 5.086114073516367e-036 0.0801578051659109 0.04756008369345122 0.1943023359986543 0.6779797751419835 2.567722704294966e-036 3.978296052318511e-017 0.0002863385915985677 0.999615293173338 1.312658822003619e-006 9.705557624128594e-005 2.762957029725913e-035 0.1851242076734573 0.1446229443835846 0.06735646304164678 0.2011575407957143 0.205495152639611 0.196243691465986 0.2156467819317426 0.1661537068887501 0.03913581364472907 0.1656256600585378 0.2088953260311988 0.2045427114450418 0.7010865866660645 0.1122201302089236 0.09815575165029437 0.05085860762652208 0.03128190005217439 0.006397023796021281 1 8.258663197787972e-031 3.174940735792666e-032 3.476543666579875e-031 2.203937114145368e-031 2.694261064850883e-031 1 1.926240572053182e-031 3.209426739843976e-032 2.759862520255238e-032 4.397172691597465e-032 3.973074723118354e-032 2.838736514597224e-005 0.9999716126348541 9.677073533185496e-034 6.256768575755558e-034 5.888677877193897e-034 8.361303945786143e-034 9.295428109773662e-036 0.03632943610944057 0.9636705638905594 1.725409533245915e-036 1.258257431609243e-035 1.132378122785001e-035 1.007203678149512e-034 0.8139981578509116 0.1860018421490886 4.484711178721657e-038 7.315175847130564e-038 6.55275896986414e-038 0.01780006337645927 0.6871576298308738 0.295042306792667 2.02026722069787e-054 1.198286328588579e-054 7.233862529172743e-055 1.982838577830675e-041 3.461945088417467e-007 1.729309827632813e-005 0.9999818968921331 4.638150816595319e-007 7.44576652102e-041 3.187565631069191e-040 0.2543746830405545 0.2027515790002312 0.3309478467810584 0.2119258911781558 9.992453430524074e-040 7.225097284610235e-024 0.0007003015765963695 0.9986568747658949 0.0006428236575085053 1.128269385876112e-022 8.03170654657011e-050 0.4450002942734386 0.1747248543346482 0.1640133011594371 0.01539050085339293 0.02024601259490321 0.18062503678418 0.2744227832180399 0.04738118767406319 0.1668762914383257 0.053948432306172 0.2940885814392237 0.1632827239241756 0.1486632396779575 0.1430533061052031 0.2069455202685265 0.1826279839447922 0.1740018308569815 0.1447081191465391 1 5.850597278951058e-031 9.013476311823407e-032 4.643818626455816e-032 1.43668294246529e-031 4.107438418664178e-032 1 4.569471390786777e-031 1.034438573413729e-031 2.3489909081668e-031 3.212258426189805e-032 1.212590925625542e-031 0.007819559308548791 0.9921804406914513 2.240439051292497e-030 3.859774847225703e-030 4.309822519264492e-030 3.329891629138515e-030 3.436885270888502e-046 0.0001154669318744284 0.9998845330681256 1.19043903553066e-045 1.140294173039902e-045 1.177662996652579e-045 4.394298836861529e-047 0.4165261964991173 0.5834738035008826 4.748809673441989e-047 3.138564321800028e-047 3.930006982701517e-047 0.02851404901251678 0.5530534031639756 0.4184325478235077 2.122090281204165e-056 6.258134746819254e-057 1.581266475704951e-056 9.386992184437029e-036 5.532905240190374e-005 0.007174078170193946 0.9927705038473464 8.893005775833395e-008 2.041406594477826e-036 1.656961245726839e-038 0.06921288321598017 0.8839100636098585 0.00836387456885151 0.03851317860530983 4.533859542424649e-038 3.839607054929768e-029 0.001620805178893638 0.9983791948169718 4.134475018570753e-012 8.08273188384941e-035 2.770646078754209e-049 0.09296045224428855 0.2008566187180807 0.2109266126556003 0.1785042240435857 0.2520411617891205 0.06471093054932424 0.2216877253833238 0.1808434497756461 0.1729223442618439 0.1584840476780371 0.1392559253447826 0.1268065075563667 0.1655438085862257 0.1774001626503431 0.1377734023883968 0.1037794803749518 0.1776997817061116 0.2378033642939711 1 1.246949228415926e-027 8.739262519769784e-033 2.727567941131159e-032 8.522305038257054e-033 2.571215111479151e-033 1 1.012737531996092e-030 3.704822606701371e-037 1.535256408124977e-037 1.590456638529417e-037 4.079149169131862e-037 0.9999357140229751 6.428597702486386e-005 5.458392162394665e-037 7.039906076498855e-038 3.145773156452271e-037 1.206052256691004e-036 4.604274727768725e-009 4.01763660303272e-007 0.9999995779162957 2.608313881976719e-009 1.23652681135924e-008 7.42187382464457e-010 0.06489217257982625 0.00205337991058328 0.9330544475095867 2.628305698807044e-015 8.4611225765446e-016 1.467470681834007e-016 0.1670431859144914 0.3243504241078471 0.5086063899775603 4.891646028378638e-014 3.088321348764894e-014 2.131093428092544e-014 3.047925161662294e-030 0.01079433521230814 0.1329940403035516 0.7494015302912022 0.1068100941929381 8.934464812587314e-030 1.568369697126962e-034 0.1738605461055438 0.3567992337151256 0.3193221556844338 0.1500180644948967 1.095042654554827e-034 0.01581971810541338 0.09573996066488399 0.3215569818859655 0.3413943178497469 0.2254890214939903 8.178099649151873e-027 0.05925560696857259 0.1326708639915056 0.02402083491365004 0.3183772029634225 0.07039368884169235 0.395281802321157 0.1569481451117067 0.03518907563025122 0.2883275261324072 0.1086544373847083 0.0674574707931959 0.3434233449477305 0.1722870412814204 0.254798003822838 0.1994966312348156 0.2198043607995106 0.01101011062004312 0.1426038522413724 1 7.069161554350842e-030 5.434385798459611e-030 5.522368742995295e-030 6.212253700614748e-031 5.73245885821774e-030 1 1.602880319564556e-033 1.891884912491612e-034 1.643148434258188e-034 3.233655957579146e-035 2.104819032044147e-035 0.9999343406228145 6.565937718547948e-005 4.689542159172078e-034 1.755959968366093e-035 3.143940846914828e-034 1.069620285299213e-036 1.61716194081912e-014 5.592077812054899e-006 0.9999944079221426 1.186828552347989e-014 1.693925956997105e-014 4.708192992258066e-016 0.002587762502692156 0.001349928471288009 0.9960623090260199 6.527072054417154e-027 5.033361177745815e-027 1.0841189221214e-026 0.06649584730571709 0.1886528977372124 0.7448512549570705 2.830674089078138e-029 7.448520681195022e-029 2.516760464370814e-029 5.473650704360139e-035 0.003945500975144139 0.2045962893636943 0.7555168855405153 0.03594132412064616 3.19848555951655e-034 1.140519214229618e-042 0.3671910387300101 0.1174749449643997 0.3830714381334872 0.1322625781721029 2.073546378641389e-042 0.009199974238035142 0.1432170241235026 0.6255181291333689 0.2210575937575227 0.001007278747570722 2.609233791262232e-035 0.2524631292848894 0.275208418631789 0.1948376643175127 0.2129659474009775 0.03571646354742944 0.02880837681740173 0.2723595505617999 0.2736122400191244 0.07727468324169205 0.1673918240497248 0.08025818790341978 0.1291035142242391 0.1188826269480702 0.2301454942779908 0.4545833572948412 0.05241819541089229 0.02572028293748897 0.1182500431307166 1 3.676395064281559e-031 1.202422729649307e-032 1.033041140686558e-032 8.928606483150821e-033 1.218260612546237e-032 1 3.852547109605492e-031 7.596664841094149e-033 6.035983609761594e-033 9.317296817377465e-033 2.587087152768215e-033 0.6075589588531575 0.3924410411468425 4.906381739662986e-030 1.609589841274172e-030 4.63370261932102e-031 7.043366163354986e-030 2.680687232632252e-027 8.337433485019501e-008 0.9999999166256651 2.80873473741759e-027 1.963112407801983e-027 4.349714377788276e-027 2.436111073364645e-007 1.160080685960311e-005 0.999988155582033 1.063350573653366e-039 1.611309034174594e-038 1.797675560629505e-038 0.05908263321913176 0.2339252278322249 0.7069921389486434 9.338674793158846e-035 8.575066779161446e-035 9.078924829365593e-035 2.397705505863255e-042 0.009729587986111038 0.0199892912672079 0.9701211194949667 0.0001600012517141953 6.616663535818574e-043 1.071087629683078e-045 0.4185217757997159 0.1559772600165945 0.3436406836382361 0.08186028054545344 1.914104842995326e-045 0.006899811309667435 0.1100150835929448 0.879242193160976 0.003842911936411664 1.199281537052314e-016 4.901534233638854e-046 0.09503205551011777 0.1060602063161232 0.3290504709389753 0.1673746141466375 0.2751101495923808 0.02737250349576549 0.04109304451400221 0.04112074457771254 0.1493587435251098 0.4293509875072707 0.205534472729288 0.1335420071466167 0.2569573862876403 0.2079413626757731 0.05988568575173636 0.2906898980801998 0.1743069364316473 0.01021873077300325 1 5.621020437587517e-032 7.074816309159591e-037 9.145888144989238e-037 1.312522680194567e-036 1.314661405588801e-036 1 7.804929442910129e-034 4.001238630052702e-038 4.526620042853164e-038 1.583465518313209e-038 4.783978947578507e-038 0.02226199161854846 0.9777380083814515 7.09887797587085e-037 1.666100769751846e-038 9.844722504141538e-037 1.079375559453597e-036 1.571001585134922e-034 0.002411685204405041 0.997588314795595 1.039391739119068e-034 9.385748486922703e-034 1.259923551593031e-033 3.745280826813292e-040 2.077933082296744e-013 0.9999999999997923 9.166441512561148e-047 4.931355820811465e-047 1.150833369340782e-046 0.1170977864164184 0.178813832065858 0.7040883815177237 2.725964258593751e-043 1.81839849752315e-043 1.270036679684006e-043 5.353038261135299e-045 1.587725094858414e-005 0.7869010268769137 0.2130830953049641 5.67173519960918e-010 1.122271090612898e-044 2.018873161020708e-051 0.4032127862641388 0.3911168500904936 0.1808584163041261 0.02481194734124179 5.977359409816195e-052 0.007628545430036961 0.1809525461627342 0.8100491086359672 0.001369799771261682 2.233974920087354e-025 1.405471394350712e-052</probabilities>
		</cpt>
		<cpt id="VegetationAndSoilCarbonStorageClass">
			<state id="VeryHighStorage" />
			<state id="HighStorage" />
			<state id="ModerateStorage" />
			<state id="LowStorage" />
			<state id="VeryLowStorage" />
			<state id="NoStorage" />
			<probabilities>0.233066583933939 0.1016689326636076 0.1694664707889758 0.1409604803327887 0.1712093146330806 0.1836282176476084</probabilities>
		</cpt>
		<cpt id="DeforestationRiskClass">
			<state id="HighDeforestationRisk" />
			<state id="ModerateDeforestationRisk" />
			<state id="LowDeforestationRisk" />
			<state id="NoDeforestationRisk" />
			<probabilities>1.123170035107176e-005 0.0001203396466186264 0.01034118696609282 0.9895272416869375</probabilities>
		</cpt>
		<cpt id="FireFrequency">
			<state id="HighFireFrequency" />
			<state id="ModerateFireFrequency" />
			<state id="LowFireFrequency" />
			<probabilities>0.3903513122157271 0.09031758941526817 0.5193310983690048</probabilities>
		</cpt>
		<cpt id="StoredCarbonRelease">
			<state id="VeryHighRelease" />
			<state id="HighRelease" />
			<state id="ModerateRelease" />
			<state id="LowRelease" />
			<state id="VeryLowRelease" />
			<state id="NoRelease" />
			<parents>VegetationAndSoilCarbonStorageClass DeforestationRiskClass FireFrequency</parents>
			<probabilities>0.3656475569130999 0.1071106329816937 0.09576277068296421 0.1894780677399777 0.09442670738475992 0.1475742642975046 0.2114531655550901 0.2087065085257808 0.1189801885863212 0.1377533922528541 0.2046982291289386 0.1184085159510153 0.180161514088571 0.1219776691324071 0.1821971005010909 0.18776467167075 0.1818881275634435 0.1460109170437375 0.2579308062733476 0.1616029676846994 0.1246723616952136 0.1909227862099176 0.1964697789039325 0.0684012992328893 0.2720954330630453 0.1009174311926411 0.1172778662353628 0.2741594426330548 0.1435708208017884 0.09197900607410768 0.2408514746644073 0.1952022797346801 0.109315145286432 0.07561742813542174 0.2309944252389367 0.1480192469401223 0.08170750441661198 0.01259697365388945 0.2820877179506775 0.1372225209309044 0.1206889930101998 0.365696290037717 0.1597794538765734 0.2888552374852182 0.1183591057787082 0.2764398109047716 0.1310075036158987 0.02555888833882989 0.1661497425718088 0.2016003969977887 0.01071066724562368 0.2386948700452732 0.1817298347910067 0.2011144883484989 0.2068385053449859 0.05415979134603681 0.2006307553091101 0.1515941874664109 0.2154481822568641 0.1713285782765923 0.08060649375560947 0.2826836262927343 0.1951111392537951 0.08516605299816493 0.2063652894480039 0.1500673982516925 0.1867728057159157 0.168556305167686 0.2402414553446709 0.2307781236900087 0.08989339300792482 0.08375791707379411 0.005696593062719425 0.2995394243907827 0.1981797346730987 0.1925602714972395 0.2815130680064583 0.02251090836970134 0.2665709178456179 0.1621909259048994 0.185408292949959 0.0608487203066462 0.1566629813702948 0.1683181616225828 0.2802210272705513 0.1622612521386696 0.2349680505604225 0.04004155173017479 0.01261391808372774 0.2698942002164542 0.1061746191917264 0.1885060785161216 0.2621882658210352 0.1700735188121344 0.09329681418484424 0.1797607034741381 0.02860409407665413 0.05918989547037425 0.2602025261324437 0.03303571428571252 0.2842878919860421 0.3346798780487733 0.1043796296296705 0.1101666666666155 0.2780462962962315 0.2911296296297209 0.1872222222221959 0.02905555555556559 0.1138242699838472 0.223430042466731 0.2153876507949392 0.1309425382389473 0.1500338231425016 0.1663816753730338 0.1039583131048171 0.3193082392032203 0.04907704092090202 0.2555911577176843 0.05573356636566276 0.2163316826877136 0.137042845186914 0.2363838759741707 0.103566234124976 0.2475644140374475 0.2548610151862388 0.02058161549025285 0.07041097414959113 0.4455327081955497 0.3400066779846279 0.01342552658648148 0.004577200256183265 0.1260469128275666 0.08142180865140422 0.1203803409264782 0.1581604664886475 0.2178325443421276 0.1054267660900681 0.3167780735012743 0.007005765161108753 0.4408669634377032 0.1975333868467961 0.1420418886396598 0.04091074947173282 0.1716412464429994 0.1311036455561551 0.07327700904735666 0.220130388504463 0.2933741351782387 0.227547897818094 0.05456692389569244 0.0286738351254484 0.1662357757015578 0.006678809957498244 0.2284799341912524 0.2702371858903249 0.2996944591339182 0.1823531684203031 0.1924617227036911 0.3418494147339073 0.01032746565023267 0.164415313493896 0.1085929149979699 0.1076255667945522 0.042237094523866 0.2323203697243523 0.04149590163933178 0.3565573770492147 0.2197636902686832 0.06788217775033774 0.07652635019791686 0.3295923679463054 0.3944115546193334 0.08392353418326837 0.04766401530283827 0.05004213088665537 0.2686639827730348 0.08266079955061 0.2532159910120495 0.1385731673064451 0.2068439284712052 0.09708726387212233 0.2495448849800491 0.01159656713242376 0.3363359103481849 0.3030593186278555 0.002376055039364371 0.1065594926440942 0.2548025515283882 0.04533387411968552 0.2861435787765785 0.07366984993177049 0.2334906529994831 0.1504112583161658 0.2614989359050375 0.09624786701694522 0.1367985121843349 0.2920221638515352 0.06302126272598109 0.1009437319601544 0.1800867284394034 0.2084250484430998 0.1029010531302894 0.20210494404238 0.205538493984673 0.03124455711878546 0.1412246240779537 0.1368606428848515 0.2308265438444438 0.1798908520919152 0.2799527799820503 0.2995533250700693 0.08148433514064907 0.03554657809713666 0.07066626406864945 0.229938673303728 0.2828108243197676 0.1251830008672768 0.17430008673022 0.1483920208152741 0.1956149176063329 0.1670633130962555 0.1894466608846407 0.06789472260545623 0.2640320268331631 0.01601341664637787 0.1415149629870166 0.265014832246941 0.2455300386810454 0.09523646097880946 0.06688859908017435 0.4035795181549944 0.03076738279907602 0.4024126570115182 0.001115381975427574 0.2857485561970706 0.02613060861838145 0.1276765881829227 0.124975566414992 0.1955219902266255 0.2399466903600078 0.1502658093964383 0.224177521710239 0.2063084502338381 0.1861500779335845 0.1084112669784241 0.124686873747476 0.2924340868818481 0.2118706259286246 0.1782920761065793 0.1161288013030017 0.09186668814540143 0.1094077216345449 0.1179070025798554 0.05847209707085546 0.2243960845790806 0.2153851850937033 0.05023885055483171 0.3336007801216736 0.1734251048014678 0.2340090404192504 0.07447271056709927 0.237454572302941 0.2327210677869145 0.04791750412232716 0.3385517549648571 0.1307656286583893 0.1396415572252718 0.1253804729571904 0.218758647112536 0.0469019390817555 0.2984871713313007 0.07232458804391453 0.189667640507861 0.06583552688843557 0.1691301958252131 0.2045548774032751 0.3000297323060107 0.1100915550021487 0.08627495206800191 0.009309287757485945 0.2580764222789903 0.2362180505873625 0.215922668997144 0.1626300597493294 0.1444116264969811 0.2031281466076358 0.175827347785131 0.09808015036377882 0.1322640216840961 0.1166264557828861 0.1422720638609131 0.441530396449582 0.1620200756559396 0.005286986566582962 0.1118338229122639 0.09460653311838903 0.2930516597831335 0.2198246350243793 0.1472381120657193 0.1334452370961149 0.03816425733902627 0.2204439593354663 0.2470713660189519 0.06787577261363696 0.4068865733395912 0.0195580713533274 0.1542763884874228 0.175093075837743 0.2553507981572976 0.03349030141271461 0.2760484844362434 0.1057409516685786 0.1139664081492822 0.27354156460016 0.07952413085473042 0.1196513250940678 0.2339967277062317 0.1793198435955278 0.2197144010138999 0.216415215898276 0.1965988658166623 0.2118699866191804 0.11860074904248 0.03680078160950152 0.2897071829110952 0.008008008008013452 0.2314158819013341 0.1647764269123418 0.2686084142394398 0.03748408602777568 0.4138385669553085 0.1584411962322955 0.1205740292338855 0.2040542082377228 0.1013425286190678 0.0017494707217198 0.3396822869878802 0.1467802276526117 0.1960860122127155 0.1166122741383681 0.05130712636883749 0.1495320726395872 0.007884636607651275 0.2288383956077867 0.1238979289042963 0.2479920540536033 0.2177533077468267 0.1736336770798357 0.2053561393289506 0.1602550347906985 0.08803604818900443 0.1502620850351752 0.2469116880687197 0.1491790045874518 0.2879244803440955 0.1943221602128799 0.2335725097334257 0.1348631379464001 0.02984505528874504 0.1194726564744538 0.05740974832955529 0.1963866498120043 0.2541821942771708 0.08541690607920792 0.1915683023328702 0.2150361991691915 0.2356564194322215 0.08408786426531406 0.01465603280073245 0.1620795382001307 0.2354945736713114 0.2680255716302901 0.04995548859823001 0.1553704718207875 0.1243237690885511 0.1528281859891264 0.2726323358215411 0.244889748681764 0.2831270460950645 0.1718019642513387 0.05282645611948475 0.2346072372683268 0.08404964899071217 0.1735876472750731 0.1478265272538187 0.348413883895687 0.1148383503380735 0.2098660725588379 0.03793766930810241 0.1411174966454805 0.1675865613913303 0.05012092051269679 0.1637103637727923 0.1865040910737773 0.2239683837099327 0.2081096795394707 0.2965324707432798 0.04811892203723687 0.1513927806164298 0.2351038404484359 0.1936294709081546 0.07522251524646306 0.1475004939735218 0.08366115212588315 0.2035350541575385 0.2552855166962234 0.1895331501140788 0.1204846329327543 0.1209440951818171 0.04134036417168736 0.2160776127327866 0.1186514305021293 0.2061226213603865 0.2968638760511931 0.3323598062238593 0.06530842042355442 0.2501143601197524 0.1948227124999561 0.03042565419809299 0.1269690465347849 0.0009863764012515686 0.08349386125857169 0.3170213753512588 0.3031192703117934 0.07079861675155416 0.2245804999255704 0.3058560089560298 0.302167263126248 0.111672031508857 0.03748725433447427 0.2155067277174258 0.02731071435696508</probabilities>
			<property id="CarbonStorage">CarbonStorage=VegetationCarbonStorage+SoilCarbonStorage</property>
		</cpt>
	</nodes>
	<extensions>
		<genie version="1.0" app="GeNIe 2.0.3887.0" name="Network1" faultnameformat="nodestate">
			<node id="SummerHighWinterLow">
				<name>SummerHighWinterLow</name>
				<interior color="ffffff" />
				<outline color="000080" />
				<font color="000000" name="Arial" size="8" />
				<position>1058 529 1194 564</position>
				<comment>The difference between summer high temperature and winter low temperature is also an important climatic predictor of NPP (Auch 2009; Rosenzweig 1968 noted the same for AET).\n\nMEAN TEMPERATURE OF WARMEST MONTH - MEAN TEMPERATURE OF COLDEST MONTH (e.g. Jul/Aug - Jan)\n\nClimate variables have also been aggregated as Weck&apos;s Climatic Index (Iverson et al. 1994).  We have some, but not all, of these data:\n\nWCI = dT(S)(P1 + SQRT(P2))(G)(H)/(100*Tm)\n\nWhere:\ndT (degrees C) = diurnal difference between average min and max temperature during warmest month of the growing season (dT is removed in the tropics, where high max temperature can lead to water stress) (HAVE)\nS (h) = mean daylight length during growing season\nP1 (dm) = avg. annual precipitation up to 20 dm (HAVE)\nP2 (dm) = avg. annual precipitation exceeding 20 dm (HAVE)\nG (months) = duration of growing season (HAVE growing degree days)\nH = avg. annual relative humidity (HAVE)\nTm (degrees C) = mean annual temperature of warmest month of the growing season (HAVE)</comment>
				<barchart active="true" width="188" height="108" />
			</node>
			<node id="PopulationDensity">
				<name>PopulationDensity</name>
				<interior color="ffffff" />
				<outline color="000080" />
				<font color="000000" name="Arial" size="8" />
				<position>963 639 1083 673</position>
				<barchart active="true" width="274" height="72" />
			</node>
			<node id="PercentTreeCanopyCoverClass">
				<name>PercentTreeCanopyCoverClass</name>
				<interior color="ffffff" />
				<outline color="000080" />
				<font color="000000" name="Arial" size="8" />
				<position>671 711 780 741</position>
				<barchart active="true" width="246" height="108" />
			</node>
			<node id="ForestDegradationStatus">
				<name>ForestDegradationStatus</name>
				<interior color="ffffff" />
				<outline color="000080" />
				<font color="000000" name="Arial" size="8" />
				<position>946 727 1063 761</position>
				<barchart active="true" width="182" height="54" />
			</node>
			<node id="VegetationDensity">
				<name>VegetationDensity</name>
				<interior color="ffffff" />
				<outline color="000080" />
				<font color="000000" name="Arial" size="8" />
				<position>583 575 705 604</position>
				<comment>Use DBHs from IVMP data as values for successional stage - 2.5, 7.5, 15, 25, 45 for early, pole, mid, late, and old growth successional stages respectively.</comment>
				<barchart active="true" width="277" height="126" />
			</node>
			<node id="SoilCNRatio">
				<name>SoilCNRatio</name>
				<interior color="ffffff" />
				<outline color="000080" />
				<font color="000000" name="Arial" size="8" />
				<position>442 699 529 731</position>
				<barchart active="true" width="186" height="90" />
			</node>
			<node id="SoilOxygenConditions">
				<name>SoilOxygenConditions</name>
				<interior color="ffffff" />
				<outline color="000080" />
				<font color="000000" name="Arial" size="8" />
				<position>255 688 390 718</position>
				<barchart active="true" width="128" height="64" />
			</node>
			<node id="VegetationCarbonStorage">
				<name>VegetationCarbonStorage</name>
				<interior color="ffffff" />
				<outline color="000080" />
				<font color="000000" name="Arial" size="8" />
				<position>787 431 943 464</position>
				<barchart active="true" width="275" height="126" />
			</node>
			<node id="SlopeClass">
				<name>SlopeClass</name>
				<interior color="ffffff" />
