<?xml version="1.0" encoding="ISO-8859-1"?>
<smile version="1.0" id="Network1" numsamples="1000" discsamples="10000">
	<nodes>
		<cpt id="ActualEvapotranspirationClass">
			<state id="VeryHighEvapotranspiration" />
			<state id="HighEvapotranspiration" />
			<state id="ModerateEvapotranspoiration" />
			<state id="LowEvapotranspiration" />
			<state id="VeryLowEvapotranspiration" />
			<probabilities>0.1337694296174583 0.0744915269513039 0.3090501612301015 0.1693589057778223 0.313329976423314</probabilities>
		</cpt>
		<cpt id="LandCover">
			<state id="HighAndMedDensityDeveloped" />
			<state id="LowDensityDeveloped" />
			<state id="OpenSpace" />
			<state id="GrasslandAndCultivated" />
			<state id="ScrubAndForest" />
			<state id="Wetland" />
			<state id="OpenWater" />
			<probabilities>0.05494917886985214 0.03003444678073663 0.06220880287138406 0.3014130890172414 0.5337293954560448 0.006450982477707413 0.01121410452703364</probabilities>
		</cpt>
		<cpt id="PercentTreeCanopyCoverClass">
			<state id="VeryHighCanopyCover" />
			<state id="HighCanopyCover" />
			<state id="ModerateCanopyCover" />
			<state id="LowCanopyCover" />
			<state id="VeryLowCanopyCover" />
			<probabilities>0.003128730805648182 0.03809366980911998 0.08709672992740795 0.1535822595474318 0.7180986099103921</probabilities>
		</cpt>
		<cpt id="CarbonVegetationType">
			<state id="HardwoodForest" />
			<state id="MixedConifer" />
			<state id="Shrub" />
			<state id="Herbaceous" />
			<probabilities>0.1747556991923812 0.06354468965964139 0.4855853989559954 0.2761142121919821</probabilities>
		</cpt>
		<cpt id="SequestrationRate">
			<state id="VeryHighSequestrationRate" />
			<state id="HighSequestrationRate" />
			<state id="ModerateSequestrationRate" />
			<state id="LowSequestrationRate" />
			<state id="VeryLowSequestrationRate" />
			<state id="NoSequestrationRate" />
			<parents>ActualEvapotranspirationClass CarbonVegetationType LandCover</parents>
			<probabilities>0.1249648842287281 0.08051118848145815 0.1012361355970483 0.03906514281818004 0.388421465310148 0.2658011835644375 0.1679640836656393 0.04781314069003434 0.04439919872933129 0.04533430716046656 0.3319012339378202 0.3625880358167083 0.4543534131952549 0.1136098860072079 0.05545753310181389 0.09430214248764811 0.272591254743574 0.009685770464501062 0.00315172834121074 0.009061193173026798 0.01255963569215187 0.0400171347813699 0.0944741786485049 0.8407361293637358 0.06503715227040643 0.01606757502200821 0.05044771211527371 0.05830832660621996 0.08310734327906444 0.7270318907070273 0.01843080387748488 0.006676890859330398 0.04937238686009558 0.01459290310668054 0.3519477261533416 0.5589792891430671 0.002136953188911495 0.2178568170584747 0.0139746633109913 0.1454985520463333 0.01616800683419781 0.6043650075610915 0.5236770765987583 0.07958140066377754 0.0117215149678616 0.004841409853136831 0.336069602829924 0.04410899508654183 0.3631258025217034 0.2112901618267359 0.03902113308565126 0.05921578401720363 0.2554586174582113 0.07188850109049455 0.2740041390047635 0.1732139436465305 0.01274445618779574 0.02354639522495184 0.4494441916310647 0.06704687430489374 0.4408070665340921 0.02196210484928119 0.1755906922178614 0.01874430614221908 0.279038064645333 0.06385776561121315 0.4679845584579719 0.07352948758002945 0.006831219242967157 0.005230535684161301 0.4111206668724671 0.03530353216240296 7.099530143535764e-005 0.0001577046515830954 6.56352293142375e-005 0.003099300723668782 0.01258502859975717 0.9840213354942413 0.01901507050130412 0.3017108125463002 0.03536261032438249 0.1218260463261802 0.485127397837755 0.03695806246407807 0.02549349320206003 0.9322443323876286 0.02850307445116374 0.004518033461713911 0.007962666851540656 0.001278399645893196 0.04154809943935641 0.2497542713109873 0.3454869845392484 0.03636039589353469 0.2669232734380208 0.05992697537885252 0.4351518532745367 0.2361695659417671 0.1585313758580599 0.006305181584426192 0.06714275364211282 0.09669926969909724 0.007933704573642531 0.2628997699178866 0.4481080456550276 0.004470088257083132 0.1817187634210256 0.09486962817533469 0.1589903769464582 0.238060516438756 0.005342695281506179 0.2627143089800757 0.1428546392521135 0.1920374631010905 0.004062204116937687 0.03492900273933944 0.07945515097258879 0.105237696066088 0.5305770150765462 0.2457389310285 0.06532972793066173 0.3811411465924502 0.08075427350562282 0.1506611141189275 0.03600202615768009 0.2861117116946576 0.07300737778098586 0.06670224340546287 0.5225045526744876 0.02850364152723571 0.2363915171204642 0.07289066749136387 0.3758446280384786 0.1893024292840314 0.0008714454171339471 0.05007651764426496 0.2894257902697964 0.0944791893462949 0.06339644568526087 0.05424468949015381 0.04120681474745287 0.03104592014414142 0.007520563040962661 0.8025855668920283 0.03499173851141905 0.0002429901771789573 0.02745672284620576 0.01829351755338391 0.5932891130437639 0.3257259178680484 0.05784672861444706 0.003228169790294198 0.1263049252438434 0.03189808380300929 0.09416647442676664 0.6865556181216393 0.07376371856842329 0.01269258619137721 0.04764105612577613 0.03923713290643195 0.4343766931791307 0.3922888130288608 0.09426430765020238 0.3082318161835795 0.1942910083565979 0.1823646931208464 0.1685694845430458 0.05227869014572794 0.3899021588336104 0.05270290689243382 0.1172933670854251 0.03265447392935599 0.3584799525103795 0.0489671407487953 0.2076128356681111 0.004488870525647764 0.04890833272196588 0.06615320642888382 0.4381305943572255 0.2347061602981661 0.1540532784213324 0.008555951692026435 0.03409006230899967 0.01558240569943427 0.2299317429294773 0.5577865589487301 0.008713474069845828 0.001718674754120355 0.00496467885543292 0.01439473910488247 0.04662016814080076 0.9235882650749175 0.05810371544498867 0.05233323285844134 0.04183365405670859 0.002796906995103374 0.1292374893178256 0.7156950013269323 0.005714553361659354 0.001257370973898096 0.04781750068110032 0.09394633395873275 0.2740208580181172 0.5772433830064924 0.04234613886633642 0.1298928493158126 0.01013809817874977 0.018498849082137 0.07048488619710087 0.7286391783598635 0.7939287370140812 0.001059686952671887 0.07715195856382613 0.01702633063052058 0.0701365338453817 0.0406967529935186 0.199708691912933 0.4553137700360826 0.02537368640748107 0.0911872746071206 0.1280413090911312 0.1003752679452514 0.2962366738281168 0.1810455136989913 0.04546942037954343 0.004109322273651631 0.3422750633266907 0.1308640064930063 0.01185004519177602 0.2878527828141591 0.1107095992589464 0.009161165324512825 0.5216385635536009 0.0587878438570047 0.1146328783997611 0.6333551597238486 0.05409525477433289 0.03577100036192404 0.1539441391374372 0.008201567602696117 0.0001137378061182725 7.66180247974062e-005 9.881493485281943e-006 0.001784984314139305 0.01175313587713491 0.9862616424843248 0.07935184498955192 0.03677918271832011 0.002480882930734957 0.1099127201949898 0.102722226523278 0.6687531426431254 0.009441918384286013 0.9395051418775446 0.01672721226076996 0.01237683638086471 0.02066013822818788 0.00128875286834679 0.1419991808121831 0.4241521939936914 0.1813301585640517 0.09764709877556234 0.08691007275151631 0.06796129510299526 0.4326032059190312 0.1019813082665189 0.202801490383133 0.04067676054677249 0.1989306107625414 0.02300662412200313 0.2813973049983215 0.1897708922987582 0.02274550248186266 0.01350846814096478 0.309583531029913 0.1829943010501799 0.05986392981390095 0.1366467746256806 0.118273580285036 0.4026590791578704 0.1478027709778151 0.1347538651396969 0.09905038352081612 0.08703211801097684 0.202007217749193 0.009732614163714834 0.4299864740575572 0.1721911924977419 0.0783135859622343 0.6474250674828415 0.01003173415592992 0.03503439636481345 0.05312056818525504 0.1760746478489259 0.1643769682548799 0.05105242901665751 0.4433315821745614 0.0002838188112307489 0.3258514439589886 0.01510375778368181 0.3991799200459397 0.03236954800206816 0.2417921170293036 0.07790283192497657 0.2474593963695113 0.001296186628200715 0.1749491033235927 0.09564177084098577 0.1348468192579465 0.02142124381277458 0.1683086805475693 0.4048323822171312 0.03536112003228492 0.0001960562669814131 0.2889952630572009 0.01543470652775109 0.2777674114455682 0.3822454426702136 0.1078890843628822 0.01268964723236673 0.09752462358214178 0.02516574256895039 0.276670523005781 0.4800603792478779 0.108709686986273 0.03072068312748155 0.04791162611992347 0.0104391218238086 0.2864692985485943 0.5157495833939191 0.1448003679400501 0.3715725015235694 0.07155455398149949 0.03086827625682354 0.1016768736798051 0.2795274266182525 0.6386918999552642 0.0913882282356496 0.04424825979560666 0.02080624854425703 0.07694264349896546 0.1279227199702571 0.1481469620959421 0.01315745950440132 0.09657445385453797 0.05159441358053477 0.2901055010045627 0.4004212099600211 0.1589651045796746 0.007004923890924602 0.01562117473906084 0.01491030886682511 0.05607049690215511 0.7474279910213598 0.03965870505327671 0.02253477264807631 0.02628532602994595 0.01373064974756342 0.161869242044775 0.7359213044763627 0.04460145299712148 0.02390612786383286 0.06843804465455448 0.07666531351757926 0.01210803480966775 0.7742810261572443 0.03276056264147294 0.003975784856553127 0.06479182260866118 0.0549215095074993 0.2666323616755867 0.5769179587102268 0.01520669475941928 0.2307764708472685 0.009210453024567959 0.04392511615374305 0.05042399720055984 0.6504572680144413 0.7404732789089387 0.1050465742294479 0.07881263271665129 0.04084655813227014 0.008458007371426017 0.02636294864126608 0.1645033177289108 0.4135612206826437 0.04647538859256756 0.04977110688483368 0.3184896366933467 0.007199329417697448 0.4330895098080714 0.1783402202250138 0.07132745962716725 0.09153049227214904 0.1698459588760512 0.05586635919154737 0.1876926343463306 0.1756467631462129 0.2215006802104018 0.02296212577412365 0.1371703069642637 0.2550274895586674 0.2349541071111485 0.5349944584598768 0.06758365861357416 0.03247586725363467 0.0981631684130858 0.03182874014868007 3.84375083079412e-005 5.012328866082025e-005 2.093513919005748e-007 0.0004252371094687838 0.008586051635134744 0.9908999411070358 0.01840543216033061 0.2583359882754136 0.0008503679776422823 0.0402617146620407 0.01126112464054378 0.6708853722840291 0.1309981721114212 0.6780254648074421 0.07591906893723641 0.03126726159251093 0.06649779564985138 0.01729223690153808 0.2323077561488355 0.2497874677041873 0.05325891190024134 0.05073969360304106 0.3988221096112027 0.01508406103249213 0.2366331504323907 0.1135409626783599 0.170975516944107 0.02525689345833391 0.3384907778105974 0.1151026986762111 0.410186332381681 0.1826738433824807 0.1605589038540206 0.004723148759170638 0.1097872027594534 0.1320705688631935 0.196085856937496 0.1088460745401597 0.08100581797859499 0.2982385490898435 0.1056969985792936 0.2101267028746122 0.0760488306301952 0.04060672193237334 0.1355251752259122 0.1072208453831208 0.3184498347275847 0.3221485921008138 0.154725116320539 0.2093989580454487 0.09868035954022006 0.1544413062307104 0.1285302346180571 0.2542240252450249 0.4500903508858448 0.03706279585511324 0.1716917570017151 0.02027915298929598 0.2573488480608279 0.063527095207203 0.3170999633630487 0.07290148760065318 0.06781931701709998 0.00354375845716044 0.3540893099181668 0.1845461636438708 0.3190983626540291 0.01760229224990006 0.3380231754042765 0.004060904625185451 0.2573456777695017 0.06386958729710736 0.05432597903603601 0.0006930859793520839 0.3596837340931827 0.01825718075832291 0.2685488579297071 0.2984911622033993 0.1169086446847839 0.01508188077089265 0.3475076301924054 0.04313657570909073 0.4253578466897448 0.05200742195308231 0.01700481038655831 0.02385914589975624 0.04689976050550095 0.01671592799950868 0.3084124474504676 0.5871079077582082 0.1790133073426761 0.2471462075579694 0.0503278351678009 0.05682559219625871 0.0784303300516246 0.3882567276836703 0.04166283022072734 0.05492287945408309 0.02095299994924838 0.05563098055635301 0.3764795958524176 0.4503507139671706 0.1404491726980145 0.09778308353929166 0.1241638654487015 0.08538669337460865 0.03482569314635678 0.517391491793027 0.2067618613598708 0.07850381750287064 0.0832770830523447 0.002269844418311184 0.4304013569823419 0.1987860366842607 0.07989143394306046 0.03070019585109063 0.06416461731878863 0.09642374493273562 0.6467111535250526 0.08210885442927207 0.007967414020941087 0.05934271790718847 0.008667584490007011 0.04260729848062078 0.04916032375349813 0.8322546613477444 0.03980684666896266 0.006224876051371808 0.05761548503389703 0.1336456888289371 0.5172358592663662 0.2454712441504651 0.01200800785204582 0.1043856077318372 0.01139508265018919 0.07792272755100965 0.02910654671322962 0.7651820275016885 0.7104123542227977 0.05966289450254968 0.1053368516433835 0.003754109144744283 0.07528043253054596 0.04555335795597913 0.006353260157568999 0.6601681799609616 0.03441786139383649 0.006734872167740014 0.2658305639204822 0.02649526239941082 0.1625537312702935 0.2922394206153892 0.04058156454568721 0.06362356220653016 0.3797231926666023 0.06127852869549767 0.3353543981408497 0.1057327356826168 0.1638266362143481 0.006426030118845378 0.1735482258266956 0.2151119740166444 0.1892474671119468 0.5024639699022562 0.06573409291639819 0.0213803497106815 0.2070138008141188 0.01416031954459858 0.0002771609806736122 0.0002922717859273609 3.574444002998561e-005 0.004313419935991937 0.03379306589082088 0.9612883369665562 0.03949552994965319 0.2267855622763471 0.001503517972916203 0.04463605789602701 0.04141528278943814 0.6461640491156183 0.05294039240225083 0.8356102110714921 0.04779241105767277 0.04981754883418988 0.002542111060651768 0.01129732557374256 0.2421065806148648 0.2634109123264741 0.1500467575919988 0.05223694140586555 0.2814189246755078 0.01077988338528898 0.03589778454532853 0.08157467066613469 0.1671925248682289 0.07385658309207645 0.6172809906138402 0.02419744621439112 0.05563561045576985 0.2626208020995161 0.3161047554263513 0.001429149311309177 0.2716758441076617 0.09253383859939177 0.1708329952219025 0.200034061688481 0.1164276206813155 0.289899030211403 0.1447885575271838 0.07801773466971422 0.01494962980179138 0.01418903661168581 0.04783822746989389 0.1267799904975791 0.6467152892520962 0.1495278263669536 0.0923981850270152 0.2871164698399076 0.0562504163136909 0.09639715725063289 0.08025554942199409 0.3875822221467594 0.331541215420491 0.04598205696046581 0.395271895936799 0.01377881309459951 0.1714686727149563 0.04195734587268846 0.3418332708951292 0.04335290497018837 0.07897736069445346 0.04739060156285715 0.3016982328712409 0.1867476290061309 0.1492298099558805 0.06752558520322866 0.003743652746324482 0.01456936845422829 0.431533658844039 0.3333979247962993 0.1418852217553546 0.002280329863036865 0.2053658096126655 0.001601912994147177 0.5093141350608316 0.1395525907139643 0.04886276647088395 0.005106545191750304 0.01064856889567746 0.02195034309470172 0.03652520548017278 0.8769065708668137 0.144829867644786 0.06945474318627179 0.1239462090831878 0.08801906782429299 0.1927647994455194 0.380985312815942 0.2874563455501465 0.1517013198755045 0.02020612913294914 0.1063133233494669 0.2748552882326068 0.1594675938593262 0.02632860007544967 0.004341592546552284 0.1795678699278693 0.07656072873497048 0.1846364705103769 0.5285647382047815 0.4445191170398884 0.116381767427336 0.08444206588080348 0.01048744624056535 0.1620139809415019 0.182155622469905 0.1512702104394243 0.03203680831154621 0.01525325016385811 0.01694954329713775 0.1280767238282317 0.6564134639598019 0.001997475703997652 0.000156471566548855 0.0001027591875678617 0.001176205747690604 0.00240154447953723 0.9941655433146577 0.04310603458518159 0.003499131177182111 0.03784427217176621 0.08812881606060843 0.01687802655164506 0.8105437194536165 0.008102541139102134 0.006729539057056451 0.07011040089304589 0.1153737426653956 0.1568705597012735 0.6428132165441264 0.02796142625535375 0.353339106455269 0.04028801188574316 0.3141664134511671 0.138647582056164 0.1255974598963031 0.1376040608891823 0.09083210960869023 0.381195830761045 0.03066837452433002 0.3584805479043044 0.001219076312447849 0.2851973373609601 0.391351249711897 0.06770789260411392 0.0155385135654043 0.1648376339733585 0.07536737278426606 0.1676374907605921 0.2026824933407288 0.05063635526963069 0.08782426167557746 0.404982504833132 0.08623689412033908 0.3885355845973442 0.2256251271533561 0.1104959679123954 0.0004066833107417388 0.005738063761050007 0.2691985732651125 0.2782841131338908 0.5266744305321528 0.01317258040661258 0.04096517460534636 0.1269261328852035 0.01397756843679398 2.1727872395777e-005 1.72385443434143e-005 4.154897678719387e-006 0.001301452930733615 0.01521442588861889 0.9834409998662296 0.0415003896303833 0.2232253400001053 0.001213127333069459 0.04274511649157188 0.04290652492969546 0.6484095016151745 0.05459791316011553 0.8401271711608688 0.03539328769232263 0.03174762610341317 0.0337420591467802 0.004391942736499788 0.3594683368409991 0.08268163662900731 0.1195211314122142 0.03404628425487829 0.3911472957407674 0.01313531512213373 0.3813909419861936 0.1567841964887581 0.01551191176252982 0.04142048145151352 0.2675510288823765 0.1373414394286284 0.1772652528295525 0.07172258802739696 0.05758730940257757 0.01774537553641282 0.3147872051495567 0.3608922690545035 0.1523903751837339 0.3416234065500227 0.02894513608364585 0.1498272790213087 0.1354513909691314 0.1917624121921573 0.08298035045653943 0.06428089103705674 0.03858951854563097 0.1050476253852221 0.3596666722402261 0.3494349423353247 0.01576112819605222 0.3769038476708129 0.009479180682866843 0.183695464784982 0.1406127561362063 0.2735476225290798 0.7247637824231944 0.06681037584669515 0.004479160757942121 0.03042543168379609 0.1050568105485482 0.06846443873982402 0.2894927950378308 0.08492731851317899 0.1731028790575556 0.05269262982011058 0.2426714085564055 0.1571129690149185 0.1939704480483131 0.0221970016843072 0.3097106430732577 0.01969349821432414 0.3532535524127329 0.101174856567065 0.05465304951553834 0.002209573933687492 0.4103937284907944 0.00400817288451725 0.231642751870259 0.2970927233052035 0.06004246433464196 0.008540202734740644 0.1603306645450616 0.02401353651048527 0.1046982920125214 0.6423748398625492 0.03198799544239592 0.0217731975001521 0.07679441221989723 0.02847609304122078 0.0808574804038965 0.7601108213924375 0.2159962596753745 0.1942518946969501 0.1360376985249852 0.136100718771247 0.2153684396612464 0.1022449886701969</probabilities>
			<property id="DSL_OUTCOME_ORDER">-1</property>
		</cpt>
		<cpt id="VegetationAndSoilCarbonSequestration">
			<state id="VeryHighSequestration" />
			<state id="HighSequestration" />
			<state id="ModerateSequestration" />
			<state id="LowSequestration" />
			<state id="VeryLowSequestration" />
			<state id="NoSequestration" />
			<parents>SequestrationRate PercentTreeCanopyCoverClass</parents>
			<probabilities>0.8753824305641144 0.1076116118331079 0.00566179900553198 0.006439153763655132 0.004905004833590608 0 0.5967913521581909 0.05548404960008194 0.1179953993747026 0.207571958487453 0.02215724037957161 0 0.2964923683254284 0.286739303694892 0.2422879211662477 0.1141026822749012 0.06037772453853071 0 0.06802846195560036 0.6827513115335101 0.1617278945919947 0.08290402515300588 0.004588306765889045 0 0.09917061744063471 0.3689421756664768 0.4826412660087379 0.04917413892139506 7.180196275534912e-005 0 0.4646993159147407 0.06100178676886097 0.1987690670261728 0.1221762082965626 0.1533536219936631 0 0.09647997561212865 0.2448862562835562 0.2800674083711294 0.1945757104917737 0.183990649241412 0 0.10941554587954 0.3224559245686529 0.2409567597234997 0.1969785468350248 0.1301932229932825 0 0.1652531594447657 0.2000433374525799 0.3438333769006345 0.209434363625759 0.08143576257626076 0 0.03102876300879619 0.08942696291092993 0.2216138754194331 0.6261374395756817 0.03179295908515917 0 0.9334876147086098 0.06280534790317513 0.002854285962250062 0.0008353622990097826 1.738912695533314e-005 0 0.6704167767835306 0.2598636707552483 0.02056179693139382 0.0277028402056618 0.02145491532416558 0 0.8601514602175688 0.08688196821295045 0.04144622146043988 0.01052948281228082 0.0009908672967599316 0 0.7924015039451683 0.09502054191039923 0.06767080889717617 0.04305445968240248 0.001852685564853898 0 0.04588576439206855 0.6848659756753126 0.2622978846726734 0.006950373905782487 1.354163004922911e-009 0 0.9931834379129976 0.001412268873556257 0.0008872937311138419 0.0001973435250795554 0.00431965595725286 0 0.5799202744853512 0.3676730392128451 0.001039928600994182 0.0371186765512579 0.01424808114955151 0 0.5792583985029591 0.2943901078279713 0.06433796031125971 0.04592896254376761 0.01608457081404247 0 0.5132199196415469 0.2892722742343479 0.1100489875512724 0.05905158299417194 0.02840723557866091 0 0.2389727806990276 0.4319670712447505 0.009940881179634833 0.1774933862987096 0.1416258805778775 0 0.8216673382072551 0.1139061608171098 0.064349651418756 7.612957281161147e-005 7.199840676080708e-007 0 0.771759062221267 0.1499453834180695 0.05131429490941977 0.02553052444581866 0.001450735005425043 0 0.475357299104609 0.3331063549235198 0.09076521058104453 0.0992453758989542 0.001525759491872524 0 0.3668459905550511 0.3884091459507804 0.2061726008403715 0.03771738560208888 0.0008548770517080692 0 0.2792729308094439 0.5549051986116863 0.1517964886392925 0.01402536819042101 1.374915602844407e-008 0 0.8531196748131925 0.06967819076350194 0.02719311051093121 0.03884650014629338 0.01116252376608095 0 0.9383818909830896 0.01840135541697906 0.01482830151039411 0.01337221953214063 0.01501623255739669 0 0.8642450684606491 0.07934257810919226 0.02369828826429032 0.02336113325581468 0.009352931910053685 0 0.9075518227766486 0.0601901237765534 0.01332679446420826 0.01484176123416784 0.004089497748421866 0 0.8520125470940533 0.1255898762336667 0.004247004284172766 0.01815056659178282 5.796324462587611e-009 0</probabilities>
			<property id="CarbonSequestration">CarbonSequestration=VegetationCarbonSequestration+SoilCarbonSequestration</property>
		</cpt>
	</nodes>
	<extensions>
		<genie version="1.0" app="GeNIe 2.0.3887.0" name="Network1" faultnameformat="nodestate">
			<node id="ActualEvapotranspirationClass">
				<name>ActualEvapotranspirationClass</name>
				<interior color="ffffff" />
				<outline color="000080" />
				<font color="000000" name="Arial" size="8" />
				<position>150 438 243 562</position>
				<comment>AET has been found to be well correlated with primary production (Lieth &amp; Box 1972; Elegene, 1989), litter production and decomposition rate (Meentemeyer 1978, 1985), some vegetation types (Mather&amp; Yoshioka 1966), and some other biosphere phenomena (e.g. Brook et al. 1983). \n\nThis is especially true in water-limited regions such as semi-arid biomes where the study area is located (Claudio et al., 2006; Fuentes et al., 2006). \n\nIn addition, acutal evapotranspiration is a controlling factor on soil storage, mineralization, and decomposition (Meentemeyer 1978, 1985; Conant et al., 2004). \n\nWithin chaparrel/scrub ecosystems Slope/Aspect is a variable that influences AET (Miller, 1947; Parsons, 1973; Miller, 1974; Ng, 1980) and other water balance measurements. Therefore, since we have data for AET and the Slope/Aspect effects are captured in an AET measurement, the Slope/Aspect variable was left out of the model. \n\nAET is relatively higher in the study area&apos;s semi-arid biome than other biomes. The pirors were therefore slanted towards the higher range.</comment>
				<barchart active="true" width="282" height="108" />
			</node>
			<node id="LandCover">
				<name>LandCover</name>
				<interior color="ffffff" />
				<outline color="000080" />
				<font color="000000" name="Arial" size="8" />
				<position>444 468 548 564</position>
				<comment>Land cover has been noted extensively for its correlation with carbon sequestration, especially over larger spatial scales (FAO, 1996; Skole &amp; Tucker, 1997; Steinger, 2000; IPCC, 2006; Tallis et al., n.d.)\n\n</comment>
				<barchart active="true" width="298" height="144" />
			</node>
			<node id="PercentTreeCanopyCoverClass">
				<name>PercentTreeCanopyCoverClass</name>
				<interior color="ffffff" />
				<outline color="000080" />
				<font color="000000" name="Arial" size="8" />
				<position>666 306 773 336</position>
				<comment>Data source: GLCF/Univ. of Maryland\nResolution: 1km2\n\nVegetationDensity node was dropped because all variables but one (PercentVegCover) was left after removing variables that lacked relevance to the local conditions. I believe we have spatial data for VegCover, correct? \n\nVeryHigh = 80-100, High = 60-79, Moderate = 40-59, Low = 20-39, VeryLow = 0-19 (%)\n\nHigher percent cover correlates with higher soil carbon storage, vegetation carbon storage, and vegetation and soil carbon sequestration. Lower percent cover correlates with the opposite.</comment>
				<barchart active="true" width="222" height="108" />
			</node>
			<node id="CarbonVegetationType">
				<name>CarbonVegetationType</name>
				<interior color="ffffff" />
				<outline color="000080" />
				<font color="000000" name="Arial" size="8" />
				<position>747 476 858 503</position>
				<comment>Vegetation type can help to predict the quantity of vegetation sequestration and storage capacities from expected biomass for certain plant species (Kirby &amp; Potvin, 2007) (for local species literature see, Gray &amp; Schlesinger, 1981; Gray &amp; Schlesinger, 1983; Quideau et al., 2001; Vourlitis et al., 2009).  \n\n\nData Source: USDA Forest Service - Pacific Southwest Region - Remote Sensing Lab \n\n2002,2003 existing vegetation map product at a scale of 1:24,000\n\n&quot;Tile 51&quot; covers parts of Orange and Los Angeles Counties\n\n</comment>
				<barchart active="true" width="187" height="90" />
			</node>
			<node id="SequestrationRate">
				<name>SequestrationRate</name>
				<interior color="ffffff" />
				<outline color="000080" />
				<font color="000000" name="Arial" size="8" />
				<position>297 315 412 346</position>
				<comment>Type your annotation here</comment>
				<barchart active="true" width="290" height="126" />
			</node>
			<node id="VegetationAndSoilCarbonSequestration">
				<name>VegetationAndSoilCarbonSequestration</name>
				<interior color="ffffff" />
				<outline color="000080" />
				<font color="000000" name="Arial" size="8" />
				<position>355 141 687 167</position>
				<comment>VegetationAndSoilCarbonSequetration = VegetationDensity*SequestrationRate\n\n(Ideally; since we&apos;re unlikely to get numbers for either of these variables we are including probabilities instead.)</comment>
				<barchart active="true" width="287" height="126" />
			</node>
			<textbox>
				<caption>Copyright 2011 The ARIES Consortium\n\nThis file is part of ARIES.\n\nARIES is free software: you can redistribute it and/or modify it under the terms of the GNU General Public License as published by the Free Software Foundation, either version 3 of the License, or (at your option) any later version.\n\nARIES is distributed in the hope that it will be useful, but WITHOUT ANY WARRANTY; without even the implied warranty of MERCHANTABILITY or FITNESS FOR A PARTICULAR PURPOSE.  See the GNU General Public License for more details.\n\nYou should have received a copy of the GNU General Public License along with ARIES.  If not, see &lt;http://www.gnu.org/licenses/&gt;.</caption>
				<font color="000000" name="Arial" size="10" />
				<position>801 5 1209 261</position>
			</textbox>
		</genie>
	</extensions>
</smile>
