<?xml version="1.0" encoding="ISO-8859-1"?>
<smile version="1.0" id="Network1" numsamples="1000" discsamples="10000">
	<nodes>
		<cpt id="CarbonVegetationType">
			<state id="RowCrops" />
			<state id="GrasslandHerbaceous" />
			<state id="Forest" />
			<state id="Wetland" />
			<state id="Unvegetated" />
			<state id="OpenWater" />
			<probabilities>0.02464880147671609 0.1707782264517151 0.7280382188049133 0.01920657423615025 0.01869574585162104 0.03863243317888445</probabilities>
		</cpt>
		<cpt id="SummerHighWinterLow">
			<state id="VeryHighSOL" />
			<state id="HighSOL" />
			<state id="ModerateSOL" />
			<state id="LowSOL" />
			<state id="VeryLowSOL" />
			<probabilities>0 0.02560125870982243 0.5838615419195324 0.3164756124971904 0.07406158687345471</probabilities>
		</cpt>
		<cpt id="AnnualPrecipitationClass">
			<state id="HighMeanAnnualPrecipitation" />
			<state id="ModerateMeanAnnualPrecipitation" />
			<state id="LowMeanAnnualPrecipitation" />
			<probabilities>0.0007192627556754326 0.7307934367273544 0.2684873005169701</probabilities>
		</cpt>
		<cpt id="VegetationCarbonStorage">
			<state id="VeryHighVegetationStorage" />
			<state id="HighVegetationStorage" />
			<state id="ModerateVegetationStorage" />
			<state id="LowVegetationStorage" />
			<state id="VeryLowVegetationStorage" />
			<state id="NoVegetationStorage" />
			<parents>CarbonVegetationType SummerHighWinterLow AnnualPrecipitationClass</parents>
			<probabilities>0 0 0.7 0.3 0 0 0 0 0.5 0.5 0 0 0 0 0 1 0 0 0 0 0.6 0.4 0 0 0 0.08949947735307708 0.4845697130362916 0.006970018538964417 0 0.418960791071667 0 0.5577130641135089 0.03548086049472481 0.0670682984642644 0 0.3397377769275021 0 0 0.5 0.5 0 0 2.418348740356822e-005 0.5046628607045341 0.1742777896064817 0.02296411831310444 1.03512776702982e-012 0.298071047887441 2.935957607799161e-018 0.213063480268284 0.07990390408743021 0.02429498271789346 3.723251303710663e-017 0.6827376329263923 0 0 0.4 0.6 0 0 0.008888476679115031 0.7820904002146418 0.107817527638395 2.578284015818828e-006 6.172809433677086e-013 0.101201017183215 0 0.4375 0.1041666666666667 0.04166666666666666 0 0.4166666666666667 0 1 0 0 0 0 1.017345748598507e-006 0.8955520139213815 3.557058861422655e-006 0 0 0.1044434116740085 0 0 0 1 0 0 0 0.4 0.6 0 0 0 0 0.2000000000000001 0.7000000000000001 0.1 0 0 0 0 0 1 0 0 0 0.3 0.7 0 0 0 0 0.3607816575448088 0.3021053944749679 0.04693994649207056 0 0.2901730014881526 0 0.4232496587732876 0.2583842117824685 0.01721424133112501 0 0.3011518881131189 0 0.2000000000000001 0.7000000000000001 0.1 0 0 0.0005499615871205316 0.5655415057683434 0.1762369553880015 0.009366863277960597 9.842902680201207e-013 0.2483047139775897 0.0006710739917532696 0.2907884168165459 0.1148779312556865 0.01474893411443018 1.510433615342177e-013 0.578913643821433 0 0 0.6 0.4 0 0 0.002882446447794424 0.7606045220175562 0.06916184774489362 0.001540805420259524 2.333569036863163e-012 0.1658103783671626 0 0.39 0.08 0 0 0.53 0 1 0 0 0 0 0.0042663052602053 0.9166127318162206 0.03840808569161651 0 0 0.04071287723195767 0 0 0 1 0 0 0.9 0.1 0 0 0 0 0.7 0.3 0 0 0 0 0 1 0 0 0 0 0 0.9 0.1 0 0 0 0 0.4224992593590842 0.3582988718305347 0.03155398402433473 0 0.1876478847860464 0 0.3414243029048732 0.2761135434995853 0.003290789710959868 0 0.3791713638845815 0 1 0 0 0 0 0.0002194058759834776 0.6375941247011101 0.1833227464094321 0.007135228502619859 9.870178096122952e-015 0.1717284945108446 0.0004107180121384133 0.4490004069320018 0.1203459312238036 0.0149322628735377 1.293200051090908e-010 0.4153106808291985 0 0.7777777777777778 0.2222222222222222 0 0 0 0.004293323801477868 0.8351241552613619 0.06732901678606709 0.00138927571600504 1.448597174110481e-015 0.0918642284350866 0 0.6228710462287105 0.08029197080291971 0.009732360097323601 0 0.2871046228710462 0 0.5789473684210527 0.05263157894736842 0 0 0.3684210526315789 0.005164975958136587 0.9211687164743339 0.02508925397303844 0 0 0.04857705359449124 0 0 1 0 0 0 0 0 0.7 0.3 0 0 0 0 0.5 0.5 0 0 0 0 0 1 0 0 0 0 0.6 0.4 0 0 0 0.3058825761227557 0.2007297588530402 0.1006574416797243 0 0.3927302233444798 0 0.1807785112296426 0.550412440147709 0.09438146131184885 0 0.1744275873107997 0 0 0.5 0.5 0 0 1.059557043100537e-005 0.5559942923500826 0.2350156051553722 0.004643564410660803 1.07627791553263e-012 0.204335942512377 5.040817102144235e-013 0.2247125101591723 0.09699409235711078 0.03741509022568887 6.175650454302233e-015 0.6408783072575178 0 0 0.4 0.6 0 0 2.382873415228554e-008 0.7254202791967405 0.1155385664568086 1.081239191979399e-006 3.283692143865171e-013 0.1590400492781964 0 0.45 0.1 0.05 0 0.4 0 0 0.3 0.7 0 0 2.105303924492465e-006 0.9532309204027358 7.371853998336835e-005 0 0 0.04669325575335633 0 0 0 1 0 0 0 0 0 0 0 1 0 0 0 0 0 1 0 0 0 0 0 1 0 0 0 0 0 1 0 0.4139373709324817 0.2013463408233052 0.00022957573261769 0 0.3844867125115953 0 0.04753004059515948 0.2263249503368106 0.1199847981649147 0 0.6061602109031152 0 0 0 0 0 1 3.831483787915102e-006 0.5395774788517245 0.1720625687759508 0.007477061297184032 1.026696901494962e-011 0.2808790595810858 1.422318911315734e-010 0.3620598583953921 0.1072529866184159 0.01488274576643233 3.653599242275947e-011 0.5158044090409918 0 0 0 0 0 1 0.008362676965442994 0.6806303791902328 0.1325198759028254 3.69096607313422e-007 1.6635943000953e-013 0.1784866988447251 0 0.5714285714285714 0.07142857142857143 0.07142857142857143 0 0.2857142857142857 0 0 0 0 0 1 2.244020711709715e-007 0.9116017943687248 0.03019165558274143 0 0 0.05820632564646239 0 0 0 0 0 1 0 0 0 0 0.001 0.999 0 0 0 0 0.001 0.999 0 0 0 0 0.001 0.999 0 0 0 0 0.001 0.999 0 0.4557355449276959 0.4376803147519087 0.0004482656366364484 0 0.1061358746837588 0 0.6114357656862658 0.1720270996504688 0.07689009037287967 0 0.1396470442903856 0 0 0 0 0.001 0.999 0.0002566391464208578 0.4622542179901573 0.2338088748931552 0.01791047173489883 9.642732149071161e-012 0.2857697962257251 8.584882135062582e-013 0.08639290417471371 0.07092263832394556 0.02981497414406396 6.32752985015893e-013 0.8128694833557856 0 0 0 0 0.001 0.999 7.886627461725196e-007 0.574199938044311 0.2893441437196044 1.457163390825114e-006 3.478758275317681e-012 0.1364536724064687 0 0.4347826086956522 0 0 0 0.5652173913043478 0 0 0 0 0.001 0.999 2.728964053610857e-005 0.8518673186574097 0.03971690579423632 0 0 0.1083884859078178 0 0 0 0 0.001 0.999</probabilities>
		</cpt>
		<cpt id="SoilCNRatio">
			<state id="VeryHighCNRatio" />
			<state id="HighCNRatio" />
			<state id="LowCNRatio" />
			<state id="VeryLowCNRatio" />
			<probabilities>0.02034122395409875 0.2680844979109863 0.5418328990988468 0.1697413790360681</probabilities>
			<property id="SoilInfluence">SoilInfluence=((ObservedSoilTexture/MaxSoilTexture)/2)+((ObservedSoilDepth/MaxSoilDepth)/2)</property>
		</cpt>
		<cpt id="VegetationAndSoilCarbonSequestration">
			<state id="VeryHighSequestration" />
			<state id="HighSequestration" />
			<state id="ModerateSequestration" />
			<state id="LowSequestration" />
			<state id="VeryLowSequestration" />
			<state id="NoSequestration" />
			<parents>VegetationCarbonStorage SummerHighWinterLow SoilCNRatio</parents>
			<probabilities>0.9 0.1 0 0 0 0 0.8 0.2000000000000001 0 0 0 0 0.7 0.2 0.1 0 0 0 0.5 0.3 0.2 0 0 0 0.8 0.2 0 0 0 0 0.7000000000000001 0.2000000000000001 0.1 0 0 0 0.5 0.3 0.2 0 0 0 0.2 0.3 0.5 0 0 0 0.02153407086904652 0.005867501825164525 0.08383045567144003 0.8887195237688534 4.84478654954676e-005 0 2.259878066213186e-013 4.140166226512121e-009 0.9999999958596078 0 0 0 2.814523548555936e-009 0.498908129567379 0.5010918676179839 1.137553321934743e-013 4.156247623620852e-017 0 1.613108788082369e-011 0.3334165815057134 0.6665834184780307 1.248042406910552e-013 0 0 0 0.001608095937710956 0.1013575138154102 0.8969970310661838 3.735918069501392e-005 0 1.949837203517599e-007 0.3448273975085697 0.4827585290962759 0.1724136079964342 2.555292948039556e-007 1.488570519798415e-008 0 0.4375 0.5 0.0625 0 0 0 0.375 0.625 0 0 0 0 0.3 0.4 0.3 0 0 0 0.75 0.25 0 0 0 0 0.5714285714285714 0.4285714285714286 0 0 0 0 0.8 0.2 0 0 0 0 0.9 0.1 0 0 0 0 0.8 0.2000000000000001 0 0 0 0 0.7 0.2 0.1 0 0 0 0.5 0.3 0.2 0 0 0 0.8 0.2 0 0 0 0.1350210949878763 0.2236286927675653 0.4767932417045721 0.1518987364304884 0.01265823170983904 2.399658902681034e-009 0.1382979362918151 0.2499998192462363 0.4946805398564458 0.1063830413879218 0.01063841367198477 2.495455961238969e-007 0 0.2 0.3 0.5 0 0 0.1194226701544291 0.09664130321793926 0.4407835338914975 0.2323445313895398 0.1108076622362701 2.991103243018879e-007 0.04016024593941967 0.1721554751542626 0.5016432262226103 0.2481249568340985 0.03753506693232048 0.000381028917288389 0.08395531683926907 0.2206168267471605 0.4642237686342566 0.1894410250282107 0.04151771174791211 0.000245351003190989 0.1169532269117081 0.2735965643731954 0.4686842948947383 0.1095619747843129 0.03120393534560568 3.690439660550964e-009 0.06068117803060582 0.135629895560961 0.4411044025858358 0.2826459729250423 0.07487846653478009 0.00506008436277497 0.06194540453040305 0.3328562128374761 0.4297296276996941 0.1345173587748645 0.04069218136575787 0.0002592147918043447 0.08552308878027558 0.4154772760694502 0.3967512627335653 0.08052274744456417 0.02155319921908944 0.0001724257530555752 0.07551290202938189 0.3294818235193746 0.4403402940675698 0.1210026019149588 0.03366237811292715 3.557875564349679e-010 0 0 0.3 0.4 0.3 0 0.1280817800037042 0.5405892962711215 0.2651834034008561 0.04028863506871171 0.02585688521371348 4.189301761958434e-011 0.07850241545901682 0.5688405797098156 0.3212560386473276 0.01932367149766507 0.01207729468611887 5.600304624605222e-014 0.1137724551064365 0.5369261476453728 0.2614770458482824 0.03592814375781987 0.05189620757505382 6.703453808009109e-011 0 0.4 0.6 0 0 0 0 0.2 0.7 0.1 0 0 0 0 0.5 0.5 0 0 0 0 0.4 0.4 0.2 0 0 0.1 0.8 0.1 0 0 0.1882845188248421 0.2301255230104805 0.485355648525598 0.07949790795690738 0.01673640168002718 2.144814251045338e-012 0.162393160894604 0.247863246352594 0.4358974318520126 0.1452991494614095 0.008547008976911515 2.462468418782352e-009 0 0 0.3 0.4 0.3 0 0.05482276096159586 0.135242837045655 0.4245884467017387 0.2500525655380713 0.1352925387435683 8.510093709745964e-007 0.03009654630472541 0.1166315485654844 0.501077862026225 0.3078734183906594 0.04319046492405601 0.00113015978884978 0.06535629906381223 0.1855671180828781 0.4411422786849794 0.2570824556530487 0.04998542958082954 0.0008664189344518531 0.09119465515275747 0.158061785995885 0.5235360264023929 0.163529798834182 0.06367753618367113 1.974311113756737e-007 0.03467690884488531 0.1220367755728685 0.3760911881281631 0.3540165601991832 0.1043589694272773 0.008819597827622714 0.04540092628471691 0.2148986459272219 0.3510994412169691 0.2977970406143498 0.09080208606574104 1.85989100130919e-006 0.08176906276967667 0.3007933232120008 0.423446918006851 0.161867119272874 0.03212356293103469 1.380756294783038e-008 0.1127688131130648 0.2899771389853539 0.3544163191329949 0.1783980705714254 0.06443945656253701 2.016346239584529e-007 0 0 0 0.7 0.3 0 0.1363636363636364 0.4318181818181818 0.3636363636363637 0.04545454545454546 0.02272727272727273 0 0.103448275862069 0.4827586206896552 0.3448275862068966 0 0.06896551724137931 0 0.1666663018355409 0.5833325170666653 0.166666617459424 4.014844884223819e-007 0.08333350269087747 6.594630039559386e-007 0 0 0.3 0.6 0.1 0 0 0 0.2 0.6 0.2 0 0 0 0 0.6 0.4 0 0 0 0 0.5 0.5 0 0 0 0.1 0.7 0.2 0 0.2 0.2 0.45 0.15 0 0 0.4999909626734078 2.497287426757931e-005 0.3333160423764615 0.1666575761982231 4.545380215878109e-006 5.900497424196365e-006 0 0 0 0.4 0.6 0 0.1407517467969497 0.0004628160478817213 0.7365406650011532 0.0003845248088844102 0.121856859737874 3.387607256854049e-006 0.125203566139832 0.161769221761244 0.4983913692917535 0.1445744594018485 0.07006132944457476 5.396074734718715e-008 0.1133723476907197 0.1276961584606705 0.4649780684073048 0.2541167887159649 0.03983518351401283 1.453211327316312e-006 0.154474588635152 0.1083842156728328 0.491127432199449 0.1270407401082473 0.1188013894775745 0.0001716339067446638 0.00583843726059186 0.002389984126747608 0.4877285343333248 0.4978843779036572 0.004930546659790438 0.00122811971588799 0 0.75 0.25 0 0 0 0.1666666666666667 0.6666666666666666 0.1666666666666667 0 0 0 0.1666666666666667 0.08333333333333333 0.6666666666666666 0.08333333333333333 0 0 0 0 0 0.4 0.6 0 0 0 0 0.3 0.7 0 0 0 0 0.2 0.8 0 0 0 0 0.1 0.9 0 0 0 0.2 0.6 0.2 0 0 0 0.1 0.6 0.3 0 0 0 0 0.5 0.5 0 0 0 0 0.4 0.6 0 0 0 0.1 0.6 0.3 0 0 0 0 0.5 0.5 0 0 0 0 0.4 0.6 0 0 0 0 0.3 0.7 0 0.02709138792653089 0.001985304591969142 0.6814497909756249 0.2893948555357855 7.866097008959985e-005 0 6.46295297063886e-005 0.5747511657940442 0.4251842046762495 0 0 0 0.4055980507794122 0.04455832221644217 0.549800985247641 4.264175650305848e-005 1.510952131471053e-015 0 0.9555738303900895 0.02735810352528537 0.01423871147383204 0.002829354610793348 0 0 0 1.437200274700796e-009 0.006321540377158979 0.8816129835889826 0.1120654745966582 0 0 0 0 0.3 0.7 0 0 0 0 0.2 0.8 0 0 0 0 0.1 0.9 0 0 0 0 0.3 0.7 0 0 0 0 0.2 0.8 0 0 0 0 0.1 0.9 0 0 0 0 0 1 0 0 0 0 0 0 1 0 0 0 0 0 1 0 0 0 0 0 1 0 0 0 0 0 1 0 0 0 0 0 1 0.1612903225842521 0.1854838709655999 0.4596774193416164 0.1612903225785501 0.0322580645219426 8.038873794939847e-012 0.1626510355925514 0.2168671539919636 0.4096373900304479 0.204819134123555 0.006025210874083283 7.538739892349592e-008 0 0 0 0 0 1 0.03930019218006176 0.1274736889296627 0.4063468696731004 0.317543545040013 0.109247059540532 8.864463663018786e-005 0.03373354912335921 0.155106266084474 0.5191984966178337 0.2452579721785027 0.04668987392505165 1.384207077843425e-005 0.1074528582414867 0.195865106856753 0.4041371391140486 0.2481793615298706 0.04382769282469318 0.0005378414331478933 0.09032014297422088 0.1331045913869131 0.5114333396668803 0.2111161614102438 0.05310398396235705 0.0009217805993850473 0.03452192588068181 0.03593454579568001 0.4485451148748573 0.4435565807685811 0.03739514805448654 4.668462571328672e-005 0.102500701051638 0.2773284497880947 0.4406437542069907 0.1548751818922908 0.0246514445864777 4.684745082926502e-007 0.111431174186343 0.3639715777244503 0.3626383512997383 0.1406271970334531 0.02133168565624324 1.409977210938866e-008 0.09154336840745798 0.2503430638431821 0.405216018712645 0.1913724474312162 0.0615249972194515 1.043860473242685e-007 0 0 0 0 0 1 0.1190476272910287 0.4761904056253655 0.3095237780126261 0.08333337237059055 0.01190480207160489 1.462878427334266e-008 0.1166666666666667 0.4333333333333334 0.45 0 0 0 5.803034720572462e-008 0.6315788164958713 0.263157880759616 0.1052631880943639 1.770043697672577e-008 3.891936447602387e-008</probabilities>
			<property id="CarbonSequestration">CarbonSequestration=VegetationCarbonSequestration+SoilCarbonSequestration</property>
		</cpt>
	</nodes>
	<extensions>
		<genie version="1.0" app="GeNIe 2.0.3887.0" name="Network1" faultnameformat="nodestate">
			<node id="CarbonVegetationType">
				<name>CarbonVegetationType</name>
				<interior color="ffffff" />
				<outline color="000080" />
				<font color="000000" name="Arial" size="8" />
				<position>123 488 234 515</position>
				<barchart active="true" width="229" height="126" />
			</node>
			<node id="SummerHighWinterLow">
				<name>SummerHighWinterLow</name>
				<interior color="ffffff" />
				<outline color="000080" />
				<font color="000000" name="Arial" size="8" />
				<position>709 473 845 508</position>
				<comment>The difference between summer high temperature and winter low temperature is also an important climatic predictor of NPP (Auch 2009; Rosenzweig 1968 noted the same for AET).\n\nMEAN TEMPERATURE OF WARMEST MONTH - MEAN TEMPERATURE OF COLDEST MONTH (e.g. Jul/Aug - Jan)\n\nClimate variables have also been aggregated as Weck&apos;s Climatic Index (Iverson et al. 1994).  We have some, but not all, of these data:\n\nWCI = dT(S)(P1 + SQRT(P2))(G)(H)/(100*Tm)\n\nWhere:\ndT (degrees C) = diurnal difference between average min and max temperature during warmest month of the growing season (dT is removed in the tropics, where high max temperature can lead to water stress) (HAVE)\nS (h) = mean daylight length during growing season\nP1 (dm) = avg. annual precipitation up to 20 dm (HAVE)\nP2 (dm) = avg. annual precipitation exceeding 20 dm (HAVE)\nG (months) = duration of growing season (HAVE growing degree days)\nH = avg. annual relative humidity (HAVE)\nTm (degrees C) = mean annual temperature of warmest month of the growing season (HAVE)</comment>
				<barchart active="true" width="198" height="108" />
			</node>
			<node id="AnnualPrecipitationClass">
				<name>AnnualPrecipitationClass</name>
				<interior color="ffffff" />
				<outline color="000080" />
				<font color="000000" name="Arial" size="8" />
				<position>433 468 545 498</position>
				<comment>Could add &quot;very high&quot; state for dense forests, but for Vermont, this is unnecessary</comment>
				<barchart active="true" width="335" height="72" />
			</node>
			<node id="VegetationCarbonStorage">
				<name>VegetationCarbonStorage</name>
				<interior color="ffffff" />
				<outline color="000080" />
				<font color="000000" name="Arial" size="8" />
				<position>257 305 413 338</position>
				<barchart active="true" width="316" height="126" />
			</node>
			<node id="SoilCNRatio">
				<name>SoilCNRatio</name>
				<interior color="ffffff" />
				<outline color="000080" />
				<font color="000000" name="Arial" size="8" />
				<position>938 482 1025 514</position>
				<barchart active="true" width="172" height="90" />
			</node>
			<node id="VegetationAndSoilCarbonSequestration">
				<name>VegetationAndSoilCarbonSequestration</name>
				<interior color="ffffff" />
				<outline color="000080" />
				<font color="000000" name="Arial" size="8" />
				<position>451 145 756 171</position>
				<comment>VegetationAndSoilCarbonSequetration = VegetationDensity*SequestrationRate\n\n(Ideally; since we&apos;re unlikely to get numbers for either of these variables we are including probabilities instead.)</comment>
				<barchart active="true" width="238" height="126" />
			</node>
			<textbox>
				<caption>Copyright 2011 The ARIES Consortium\n\nThis file is part of ARIES.\n\nARIES is free software: you can redistribute it and/or modify it under the terms of the GNU General Public License as published by the Free Software Foundation, either version 3 of the License, or (at your option) any later version.\n\nARIES is distributed in the hope that it will be useful, but WITHOUT ANY WARRANTY; without even the implied warranty of MERCHANTABILITY or FITNESS FOR A PARTICULAR PURPOSE.  See the GNU General Public License for more details.\n\nYou should have received a copy of the GNU General Public License along with ARIES.  If not, see &lt;http://www.gnu.org/licenses/&gt;.</caption>
				<font color="000000" name="Arial" size="10" />
				<position>857 59 1265 315</position>
			</textbox>
		</genie>
	</extensions>
</smile>
