<?xml version="1.0" encoding="ISO-8859-1"?>
<smile version="1.0" id="Network1" numsamples="1000" discsamples="10000">
	<nodes>
		<cpt id="AnnualPrecipitationClass">
			<state id="HighMeanAnnualPrecipitation" />
			<state id="ModerateMeanAnnualPrecipitation" />
			<state id="LowMeanAnnualPrecipitation" />
			<probabilities>0.1599479843953186 0.3715864759427828 0.4684655396618986</probabilities>
		</cpt>
		<cpt id="FireThreatClass">
			<state id="VeryHighFireThreat" />
			<state id="HighFireThreat" />
			<state id="ModerateFireThreat" />
			<state id="LowFireThreat" />
			<probabilities>0.811443433029909 0.09102730819245773 0.07054616384915474 0.02698309492847854</probabilities>
		</cpt>
		<cpt id="PercentTreeCanopyCoverClass">
			<state id="VeryHighCanopyCover" />
			<state id="HighCanopyCover" />
			<state id="ModerateCanopyCover" />
			<state id="LowCanopyCover" />
			<state id="VeryLowCanopyCover" />
			<probabilities>0.02704213073310836 0.04815906474659763 0.06543831674467819 0.06282516033965291 0.7965353274359629</probabilities>
		</cpt>
		<cpt id="CarbonVegetationType">
			<state id="Forest" />
			<state id="OakWoodland" />
			<state id="MesquiteWoodland" />
			<state id="Grassland" />
			<state id="DesertScrub" />
			<state id="Riparian" />
			<state id="UrbanBarrenWaterAgriculture" />
			<probabilities>0.1646214262370549 0.03513775823221148 0.26782896529256 0.1848429232194113 0.3094879051494975 0.003254747800969472 0.03482627406829526</probabilities>
		</cpt>
		<cpt id="VegetationDensity">
			<state id="VeryHighVegetationDensity" />
			<state id="HighVegetationDensity" />
			<state id="ModerateVegetationDensity" />
			<state id="LowVegetationDensity" />
			<state id="VeryLowVegetationDensity" />
			<state id="NoVegetationDensity" />
			<parents>CarbonVegetationType PercentTreeCanopyCoverClass</parents>
			<probabilities>0.7385557374486218 3.262447560034068e-005 0.04213010954587731 0.21731147347186 0.001696285574511812 0.0002737694835287622 0.5826597127327005 0.006218568931583263 0.2484571584327621 0.0003945733973337394 0.02668035355164011 0.1355896329539804 0.4324576322161999 0.1509027601872407 0.07118838993983509 0.01992526694220071 0.2771975269956455 0.04832842371887827 0.4943513304501999 0.08806075329831081 1.837368315946941e-005 0.0001549447461485721 0.412065607341682 0.005348990480499493 0.238397026065914 0.3259196313569231 0.19288972862356 0.06865066400246143 0.003215299769580378 0.1709276501815611 0.8595603049271683 0.02150753310626646 0.0003795220662499551 0.001089588542114486 0.09576025384619138 0.02170279751200946 0.7938945427093743 0.0003757352733687346 0.0004384069291870319 0.003411975868652041 0.1427976255269225 0.05908171369249533 0.764874570846741 1.495835764371278e-006 0.0001463234425919357 0.0009693856154067274 0.2337065572930865 0.0003016669664095378 0.6377620696166937 0.0001325122595817315 0.0006639690216421935 0.0004785316146021171 0.02756103723616162 0.3334018802513187 0.3160860363354441 0.003668167068101128 0.07419542839117367 0.1242898296874414 0.4598346126592128 0.0219259258586268 4.92196225500259e-029 9.678020073840118e-006 0.3085649314575806 0.6743472821142305 0.01707810840811518 2.0792621057315e-021 0.5321101033282845 1.813709009835181e-006 0.4614906588420052 2.903894501220196e-005 0.004863299596926695 0.001505085578761546 0.5215270815855905 0.01309194034096062 4.06889806160704e-005 1.048364555508865e-005 0.2290172922446806 0.2363125132025972 0.1194023644408348 0.1145812055751539 0.0002957155020381966 0.0002908538648020246 0.5998097782685388 0.1656200823486321 0.01581794762991385 0.2369739672991132 0.04123113194039892 0.08567648872844619 0.516237159092097 0.1040633053100309 4.832164363147973e-022 0.002436420260536863 0.0679335722739827 0.4937255927414516 0.4358568488135461 4.756591048270196e-005 0.3225955105832148 0.001222834344499346 0.003199873744803351 0.0001020300095345486 0.001369688039960897 0.6715100632779871 0.002271617815868308 0.04461292462908625 0.135614364204611 0.1725404237985968 0.1179847095921752 0.5269759599596625 0.2036974799214052 0.07827877389058795 0.2064228531749023 0.05107972935602199 0.03019689606036729 0.4303242675967153 0.005857244718882332 0.4109688169928152 0.1066252601466814 0.2785702447001572 0.03288412306281326 0.1650943103786506 0.6561605417110441 0.05767556443976692 0.001422261470165973 0.08404132089260208 0.08103170124720756 0.1196686102392133 0.6391106526252213 0.003326531849722223 0.007559007118794906 0.2836980344502439 0.04345168789388217 0.02285408606213564 0.6090162997048444 0.01037336604427553 0.00213125730176499 0.005035727691504748 0.3089005341672296 0.06454281509038067 0.3027499621130109 0.03455656439922262 0.0002335345168846143 9.010842970112517e-005 0.485838208366185 0.1765316221749959 0.03124050237325833 0.3012594040117209 0.2366430796751859 0.2134733140249733 0.1771331218270187 0.04025057808784281 0.5 0.4 0.1 0 0 0 0.4 0.4 0.2 0 0 0 0.03098989385689792 0.09956888032735797 0.0002203687382755418 0.005486589772173288 0.6450073194859691 0.2187269478193262 0.3 0.3 0.4 0 0 0 5.073149624782964e-006 0.1193734559488577 0.02710274103871392 0.4367867842678241 0.4147895197493567 0.001942425845622796 0.9936669830999289 9.116078347143474e-027 1.541632757793848e-010 0.006322604418083505 1.0412327824285e-005 4.109740352435674e-018 0.2979535663025822 1.648595193815754e-006 0.6273750540599387 0.07463128390362296 3.528753892437571e-005 3.15959973794361e-006 0.008866676183996567 5.216569652140772e-009 0.0008111981548672838 0.9887700064695597 0.001524746843877032 2.736713112961383e-005 0 0 0 0.05 0.1 0.85 1.799528742418661e-005 0.03613295399986043 0.4060790222661774 0.4696582704848222 0.0790261097763047 0.009085648185411029</probabilities>
			<property id="VegetationInfluence">VegetationInfluence=((ObservedCanopyCover/100)/3)+((ObservedSuccessionalStage/MaxSuccessionalStage)/3)+((ObservedSoftwoodPercent/100)/3)</property>
		</cpt>
		<cpt id="SoilOxygenConditions">
			<state id="AnoxicSoils" />
			<state id="OxicSoils" />
			<probabilities>0.001950585175552666 0.9980494148244473</probabilities>
		</cpt>
		<cpt id="VegetationCarbonStorage">
			<state id="VeryHighVegetationStorage" />
			<state id="HighVegetationStorage" />
			<state id="ModerateVegetationStorage" />
			<state id="LowVegetationStorage" />
			<state id="VeryLowVegetationStorage" />
			<state id="NoVegetationStorage" />
			<parents>VegetationDensity AnnualPrecipitationClass</parents>
			<probabilities>4.703588549188339e-007 0.7739144799657534 0.04459612005901135 0 0 0.1814889296163806 0 0.2242719891056934 0.423580386531287 0 0 0.3521476243630198 0 3.4971011346217e-007 0.106868159088497 0 0 0.8931314912013895 4.98390932890953e-051 0.01497445549552965 0.1738083581661502 0 0 0.8112171863383202 0 5.056457383263454e-006 0.03919516660849769 0 0 0.9607997769341191 0 1.054243595315121e-008 6.71792994534186e-006 0 0 0.9999932715276187 7.885090641973599e-012 0.4638113166189189 0.02739130055138623 0 0 0.5087973828218098 0 0.1630793141847125 0.04119314570936391 0 0 0.7957275401059235 0 0.004568187570040138 7.858722254296532e-005 0 0 0.9953532252074169 0.04647273842785612 0.8155654524571867 0.004501797969469629 0 0 0.1334600111454877 0 0.0148147976644349 0.02630117978459465 0 0 0.9588840225509706 0 3.138890709417589e-009 1.543703125423612e-005 0 0 0.9999845598298551 2.971134687299145e-030 0.2419311091026566 0.2988007382144582 0 0 0.4592681526828852 0 6.745910515553747e-006 0.1247257003211905 0 0 0.8752675537682939 0 0.007975185728129977 0.008780979540189676 0 0 0.9832438347316803 5.38923512984355e-042 0.07697431062280609 0.01384385216385519 0 0 0.9091818372133387 0 0.01134942442279277 0.00549437059923137 0 0 0.983156204977976 0 7.618750981322881e-010 2.774992044932614e-007 0 0 0.9999997217389205</probabilities>
		</cpt>
		<cpt id="SlopeClass">
			<state id="Level" />
			<state id="GentlyUndulating" />
			<state id="RollingToHilly" />
			<state id="SteeplyDissectedToMountainous" />
			<probabilities>0.1578539853857852 0.3966297997099191 0.2978689465933169 0.1476472683109786</probabilities>
		</cpt>
		<cpt id="SoilPh">
			<state id="HighPh" />
			<state id="ModeratePh" />
			<state id="LowPh" />
			<probabilities>0.6819028455796427 0.2900733112184533 0.02802384320190405</probabilities>
		</cpt>
		<cpt id="SoilCarbonStorage">
			<state id="VeryHighSoilStorage" />
			<state id="HighSoilStorage" />
			<state id="ModerateSoilStorage" />
			<state id="LowSoilStorage" />
			<state id="VeryLowSoilStorage" />
			<state id="NoSoilStorage" />
			<parents>SoilOxygenConditions VegetationDensity SlopeClass SoilPh</parents>
			<probabilities>0 1 0 0 0 0 0.5 0.4 0.1 0 0 0 0.8 0.15 0.05 0 0 0 0.6 0.35 0.05 0 0 0 0.3 0.3 0.2 0.2 0 0 0.6 0.35 0.05 0 0 0 0.3 0.3 0.3 0.1 0 0 0 0 1 0 0 0 0.3 0.3 0.3 0.1 0 0 0 0 1 0 0 0 0 0 1 0 0 0 0 0 1 0 0 0 0 1 0 0 0 0 0.5 0.4 0.1 0 0 0 0.8 0.15 0.05 0 0 0 0.6 0.35 0.05 0 0 0 0.3 0.3 0.2 0.2 0 0 0.6 0.35 0.05 0 0 0 0.3 0.3 0.3 0.1 0 0 0 0 1 0 0 0 0.3 0.3 0.3 0.1 0 0 0 0 1 0 0 0 0 0 1 0 0 0 0 0 1 0 0 0 0 1 0 0 0 0 0.3 0.3 0.3 0.1 0 0 0.6 0.3 0.1 0 0 0 0.5 0.35 0.1 0.05 0 0 0.2 0.3 0.3 0.2 0 0 0.5 0.35 0.1 0.05 0 0 0.15 0.15 0.3 0.3 0.1 0 0 0 1 0 0 0 0.15 0.15 0.3 0.3 0.1 0 0 0 1 0 0 0 0 0 1 0 0 0 0 0 1 0 0 0 0 1 0 0 0 0 0.2 0.3 0.3 0.2 0 0 0.4 0.4 0.2 0 0 0 0.35 0.35 0.2 0.1 0 0 0.15 0.25 0.4 0.2 0 0 0.35 0.35 0.2 0.1 0 0 0 0.1 0.4 0.4 0.1 0 0 0 1 0 0 0 0 0.1 0.4 0.4 0.1 0 0 0 1 0 0 0 0 0 1 0 0 0 0 0 1 0 0 0 0 1 0 0 0 0 0.1 0.3 0.4 0.2 0 0 0.25 0.3 0.4 0.05 0 0 0.2 0.3 0.3 0.2 0 0 0.05 0.2 0.4 0.3 0.05 0 0.2 0.3 0.3 0.2 0 0 0 0.05 0.35 0.4 0.2 0 0 0 1 0 0 0 0 0.05 0.35 0.4 0.2 0 0 0 1 0 0 0 0 0 1 0 0 0 0 0 1 0 0 0 0 1 0 0 0 0 0 0 0 0 0 1 0 0 0 0 0 1 0 0 0 0 0 1 0 0 0 0 0 1 0 0 0 0 0 1 0 0 0 0 0 1 0 0 1 0 0 0 0 0 0 0 0 1 0 0 1 0 0 0 0 0 1 0 0 0 0 0 1 0 0 0 0 0.00124641602857682 0.9987535839714231 0 0 0 0 0.001737023033600756 0.9982629769663993 0 0 0 0 0.9999999999997696 2.304482838777519e-013 0 0 0 0 0.005222050298745331 0.9947779497012547 0 0 0 0 6.399629123989197e-005 0.9999360037087602 0 0 0 0 7.920214374743714e-005 0.9999207978562527 0 0 0 0 4.93682403596675e-008 0.9999999506317596 0 0 0 0 0.05900155106399448 0.9409984489360056 0 0 0 0 1.129006158133528e-011 0.99999999998871 0 0 0 0 6.060734520691406e-011 0.9999999999393926 0 0 0 0 0.1141310939397978 0.8858689060602022 0 0 0 0 2.423389500852209e-011 0.9999999999757661 0 0 0 0 0.7005139301500042 0.2994860698499958 0 0 0 0 0.980204702861058 0.01979529713894201 0 0 0 0 1 2.138508552618567e-024 0 0 0 0 0.4076529762026337 0.5923470237973663 0 0 0 0 0.3013911120767756 0.6986088879232244 0 0 0 0 0.9996347463179877 0.0003652536820122642 0 0 0 0 0.1059392852922697 0.8940607147077302 0 0 0 0 0.06610097331622111 0.9338990266837788 0 0 0 0 0.000108682148715672 0.9998913178512844 0 0 0 0 0.5941661496210654 0.4058338503789346 0 0 0 0 0.07501669379620832 0.9249833062037917 0 0 0 0 3.186624986899963e-005 0.9999681337501311 0 0 0 0 0.8594867116114797 0.1405132883885202 0 0 0 0 0.8749476735921526 0.1250523264078474 0 0 0 0 1 5.35133877823939e-023 0 0 0 0 0.7926644828651479 0.2073355171348521 0 0 0 0 0.5235308382508993 0.4764691617491006 0 0 0 0 0.9999762181072741 2.378189272596293e-005 0 0 0 0 0.4649869962947081 0.5350130037052919 0 0 0 0 0.5022569166121433 0.4977430833878567 0 0 0 0 4.659847079920142e-005 0.9999534015292008 0 0 0 0 0.001103934464604517 0.9988960655353955 0 0 0 0 0.9956886931249843 0.004311306875015633 0 0 0 0 1.563014228919792e-006 0.9999984369857712 0 0 0 0 0.9503284551006902 0.04967154489930984 0 0 0 0 0.7639316264098838 0.2360683735901163 0 0 0 0 1 5.11895130012756e-023 0 0 0 0 0.9264593254170991 0.07354067458290095 0 0 0 0 0.698331659778936 0.3016683402210641 0 0 0 0 0.9999992384965327 7.61503467266246e-007 0 0 0 0 0.282200956936503 0.717799043063497 0 0 0 0 0.6803182799941984 0.3196817200058017 0 0 0 0 2.251252388574796e-005 0.9999774874761143 0 0 0 0 0.1567367898061544 0.8432632101938457 0 0 0 0 0.2230370895588877 0.7769629104411124 0 0 0 0 7.702352963470171e-008 0.9999999229764703 0 0 0 0 0.9753480225859419 0.024651977414058 0 0 0 0 0.7467755689887915 0.2532244310112085 0 0 0 0 1 1.017627959053958e-019 0 0 0 0 0.7642476050932548 0.2357523949067451 0 0 0 0 0.3602294805093781 0.6397705194906219 0 0 0 0 0.09121739976774053 0.9087826002322595 0 0 0 0 3.847487178384553e-007 0.9999996152512822 0 0 0 0 0.0006436773529312711 0.9993563226470686 0 0 0 0 8.60804247339325e-011 0.9999999999139195 0 0 0 0 1.588962962870744e-007 0.9999998411037038 0 0 0 0 6.294566134757664e-007 0.9999993705433865 0 0 0 0 5.388190607709117e-011 0.9999999999461182 0 0 0 0 0.6702578652784473 0.3297421347215526 0 0 0 0 0.9556142845182867 0.0443857154817134 0 0 0 0 1 2.342074012944792e-023 0 0 0 0 0.03116653844158348 0.9688334615584165 0 0 0 0 0.6912007880346212 0.3087992119653789 0 0 0 0 0.9901911233593274 0.009808876640672679 0 0 0 0 0.003770458801488562 0.9962295411985115 0 0 0 0 0.2292794906962278 0.7707205093037722 0 0 0 0 3.373301156918042e-006 0.9999966266988432 0 0 0 0 0.0003172037425620662 0.9996827962574379 0 0 0 0 0.07209575958945681 0.9279042404105431 0 0 0 0 1.624150245352396e-006 0.9999983758497546 0 0 0</probabilities>
		</cpt>
		<cpt id="VegetationAndSoilCarbonStorageClass">
			<state id="VeryHighStorage" />
			<state id="HighStorage" />
			<state id="ModerateStorage" />
			<state id="LowStorage" />
			<state id="VeryLowStorage" />
			<state id="NoStorage" />
			<probabilities>0.04585463456718619 0.2660413205694467 0.2677668352408672 0.08597285067872608 0.09136049489228118 0.2430038640514927</probabilities>
		</cpt>
		<cpt id="DeforestationRiskClass">
			<state id="HighDeforestationRisk" />
			<state id="ModerateDeforestationRisk" />
			<state id="LowDeforestationRisk" />
			<state id="NoDeforestationRisk" />
			<probabilities>0.2590828028794476 0.3478215592090238 0.1046068132411619 0.2884888246703667</probabilities>
		</cpt>
		<cpt id="StoredCarbonRelease">
			<state id="VeryHighRelease" />
			<state id="HighRelease" />
			<state id="ModerateRelease" />
			<state id="LowRelease" />
			<state id="VeryLowRelease" />
			<state id="NoRelease" />
			<parents>VegetationAndSoilCarbonStorageClass DeforestationRiskClass FireThreatClass</parents>
			<probabilities>0.02508213552361045 0.2510677618069973 0.2722176591376153 0.2875256673510643 0.03741273100616219 0.1266940451745504 0.09920739882705883 0.04201971926048213 0.1204133565610784 0.2731874606663638 0.2684263811235085 0.1967456835615085 0.2174935917693746 0.1769514379016146 0.1348291723726263 0.1716492854383925 0.116233013799642 0.18284349871835 0.2964120670855185 0.1255516901189061 0.1725115530401368 0.08710732644477867 0.2877200270003637 0.03069733631029629 0.09142180362077806 0.2989453499520491 0.150143815915631 0.04707010320906452 0.3130787885624139 0.09934013874006345 0.0287064310260184 0.2131197839960788 0.3400220913107481 0.1824374079528702 0.2330756013745694 0.00263868433971525 0.2235416801396856 0.2327491431158267 0.2459257582616591 0.11491948522279 0.02742029360408702 0.1554436396559517 0.003577516867151682 0.2274724483180896 0.1987202573891322 0.3520732790703242 0.1937981704242598 0.02435832793104263 0.3342616188949935 0.1451934949951661 0.05358221895278294 0.04483356540471678 0.1692457241941017 0.2528833775582389 0.04724722303798899 0.03921433136973815 0.03365176982742316 0.3624475270786181 0.3178952096325591 0.1995439390536724 0.1058223388443406 0.02064333816540339 0.1326495036424016 0.3818558819751586 0.1201350533056856 0.2388938840670101 0.3340858125280308 0.01931529376588429 0.1483928838391388 0.04625504559724925 0.3459111974884132 0.1060397667812836 0.09762060795484118 0.108055653576652 0.08980692645056539 0.3697257649845864 0.332635983263632 0.002155063769723343 0.2712411142749053 0.3025626729854047 0.2813564046912656 0.01572051532227566 0.01292288086656973 0.116196411859579 0.0683705532487944 0.1855384730482954 0.2173811394157024 0.1663113006396587 0.1268002094789225 0.2355983241686267 0.02063794224161934 0.3347803881511738 0.2487580091001961 0.06949345343114535 0.2781247098152102 0.04820549726065532 0.230504833512384 0.06861439312567036 0.05189402076620261 0.2086143931256417 0.2184174722520715 0.22195488721803 0.05403158769742295 0.104427819340537 0.2376392352452222 0.228850096979774 0.2536325852036563 0.1214186755333875 0.2559460238349522 0.03427757717540565 0.2169896082320438 0.01543508111681814 0.2425536964518811 0.2347980131888991 0.02884789506420706 0.2293265937595973 0.2463881081166187 0.1767642172725189 0.218642479785216 0.100030706001842 0.2162943906304125 0.1372103104945512 0.2212122719617069 0.1777686179474346 0.0866812118455637 0.1608331971203311 0.4048655089772222 0.1299522017967833 0.2498493754100364 0.114206911325631 0.03643106749320518 0.06469493499712198 0.07698494102289118 0.09991141778171393 0.008112266306121588 0.23005734533079 0.283136742971698 0.3017972865867853 0.1386972623629373 0.09396557984169615 0.3263068352749566 0.06098737512578193 0.2727263296575616 0.1073166177370666 0.2335751426358733 0.02762631770265681 0.3198994831918845 0.06345518625637686 0.299527444565619 0.05591642564758964 0.2255805269134335 0.159262900386381 0.1883292561177322 0.2253671399285123 0.02384599556459965 0.1776141810893412 0.1265585290555881 0.1233178120042975 0.1107216565181035 0.165140118371453 0.2427297071415179 0.2315321769090402 0.3079111093242746 0.02071502517765061 0.2042756776858663 0.2555958710663079 0.1217472586011071 0.08975505814479354 0.262898021072239 0.1566618716223893 0.05353602115002861 0.4834570973135492 0.03742078457290876 0.006026204268885172 0.1933484855512808 0.2229788023563255 0.2336657544413022 0.1224453824388858 0.1869938308826911 0.04056774432951452 0.04207323943661955 0.02279436619718307 0.2081126760563342 0.1781521126760573 0.2107154929577466 0.3381521126760592 0.1054194907244889 0.07903761510004558 0.04387978289633593 0.198066589258229 0.02962222882294167 0.543974293197959 0.1110188880021283 0.3246076084064897 0.07853152434156703 0.1882841181165228 0.2521840915137168 0.04537376961957539 0.1841830079451481 0.1998900399952557 0.04062051939931637 0.3207059001088853 0.08660967432433844 0.1679908582270561 0.1842789683981095 0.169473301852527 0.1452960406828902 0.2336941518343625 0.2526407555394116 0.01461678169269919 0.2408553216027929 0.1670900674843757 0.1567180462260178 0.1635288250237673 0.2033882455620846 0.06841949410096167 0.1809343068423067 0.0744248226088414 0.1318257032542842 0.2816289135901531 0.1063505567137528 0.2248356969906619 0.3075107437394801 0.03933572187585198 0.2739018816825124 0.2796851637656219 0.05660093472884265 0.04296555420769108 0.02733482762301172 0.3046216245063545 0.02977905859750186 0.3170242288397928 0.2888782153911786 0.03236204504216052 0.06341892260587506 0.2569497074605153 0.04814017643314023 0.2872848900071756 0.03764109093481261 0.3065652125584811 0.3530467538222638 0.1743518723687265 0.08072235763349871 0.0269222246842483 0.05845335696875276 0.3065034345225099 0.2178378673914938 0.1270083026766959 0.1426607618467415 0.2312330607430967 0.05622075903492175 0.2250392483070504 0.2245376018739926 0.2292225855253559 0.2935313064272117 0.01833731882289787 0.03250207408130342 0.2018691132692385 0.2373222111509865 0.02264410486125194 0.08203197333497905 0.1305827682594555 0.2747184918038552 0.2527004505894718 0.02857097278499713 0.2733305682289329 0.002281211115719523 0.3483712471684034 0.2955364834253485 0.05190951727659855 0.1603229003533123 0.1321107303085989 0.2134637644976057 0.1737745598704771 0.2117463703972703 0.1085816745727358 0.2415384875999506 0.1609127253015307 0.07162217102588363 0.2292146632335025 0.2069386095676883 0.08977334327144444 0.1365154264972771 0.09019963702359334 0.2796188747731411 0.07438294010889297 0.2878765880217788 0.1314065335753169 0.2227079992090831 0.2100826797313832 0.2232718910883027 0.05519549472358702 0.2329093159332411 0.0558326193144029 0.09580088285503655 0.06845661989757298 0.2784831863591832 0.1085992504823366 0.180803458690667 0.2678566017152038 0.2460290610843813 0.1385063493766139 0.2083866229897809 0.2602790590215615 0.1336875892171988 0.01311131831046363 0.007325623986185944 0.1533985662707341 0.3042540945005491 0.2262152686934235 0.2842970017267535 0.0245094448223537 0.2894441789508787 0.1009355585780904 0.2715785023710546 0.05481013123553147 0.2294324155423899 0.05379921332205483 0.2332007451789922 0.1796888374200735 0.3276471476763486 0.1907255425205175 0.02784351241125872 0.04089421479280971 0.2331755157253967 0.1396774825125041 0.1614100350639879 0.2321431749817524 0.2209120196500758 0.01268177206628316 0.1781938741799985 0.2021921751852375 0.182995894095993 0.183231865590637 0.2449030157157022 0.008483175232431972 0.2110265113292208 0.08561599853224469 0.2068709292725423 0.1382075038987478 0.1169158792771084 0.2413631776901359 0.3602837828793293 0.111873368583091 0.2967505521718772 0.09714878522187194 0.0451107690248301 0.08883274211900069 0.1142412451361878 0.2309935149156961 0.08103761348897483 0.2512062256809338 0.1261011673151746 0.1964202334630329 0.17828359927339 0.2643338990422736 0.1295445048056834 0.1014608935927069 0.1331946067185748 0.1931824965673713 0.2735901216365603 0.1844268337633523 0.05238665683745838 0.2362882417987286 0.175423884998182 0.07788426096571838 0.1724482354060321 0.1750642102926706 0.2193376034499098 0.1501886672797057 0.1558645400640536 0.1270967435076284 0.2302931046940097 0.2505238313142747 0.04597673466438695 0.1384118879603103 0.1397726451675045 0.1950217961995139 0.1242442418426096 0.2147672744721696 0.001487523992322453 0.3849088291746651 0.05212332053742803 0.2224688099808053 0.1787906180122527 0.06387871291054524 0.1889401652473346 0.1397862251613625 0.1783307166531547 0.2502735620153504 0.02858190680121595 0.03793964201634875 0.3570135693075779 0.1464704420967966 0.3451123283133572 0.08488211146470354 0.2302466119169962 0.01728309713100583 0.2234644862152407 0.01486346353266499 0.317675244645217 0.1964670965588752 0.07994662764171651 0.05811561141479785 0.2004992898032976 0.1937760943485558 0.2433779537726508 0.2242844230189814 0.3224726843193156 0.1360124027955697 0.2823112511073885 0.1186386455359742 0.05546805787971324 0.08509695836203893 0.1147634179761498 0.3455584385294891 0.04877408821900305 0.1719774933675432 0.1285968339115469 0.1903297279962679 0.0867310613252332 0.1027031516992617 0.2492049553825725 0.1467272640972084 0.3761985000949267 0.03843506740079749 0.183445838553452 0.03665924942500781 0.2717234802445803 0.2815684661268927 0.1071542100637627 0.1194487555863046 0.02146493039229895 0.02682094159494754 0.03099127092830646 0.6272665944354486 0.02757732485639083 0.2658789377926076 0.2855602997195317 0.3349449537444015 0.2773870819205532 0.05617648290008032 0.0386684247980236 0.007262756917409729 0.0819564484355873 0.2409711253482913 0.4032867765808238 0.03785472163558003 0.1753775711218008 0.06055335687791654 0.2778604839633201 0.1968270187894743 0.2482712449678924 0.0452074946485671 0.2180918068022649 0.013741950828481 0.1883956929274014 0.2371213881787932 0.01721279727322018 0.1086993570377435 0.2265241304516172 0.2220466341312246 0.08682779040143397 0.05200617739349491 0.1465852195040381 0.1857349426033582 0.3151257611079965 0.2137201089896784 0.2577164231317795 0.03195105980283956 0.07180466977027861 0.1444973673116095 0.2479660576051913 0.2460644223783016 0.05760923330585312 0.2698268755152529 0.1211953833470732 0.1444352844187966 0.2446166529266274 0.1623165704863968 0.2646510070324591 0.03564081710758861 0.1500103653383114 0.1040042099220222 0.2169226107895187 0.2287709898101001 0.07732306457534556 0.2189738641894148 0.1322842578915464 0.1260256662027504 0.2370921882871266 0.2083009588538162 0.01353668904458971 0.1945413502975577 0.2125414089296713 0.2258802145935346 0.1362097270675156 0.2172906100671311 0.4148237179487183 0.01092414529914525 0.2410924145299152 0.03178418803418776 0.261151175213675 0.04022435897435848 0.292075126883368 0.2041059563183627 0.1439567752252075 0.05052491483170173 0.1714390711440803 0.1378981555972799 0.2110731327625317 0.183740002481756 0.1730120590657313 0.09189256263607355 0.1861540717677976 0.1541281712861096 0.1917622208811095 0.2110504081567834 0.08929422227868943 0.1074230537115275 0.2389781786996156 0.1614919162722747 0.1080918615207206 0.1304929214613445 0.345916038962633 0.2130186225679013 0.0127953480383738 0.1896852074490267 0.1601569918339038 0.09341014116604469 0.2525542824586981 0.1316072672026452 0.1775780211432549 0.1846932961954533 0.3107924656371986 0.3179337066576159 0.2293398947904269 0.09720572430567483 0.01013914814186307 0.03458906046722069 0.2937369669950418 0.2826120453214684 0.2241009152636414 0.02563970867702832 0.1577930949470441 0.01611726879577593 0.1633207926522774 0.114526373509208 0.1761305652445434 0.2211247010799212 0.09412365009976682 0.2307739174142833 0.1125285924162791 0.2510181689695594 0.1355234039387541 0.02464061889795658 0.249167797965527 0.2271214178119238 0.2782934024030498 0.2209203128693781 0.1547696134357026 0.04819462859609633 0.1323527900260028 0.1654692526697705 0.2643543766010059 0.08454198984282306 0.1543748159123151 0.09912619712778656 0.2024116602254555 0.195190960290614 0.2596895043852724 0.271206551772779 0.004040923687114661 0.1214351502277693 0.1215015309043537 0.222126339022711</probabilities>
			<property id="CarbonStorage">CarbonStorage=VegetationCarbonStorage+SoilCarbonStorage</property>
		</cpt>
	</nodes>
	<extensions>
		<genie version="1.0" app="GeNIe 2.0.3887.0" name="Network1" faultnameformat="nodestate">
			<node id="AnnualPrecipitationClass">
				<name>AnnualPrecipitationClass</name>
				<interior color="ffffff" />
				<outline color="000080" />
				<font color="000000" name="Arial" size="8" />
				<position>1130 700 1266 735</position>
				<barchart active="true" width="342" height="72" />
			</node>
			<node id="FireThreatClass">
				<name>FireThreatClass</name>
				<interior color="ffffff" />
				<outline color="000080" />
				<font color="000000" name="Arial" size="8" />
				<position>509 338 599 369</position>
				<barchart active="true" width="216" height="90" />
			</node>
			<node id="PercentTreeCanopyCoverClass">
				<name>PercentTreeCanopyCoverClass</name>
				<interior color="ffffff" />
				<outline color="000080" />
				<font color="000000" name="Arial" size="8" />
				<position>845 720 952 750</position>
				<barchart active="true" width="239" height="108" />
			</node>
			<node id="CarbonVegetationType">
				<name>CarbonVegetationType</name>
				<interior color="ffffff" />
				<outline color="000080" />
				<font color="000000" name="Arial" size="8" />
				<position>631 739 726 769</position>
				<barchart active="true" width="182" height="144" />
			</node>
			<node id="VegetationDensity">
				<name>VegetationDensity</name>
				<interior color="ffffff" />
				<outline color="000080" />
				<font color="000000" name="Arial" size="8" />
				<position>537 572 659 601</position>
				<comment>Use DBHs from IVMP data as values for successional stage - 2.5, 7.5, 15, 25, 45 for early, pole, mid, late, and old growth successional stages respectively.</comment>
				<barchart active="true" width="303" height="126" />
			</node>
			<node id="SoilOxygenConditions">
				<name>SoilOxygenConditions</name>
				<interior color="ffffff" />
				<outline color="000080" />
				<font color="000000" name="Arial" size="8" />
				<position>43 698 178 728</position>
				<barchart active="true" width="128" height="64" />
			</node>
			<node id="VegetationCarbonStorage">
				<name>VegetationCarbonStorage</name>
				<interior color="ffffff" />
				<outline color="000080" />
				<font color="000000" name="Arial" size="8" />
				<position>860 505 1016 538</position>
				<barchart active="true" width="284" height="126" />
			</node>
			<node id="SlopeClass">
				<name>SlopeClass</name>
				<interior color="ffffff" />
				<outline color="000080" />
				<font color="000000" name="Arial" size="8" />
				<position>429 713 474 741</position>
				<comment>+ aspect (more C on N-NE facing slope)</comment>
				<barchart active="true" width="252" height="90" />
			</node>
			<node id="SoilPh">
				<name>SoilPh</name>
				<interior color="ffffff" />
				<outline color="000080" />
				<font color="000000" name="Arial" size="8" />
				<position>220 708 278 731</position>
				<comment>See how the modeling looks if we add pH.</comment>
				<barchart active="true" width="128" height="72" />
			</node>
			<node id="SoilCarbonStorage">
				<name>SoilCarbonStorage</name>
				<interior color="ffffff" />
				<outline color="000080" />
				<font color="000000" name="Arial" size="8" />
				<position>203 518 319 551</position>
				<barchart active="true" width="242" height="126" />
			</node>
			<node id="VegetationAndSoilCarbonStorageClass">
				<name>VegetationAndSoilCarbonStorageClass</name>
				<interior color="ffffff" />
				<outline color="000080" />
				<font color="000000" name="Arial" size="8" />
				<position>740 344 879 394</position>
				<comment>VegetationAndSoilCarbonStorage = VegetationCarbonStorage + SoilCarbonStorage</comment>
				<barchart active="true" width="215" height="126" />
			</node>
			<node id="DeforestationRiskClass">
				<name>DeforestationRiskClass</name>
				<interior color="ffffff" />
				<outline color="000080" />
				<font color="000000" name="Arial" size="8" />
				<position>220 343 336 370</position>
				<comment>A function of agricultural/economic factors (likely difficult to find/nonexistent spatially) and population growth.  We have population growth data, but not at the appropriate scale for Puget Sound (national data).</comment>
				<barchart active="true" width="266" height="90" />
			</node>
			<node id="StoredCarbonRelease">
				<name>StoredCarbonRelease</name>
				<interior color="ffffff" />
				<outline color="000080" />
				<font color="000000" name="Arial" size="8" />
				<position>476 204 625 229</position>
				<comment>Agricultural practices are also an influence there, but it&apos;s unlikely we could get a spatial dataset of this (e.g., no-till versus regular plowing)</comment>
				<barchart active="true" width="198" height="126" />
			</node>
			<textbox>
				<caption>For soil carbon storage, Brown et al. (2010) use PRISM precip, SSURGO/STATSGO soil organic C, CaCO3, wind erodibility index data as inputs to CENTURY model.\n\nBrown, J., et al. 2010.  Improving estimates of rangeland carbon sequestration potential in the US southwest.  Rangeland Ecology and Management 63 (1): 147-154.\n\nMartens et al. 2005: Soil C positively correlated with clay content, precipitation, negatively correlated with temperature. But clay content was the strongest predictor.</caption>
				<font color="000000" name="Arial" size="10" />
				<position>1166 397 1471 621</position>
			</textbox>
			<textbox>
				<caption>Copyright 2011 The ARIES Consortium\n\nThis file is part of ARIES.\n\nARIES is free software: you can redistribute it and/or modify it under the terms of the GNU General Public License as published by the Free Software Foundation, either version 3 of the License, or (at your option) any later version.\n\nARIES is distributed in the hope that it will be useful, but WITHOUT ANY WARRANTY; without even the implied warranty of MERCHANTABILITY or FITNESS FOR A PARTICULAR PURPOSE.  See the GNU General Public License for more details.\n\nYou should have received a copy of the GNU General Public License along with ARIES.  If not, see &lt;http://www.gnu.org/licenses/&gt;.</caption>
				<font color="000000" name="Arial" size="10" />
				<position>983 122 1391 378</position>
			</textbox>
		</genie>
	</extensions>
</smile>
