<?xml version="1.0" encoding="ISO-8859-1"?>
<smile version="1.0" id="Network1" numsamples="1000" discsamples="10000">
	<nodes>
		<cpt id="SummerHighWinterLow">
			<state id="VeryHighSOL" />
			<state id="HighSOL" />
			<state id="ModerateSOL" />
			<state id="LowSOL" />
			<state id="VeryLowSOL" />
			<probabilities>0 0.01571164510166359 0.3049907578558225 0.6792975970425139 0</probabilities>
		</cpt>
		<cpt id="SuccessionalStage">
			<state id="OldGrowth" />
			<state id="LateSuccession" />
			<state id="MidSuccession" />
			<state id="PoleSuccession" />
			<state id="EarlySuccession" />
			<state id="NoSuccession" />
			<probabilities>0.02495378927911275 0.07208872458410351 0.145101663585952 0.07578558225508318 0.09704251386321626 0.5850277264325323</probabilities>
		</cpt>
		<cpt id="PercentTreeCanopyCoverClass">
			<state id="VeryHighCanopyCover" />
			<state id="HighCanopyCover" />
			<state id="ModerateCanopyCover" />
			<state id="LowCanopyCover" />
			<state id="VeryLowCanopyCover" />
			<probabilities>0.3696857670979667 0.09796672828096119 0.04251386321626617 0.05545286506469501 0.4343807763401109</probabilities>
		</cpt>
		<cpt id="HardwoodSoftwoodRatio">
			<state id="VeryHighHardness" />
			<state id="HighHardness" />
			<state id="ModerateHardness" />
			<state id="LowHardness" />
			<state id="VeryLowHardness" />
			<probabilities>0.2663080435869387 0.1274888813210733 0.1577582530958073 0.2076306431503004 0.2408141788458804</probabilities>
		</cpt>
		<cpt id="VegetationCarbonStorage">
			<state id="VeryHighVegetationStorage" />
			<state id="HighVegetationStorage" />
			<state id="ModerateVegetationStorage" />
			<state id="LowVegetationStorage" />
			<state id="VeryLowVegetationStorage" />
			<state id="NoVegetationStorage" />
			<parents>SuccessionalStage PercentTreeCanopyCoverClass HardwoodSoftwoodRatio</parents>
			<probabilities>0 0.6083039832939514 9.817163793046668e-005 0 0 0.3915978450681181 0 0.7960433126246149 0.001348280956967679 0 0 0.2026084064184174 0 0.9995927540925099 1.10086915918019e-005 0 0 0.0003962372158982711 0 4.326618870504451e-005 0.4298398913876214 0 0 0.5701168424236737 0.1644300629145263 0.3148632369907685 0.520706201200926 0 0 4.988937790224423e-007 0 0 0.1316790185728755 0 0 0.8683209814271244 0 0 0.007579871023057131 0 0 0.9924201289769429 0 0 0.184889436181143 0 0 0.8151105638188571 0 0.996967111219916 0.0003397421912471332 0 0 0.002693146588837026 0 0 0.8281099433771708 0 0 0.1718900566228293 0 0 0 0 0 1 0 0 0 0 0 1 0 0 0 0 0 1 0 0 0 0 0 1 0 0 0 0 0 1 0.3 0.3 0.3 0.1 0 0 0.2 0.3 0.3 0.2 0 0 0.1 0.3 0.3 0.3 0 0 0 0.4 0.3 0.3 0 0 0 0.3 0.4 0.3 0 0 0.3467263930900079 0.3958338658056085 0.2574397411043837 0 0 0 0.2422797142889006 0.7358255961493019 0.02189468956179746 0 0 0 1.78913992011122e-008 1.085090055681264e-008 0.9999999712577002 0 0 0 0.6213483679605145 0.1885766392053054 0.1900749928341801 0 0 0 0.3370320271779835 0.394379013649556 0.2685889591724606 0 0 0 0.3606074586588738 0.4863832764409247 0.007770340865782668 1.854041671482167e-017 5.836114624396619e-055 0.1452389240344188 0.4089170377918894 0.5146311845356282 0.00360977641392788 6.779637162948946e-018 5.138897873350869e-056 0.07284200125855446 0.1734674056036507 0.08870990400149136 0.7226692528096939 1.454399785938653e-017 5.656586941714929e-056 0.01515343758516409 3.454382243062803e-005 0.3015891248003325 0.4168802878555378 4.313409780975077e-020 1.244861223452908e-058 0.2814960435216991 7.795798682886509e-006 0.3008581168115921 0.1194536984915639 2.975100728793637e-022 4.011313151856688e-060 0.5796803888981611 0 0.929409221744411 0.06738810160201321 0 0 0.003202676653575783 0 0.6904669864638825 0.2905680616369479 0 0 0.01896495189916941 0 0.8812384497915479 0.1170358502193299 0 0 0.001725699989122339 0 3.177520716220454e-005 1.728714664682094e-006 0 0 0.9999664960781731 0 3.422302989754374e-010 0.6799536492081242 0 0 0.3200463504496455 0 0.03010916960194709 0 0 0 0.9698908303980529 0 0.1796552391308094 0 0 0 0.8203447608691906 0 0.03765277689063748 0 0 0 0.9623472231093625 0 0.3600207345674503 0 0 0 0.6399792654325496 0 0.9221722721295795 0 0 0 0.07782772787042049 0 0 0 1 0 0 0 0 0 1 0 0 0 0 0 1 0 0 0 0 0 1 0 0 0 0.9999999978419314 0 2.158068646602855e-009 0 0 0.05280153081364854 0.1186555471331597 0.4069008259038618 0 0 0.42164209614933 0.3725865841956184 0.2520407822894111 0.1906443853440708 0 0 0.1847282481708998 0.002406288061454922 0.001302285159680091 0.001434862219691247 0 0 0.9948565645591738 0.0005394394065262075 0.002042266989496905 0.9891122381260977 0 0 0.008306055477879173 2.827628254379372e-008 0.5028510052402907 0.1648826476786585 0 0 0.3322663188047683 0.0218951956525587 0.6602529675901339 0.001605091819822954 0.04998755293800294 8.717784686753676e-069 0.2662591919994816 0.07108338442643235 0.8023053994756908 4.675758226492258e-005 0.03259738191470708 7.080645318719199e-069 0.09396707660090484 1.763186407988531e-006 0.2290993602314789 0.3228498731284928 0.2202852388516673 4.704320814088796e-072 0.227763764601953 0.06559632159649247 0.1980222312943599 0.3422203392814159 0.1304048783271488 2.541717584759267e-078 0.2637562295005829 0.2072823350375296 0.2427074697411222 0.4113954556029889 1.392658896354243e-012 7.519872649143461e-079 0.1386147396169666 0 2.016925637020101e-010 0.944782602014699 0.02582810081087746 0 0.0293892969727311 0 3.063230994478341e-013 0.9998777250011843 9.700998976611616e-005 0 2.526500874331538e-005 0 0.1977742489264117 0.2715004370837332 3.156125632219778e-008 0 0.5307252824285987 0 0.5626203382525397 0.3010902619841208 0.05650469329436664 0 0.07978470646897282 0 0.4980999143339089 9.297571726971718e-007 0.2557921035916604 0 0.2461070523172579 0 0 0 0 0 1 0 0 0 0 0 1 0 0 0 0 0 1 0 0 0.3119470989661453 0 0 0.6880529010338548 0.3333333333333333 0 0.6666666666666665 0 0 2.616162629160221e-016 0 0 0.5734588048408702 0.4265411951229503 0 3.617938873663901e-011 0 0 0.5097920022282581 0 0 0.4902079977717419 0 0 0.4999834873940441 0 0 0.5000165126059558 0 0 3.037528087480044e-009 0 0 0.9999999969624719 0 0 0.6091089624183345 0 0 0.3908910375816656 0.08107464172026256 0.01279228610478642 0.4586817917304725 0.1593396645782758 0 0.2881116158662027 0.05276324775204862 0.008169762608418195 0.8462801810655394 0.0495466955349631 0 0.04324011303903074 0.01202840275471932 0.9551962544652751 2.808778731153044e-006 0.03098229102441912 0 0.001790242976855412 1.550498948422272e-007 0.1932674790008298 0.1585288997516877 4.892788542360793e-007 0 0.6482029769187336 0.09656417948488169 0.2685553116545934 0.1602184519116709 7.846646891842059e-010 0 0.4746620561641893 0.248224006290367 0.3423518056874754 0.001398153346074982 0.1478573094627929 0 0.2601687252132898 0.04376244539414106 0.4649007309936205 0.2698386241827078 0.07687922455670775 0 0.1446189748728229 4.729300111593779e-009 4.021467620960429e-008 0.6004911697647868 7.32212978212888e-009 0 0.3995087779691071 2.741301529193391e-011 0.2221560303385598 0.5558356726335398 1.088210747576675e-010 0 0.2220082968916662 0.2221539612240672 0.2222285755193416 0.2779194842173119 0.05554786952673425 0 0.222150109512545 0 0 1 0 0 0 0 0 1 0 0 0 0 0 0.6862950262539981 0 0 0.3137049737460019 0 0.3195031482602522 0.3609937034794956 0 0 0.3195031482602522 0 0.999999999999997 2.922395083445092e-015 0 0 0 0 0 0 0 0 1 0 0 0 0 0 1 0 0 0.9999999992641508 0 0 7.358491909788103e-010 0 0 0 0 0 1 0 0 0.9999999436455539 0 0 5.635444618083999e-008 0 0 0.2 0.65 0.15 0 0 0 0.1 0.65 0.25 0 0 0 0 0 0 1 0 0 0.1 0.5 0.4 0 0 0 0 0 0 1 0 0 0.7812662663409393 0 0 0.2187337336590606 0 0 0.9585243256460839 0 0 0.04147567435391608 0 0.2238975636049616 0.5177200794919957 0 0 0.2583823569030426 0.1067616932943357 0.1067616932943357 0.1166417660173982 0.3202850798830073 0 0.3495497675109231 0 0.2728555832051891 0.3643341087219844 0 0 0.3628103080728266 0 0 0.4660953547255469 0.2682264286923058 0 0.2656782165821472 0 0 0.9140747901961823 0.02430449148600422 0 0.0616207183178135 0.06740871148558326 0.259436670176267 0.3912925251999843 0.07851372297339786 0.06143617621546724 0.1419121939493002 0.04401882928169591 0.1320564878450877 0.3961694635352632 0.04751829125325844 0 0.3802369280846948 0.05063280344961628 0.2521477129541884 0.3052944986405437 0.1126021835025194 2.99851218828911e-065 0.2793228014531323 0.2598784994452901 0 0.7401215005547098 0 0 0 1 0 0 0 0 0 4.612373883226845e-010 0 0 0 0 0.9999999995387626 1.956672068729184e-006 0 0.9999980433279313 0 0 0 1.933057090139119e-005 0.4999903347145492 0.4999903347145492 0 0 0 0 0 0 0.5 0.5 0 0 0 0 0.4 0.6 0 0 0 1 0 0 0 0 0 0.3333333333333333 0 0 0.6666666666666666 0 0 0 0.1 0.9 0 0 0 0 0 0 1 0 0 0 0.3 0.7 0 0 0 0 0.2 0.8 0 0 0.5 0 0 0 0.5 0 0 0 0.05 0.95 0 0 0 0 0 0 1 0 0 0 0 0 1 0 0.2694004752664616 0.4490007921107693 0 0 0.2815987326227692 0 0.09868180264568589 0.5920908158741154 0.09868180264568589 0 0.2105455788345129 0 0 0 0.283526299906306 0 0.716473700093694 0.05591015047389229 0.07800171761273232 0.3948760417693004 0.1175801978515974 0 0.3536318922924776 0.09402661902013604 0.1058563817414154 0.1869287322730672 0.1147152280728542 0 0.4984730388925271 0.1131314117644159 0.1507534841024352 0.3540310080787629 3.631255224142852e-008 0 0.3820840597418337 0 0.2378075421209962 0.5736526141910412 0.0035187254394066 0 0.1850211182485561 0 1.994556351972845e-005 0.0729066951257724 0.08206225073393467 0 0.8450111085767732 0.04389290606656041 0.1331153340682407 0.2057113583892486 0.1144296102455703 1.041290511874797e-019 0.5028507912303799 0 0.1142429296586226 0.2042042136144134 0.4970827064372156 0 0.1844701502897485 0 0 0.00459170185671561 3.34241591568876e-006 0 0.9954049557273687 0 0 0.5977936826676364 1.297500304945073e-005 0 0.4021933423293141 0 0 0.1066062733691154 2.039243933733893e-006 0 0.8933916873869509 0 0.1988563204375908 0.1975471869293728 1.818260895896846e-006 0 0.6035946743721404 0 0 2.662327551663196e-006 0.4993892690215548 0 0.5006080686508934 0 0 0.9997020051414647 0.000104322212468673 0 0.0001936726460666276 0 0 0.2403117616358446 0.2690936604347084 0 0.490594577929447 0 0 0.02089930305064842 0.3752985921062321 0 0.6038021048431194 0 0 0.6852629768028267 0 0 0.3147370231971734 0 0 0.2248010296095896 0 0 0.7751989703904103 0 0 0.01262291459785165 0 0 0.9873770854021484 0 0 0.0127153235805858 0 0 0.9872846764194142 0 0 0.7308270775354293 0 0 0.2691729224645706 0.008573380965533336 0.1246361562486477 0.2230348915917622 0.1208535583605231 0 0.5229020128335337 0.01697281739742535 0.05312430372748184 0.1630303143378789 0.06493138008678941 0 0.7019411844504245 0 0.1267336046852885 0.2482095939628206 5.114598850360522e-005 0 0.6250056553633872 0 1.385897052132381e-006 0.17083890653013 1.186075996996231e-005 0 0.8291478468128478 0 1.246966851331941e-005 0.07822366892031091 0.001062584241712639 0 0.9207012771694632</probabilities>
			<property id="VegetationInfluence">VegetationInfluence=((ObservedCanopyCover/100)/3)+((ObservedSuccessionalStage/MaxSuccessionalStage)/3)+((ObservedSoftwoodPercent/100)/3)</property>
		</cpt>
		<cpt id="SoilCNRatio">
			<state id="VeryHighCNRatio" />
			<state id="HighCNRatio" />
			<state id="LowCNRatio" />
			<state id="VeryLowCNRatio" />
			<probabilities>8.427106993062062e-019 1 2.132009333369969e-018 3.428719483879554e-019</probabilities>
			<property id="SoilInfluence">SoilInfluence=((ObservedSoilTexture/MaxSoilTexture)/2)+((ObservedSoilDepth/MaxSoilDepth)/2)</property>
		</cpt>
		<cpt id="SequestrationRate">
			<state id="VeryHighSequestrationRate" />
			<state id="HighSequestrationRate" />
			<state id="ModerateSequestrationRate" />
			<state id="LowSequestrationRate" />
			<state id="VeryLowSequestrationRate" />
			<state id="NoSequestrationRate" />
			<parents>SummerHighWinterLow SoilCNRatio</parents>
			<probabilities>0.15 0.3 0.5 0.05 0 0 0.05 0.3 0.3 0.3 0.05 0 0 0 0.25 0.5 0.25 0 0 0 0.1 0.45 0.45 0 0.3 0.4 0.2 0.1 0 0 0.8859072822545043 2.113720777240797e-005 0.0008178533129766933 5.402144849674325e-005 0.07938113545901704 0.03381857031723266 0 0.1 0.4 0.4 0.1 0 0 0 0.2 0.6 0.2 0 0.5 0.3 0.1 0.1 0 0 0.21927899780579 0.08152805990280207 0.149382504199225 0.026816579326984 0.4333472342386035 0.0896466245265954 0 0.2 0.35 0.35 0.1 0 0 0 0.3 0.5 0.2 0 0.03998711843691553 0.5481038844974914 0.1496849302476534 0.1086717466914727 0.03212772476003392 0.1214245953664332 0.05706423582025669 0.2939398079674899 0.1148189859458083 0.3023298735735204 0.07707306427893666 0.154774032413988 0.007726856002904137 0.5844665919473949 0.09756021088246532 0.2327014791642891 0.04367641950580255 0.03386844249714398 0.006150634567513199 0.6104072719755368 0.05586005829242736 0.1835764964227124 0.001214912630848225 0.1427906261109621 0.8 0.2 0 0 0 0 0.5 0.4 0.1 0 0 0 0.1 0.4 0.4 0.1 0 0 0 0.1 0.4 0.4 0.1 0</probabilities>
		</cpt>
		<cpt id="VegetationAndSoilCarbonSequestration">
			<state id="VeryHighSequestration" />
			<state id="HighSequestration" />
			<state id="ModerateSequestration" />
			<state id="LowSequestration" />
			<state id="VeryLowSequestration" />
			<state id="NoSequestration" />
			<parents>SequestrationRate VegetationCarbonStorage</parents>
			<probabilities>0 0.2607629911423329 0.724798450567759 0.01443855828990808 0 0 1.374688454777713e-010 0.1172848302129292 0.83547589589946 0.0472392737501419 5.092416617884582e-027 2.464589725484494e-027 0.01090369412459484 0.0639349067669515 0.9078592754798192 0.01730212362863442 5.317761128306132e-018 3.193876513428445e-018 0.01388237153945223 0.3519969516317544 0.634095837938341 2.483889045247106e-005 9.025138732298023e-035 1.67613981481158e-033 0 7.02551441795923e-008 0.9999999297448557 0 0 0 0.03118100833827501 0.0363032889377961 0.9164047766942898 0.01611002448049526 9.01546574883974e-007 2.569060827958472e-012 0 0.5200515799209846 0.4797877231898367 0.0001606968891788881 0 0 4.602053851866289e-005 0.401353078013842 0.5815937797605923 0.01700712168704709 5.069094780083536e-021 5.457388895641157e-021 0.05970702600028752 0.7203531873223624 0.2043477991480908 0.01559198752917546 4.598993263860271e-014 3.766324648709338e-014 0.06775529564297661 0.6485435960506812 0.2790997749823227 0.004601333324019425 8.182482355565537e-031 4.855016797091223e-030 0 9.267453647915198e-016 0.999999999999999 0 0 0 0.0143494078928128 0.7918109308285367 0.1612524745471315 0.006319335224758153 0.02626785049814504 1.008615822731413e-009 0 0.3981658960436355 0.5409484866864966 0.06088561726986785 0 0 2.543681953262307e-007 0.06841692215283778 0.9010031738926221 0.03057964958634485 3.503445457010052e-024 1.40664443784225e-024 0.06672683641611764 0.5444588568909168 0.3382540796747233 0.05056022701823863 1.276197885476008e-015 2.22330522535395e-015 0.1210758156354722 0.7068009516242255 0.1682169427954102 0.003906289944892121 3.732091237666745e-031 1.605932831842707e-032 0 6.688823965279893e-009 0.9999999933111761 0 0 0 0.04108810392260826 0.3650265269693099 0.4280012962865485 0.1650546562756599 0.0008294163228453651 2.230280601243831e-010 0 0.5853646880668049 0.4146353106096663 1.323528692710824e-009 0 0 0.04504935728896087 0.8351319065224353 0.08657036881292377 0.03324836737568008 9.698795218045966e-019 5.748942356345572e-019 0.01753473904372019 0.9337834122934298 0.04167668439054305 0.00700516427194466 2.377741859013488e-013 1.245583162683124e-013 0.03682626960981398 0.3371540024636008 0.5184205821929732 0.1075991457336121 1.147713056361231e-028 3.026727811927164e-029 0 2.411392283253807e-023 1 0 0 0 0.02693261148871104 0.4637501171858608 0.3353138125395331 0.1649788076259894 0.009024613528227962 3.763167776568228e-008 0 0.1955595446696493 0.693167876729111 0.1112725786012398 0 0 1.320506489528393e-012 0.10620756512961 0.8256399553657431 0.06815247950332641 1.48073620435384e-029 2.322158946368685e-028 0.06803141555385056 0.05238096163570916 0.855374822141679 0.0242128006687612 1.225378548845957e-018 1.138266040213701e-018 0.1266564833172654 0.4425971559474053 0.43068650306652 5.985766880915948e-005 2.645170261636885e-033 4.672545331949897e-033 0 0.003232033328390221 0.9967679666716098 0 0 0 0.2990628477033864 0.06919607303025768 0.5349351147982072 0.09680402748459854 1.936982864065819e-006 6.860236897493666e-013 0 0.8704522515173285 0.1287136807666811 0.0008340677159902751 0 0 1.189691523226031e-005 0.6973274684139348 0.2818257884390796 0.02083484623175343 3.750264535003475e-022 7.174534032311361e-022 0.08592334962365973 0.1900996276914808 0.6235597423644361 0.1004172803203833 1.217844805588064e-014 2.784360676050233e-014 0.01906129147688389 0.9085445625867229 0.05990865536657864 0.01248549056981452 3.370242604159995e-030 4.079439365168514e-030 0 1.250428011758163e-013 0.999999999999875 0 0 0 0.03594550507021751 0.445039402516768 0.4388408294918068 0.07525043081702371 0.004923830146933225 1.957250927734099e-009</probabilities>
			<property id="CarbonSequestration">CarbonSequestration=VegetationCarbonSequestration+SoilCarbonSequestration</property>
		</cpt>
	</nodes>
	<extensions>
		<genie version="1.0" app="GeNIe 2.0.3887.0" name="Network1" faultnameformat="nodestate">
			<node id="SummerHighWinterLow">
				<name>SummerHighWinterLow</name>
				<interior color="ffffff" />
				<outline color="000080" />
				<font color="000000" name="Arial" size="8" />
				<position>240 401 376 436</position>
				<comment>The difference between summer high temperature and winter low temperature is also an important climatic predictor of NPP (Auch 2009; Rosenzweig 1968 noted the same for AET).\n\nMEAN TEMPERATURE OF WARMEST MONTH - MEAN TEMPERATURE OF COLDEST MONTH (e.g. Jul/Aug - Jan)\n\nClimate variables have also been aggregated as Weck&apos;s Climatic Index (Iverson et al. 1994).  We have some, but not all, of these data:\n\nWCI = dT(S)(P1 + SQRT(P2))(G)(H)/(100*Tm)\n\nWhere:\ndT (degrees C) = diurnal difference between average min and max temperature during warmest month of the growing season (dT is removed in the tropics, where high max temperature can lead to water stress) (HAVE)\nS (h) = mean daylight length during growing season\nP1 (dm) = avg. annual precipitation up to 20 dm (HAVE)\nP2 (dm) = avg. annual precipitation exceeding 20 dm (HAVE)\nG (months) = duration of growing season (HAVE growing degree days)\nH = avg. annual relative humidity (HAVE)\nTm (degrees C) = mean annual temperature of warmest month of the growing season (HAVE)</comment>
				<barchart active="true" />
			</node>
			<node id="SuccessionalStage">
				<name>SuccessionalStage</name>
				<interior color="ffffff" />
				<outline color="000080" />
				<font color="000000" name="Arial" size="8" />
				<position>1050 409 1175 439</position>
				<barchart active="true" />
			</node>
			<node id="PercentTreeCanopyCoverClass">
				<name>PercentTreeCanopyCoverClass</name>
				<interior color="ffffff" />
				<outline color="000080" />
				<font color="000000" name="Arial" size="8" />
				<position>779 402 886 432</position>
				<barchart active="true" />
			</node>
			<node id="HardwoodSoftwoodRatio">
				<name>HardwoodSoftwoodRatio</name>
				<interior color="ffffff" />
				<outline color="000080" />
				<font color="000000" name="Arial" size="8" />
				<position>470 404 628 432</position>
				<barchart active="true" />
			</node>
			<node id="VegetationCarbonStorage">
				<name>VegetationCarbonStorage</name>
				<interior color="ffffff" />
				<outline color="000080" />
				<font color="000000" name="Arial" size="8" />
				<position>595 253 717 282</position>
				<comment>Use DBHs from IVMP data as values for successional stage - 2.5, 7.5, 15, 25, 45 for early, pole, mid, late, and old growth successional stages respectively.</comment>
				<barchart active="true" />
			</node>
			<node id="SoilCNRatio">
				<name>SoilCNRatio</name>
				<interior color="ffffff" />
				<outline color="000080" />
				<font color="000000" name="Arial" size="8" />
				<position>69 395 156 427</position>
				<barchart active="true" />
			</node>
			<node id="SequestrationRate">
				<name>SequestrationRate</name>
				<interior color="ffffff" />
				<outline color="000080" />
				<font color="000000" name="Arial" size="8" />
				<position>238 252 353 283</position>
				<comment>Type your annotation here</comment>
				<barchart active="true" />
			</node>
			<node id="VegetationAndSoilCarbonSequestration">
				<name>VegetationAndSoilCarbonSequestration</name>
				<interior color="ffffff" />
				<outline color="000080" />
				<font color="000000" name="Arial" size="8" />
				<position>360 95 692 121</position>
				<comment>VegetationAndSoilCarbonSequetration = VegetationDensity*SequestrationRate\n\n(Ideally; since we&apos;re unlikely to get numbers for either of these variables we are including probabilities instead.)</comment>
				<barchart active="true" />
			</node>
			<textbox>
				<caption>Copyright 2011 The ARIES Consortium\n\nThis file is part of ARIES.\n\nARIES is free software: you can redistribute it and/or modify it under the terms of the GNU General Public License as published by the Free Software Foundation, either version 3 of the License, or (at your option) any later version.\n\nARIES is distributed in the hope that it will be useful, but WITHOUT ANY WARRANTY; without even the implied warranty of MERCHANTABILITY or FITNESS FOR A PARTICULAR PURPOSE.  See the GNU General Public License for more details.\n\nYou should have received a copy of the GNU General Public License along with ARIES.  If not, see &lt;http://www.gnu.org/licenses/&gt;.</caption>
				<font color="000000" name="Arial" size="10" />
				<position>857 59 1265 315</position>
			</textbox>
		</genie>
	</extensions>
</smile>
