<?xml version="1.0" encoding="ISO-8859-1"?>
<smile version="1.0" id="Network1" numsamples="1000" discsamples="10000">
	<nodes>
		<cpt id="AnnualPrecipitationClass">
			<state id="HighMeanAnnualPrecipitation" />
			<state id="ModerateMeanAnnualPrecipitation" />
			<state id="LowMeanAnnualPrecipitation" />
			<probabilities>0.1068646185506394 0.3185359400264589 0.5745994414229017</probabilities>
		</cpt>
		<cpt id="PercentTreeCanopyCoverClass">
			<state id="VeryHighCanopyCover" />
			<state id="HighCanopyCover" />
			<state id="ModerateCanopyCover" />
			<state id="LowCanopyCover" />
			<state id="VeryLowCanopyCover" />
			<probabilities>0.0148639092322718 0.0291284174033997 0.04368691279762162 0.04090193827131634 0.8714188222953905</probabilities>
		</cpt>
		<cpt id="CarbonVegetationType">
			<state id="Forest" />
			<state id="OakWoodland" />
			<state id="MesquiteWoodland" />
			<state id="Grassland" />
			<state id="DesertScrub" />
			<state id="Riparian" />
			<state id="UrbanBarrenWaterAgriculture" />
			<probabilities>0.1312383802518956 0.0181069589003603 0.251064740293358 0.1903119783826092 0.3640949022247934 0.01368859034906247 0.031494449597921</probabilities>
		</cpt>
		<cpt id="VegetationAndSoilCarbonSequestration">
			<state id="VeryHighSequestration" />
			<state id="HighSequestration" />
			<state id="ModerateSequestration" />
			<state id="LowSequestration" />
			<state id="VeryLowSequestration" />
			<state id="NoSequestration" />
			<parents>CarbonVegetationType PercentTreeCanopyCoverClass AnnualPrecipitationClass</parents>
			<probabilities>0.3214285714285715 0.3214285714285715 0.1071428571428571 0.1607142857142857 0.08928571428571429 0 0.8333333333333334 0.1666666666666667 0 0 0 0 0.35 0.3 0.35 0 0 0 0.5657894736842105 0.2763157894736842 0.1315789473684211 0 0.02631578947368421 0 0.5555555555555556 0.2962962962962963 0.1481481481481481 0 0 0 1 0 0 0 0 0 0.5324675324675324 0.2727272727272727 0.1298701298701299 0.05194805194805195 0.01298701298701299 0 0.4285714285714286 0.4693877551020408 0.08163265306122448 0.02040816326530612 0 0 0 1 0 0 0 0 0.325 0.475 0.075 0.1 0.025 0 0.3863636363636364 0.5909090909090909 0.02272727272727273 0 0 0 0 1 0 0 0 0 0.5030365570469598 0.3781909225391746 0.06287956963086998 0.0489063319351211 0.006986618847874442 0 0.1934390227135221 0.7564101195459352 0.03582204124324483 0.01432881649729793 0 0 0 0.7449544480765225 0.220111071520935 0.03493448040254253 0 0 0.3157894736842105 0.3157894736842105 0.05263157894736842 0.1052631578947368 0.2105263157894737 0 1 0 0 0 0 0 0.05 0.15 0.35 0.35 0.1 0 0.44 0.48 0.04 0 0.04 0 1 0 0 0 0 0 0.05 0.1 0.35 0.35 0.15 0 0.5714285714285714 0.3333333333333333 0.09523809523809523 0 0 0 0.6 0.4 0 0 0 0 0.05 0.05 0.35 0.4 0.15 0 0.6666666666666666 0.1666666666666667 0 0 0.1666666666666667 0 0.5 0.5 0 0 0 0 0.05 0.05 0.25 0.45 0.2 0 0.6993303820279191 0.2007652776823781 0 0 0.09990434028970273 0 0.6466721935601444 0.3533278064398556 0 0 0 0 0 0.01463064396938787 0.9006449953281729 0.08472436070243918 0 0 0 0.1 0.25 0.4 0.2 0.05 0 0.05 0.25 0.4 0.2 0.1 0 0 1 0 0 0 0 0.05 0.25 0.4 0.25 0.05 0.6666666666666666 0.3333333333333333 0 0 0 0 0 0.499967214336654 6.557132669198244e-005 0.499967214336654 0 0 0.5 0.5 0 0 0 0 0.04 0.84 0.08 0.04 0 0 0 0.9999979787487158 2.021251284202858e-006 0 0 0 0 1 0 0 0 0 0.03508771929824561 0.9298245614035088 0 0.03508771929824561 0 0 0 0.7995053980544641 0.1605193320428127 0.0399752699027232 0 0 0.1092209329925137 0.2354534690524043 0.4368837319700547 0.2184418659850274 0 0 0.005833518542024439 0.6752674678273062 0.260563828210425 0.05055716069754514 0.007778024722699253 0 0 0.4524050181922282 0.4625606189723414 0.08409231539832811 0.000942047437102315 0 1 0 0 0 0 0 0 0 0 0.15 0.2 0.65 0 0.3946987093878225 0.04774966624178828 0.5575516243703893 0 0 0.75 0.25 0 0 0 0 0.25 0.25 0.25 0.25 0 0 0 0.2222091907647495 0.1138162455544705 0.66397456368078 0 0 1 0 0 0 0 0 0.2941176470588235 0.6470588235294118 0 0.05882352941176471 0 0 0 0.9993515843325245 2.001156982773294e-005 0.0006284040976477921 0 0 0.5 0.5 0 0 0 0 0.05555555555555555 0.7222222222222222 0.1111111111111111 0.1111111111111111 0 0 0 0.6209666312681778 5.010285036760851e-006 0.3790283584467855 0 0 0.2253642999090487 0.4929303252046403 0.1126821499545244 0.1502428666060325 0.01878035832575406 0 0.04579995804929395 0.5931886079150951 0.2370821357845804 0.1185410678922902 0.005388230358740464 0 0.001239804535854143 0.4014141642900385 0.4907587283041874 0.1041076937982118 0.002479609071708286 0 0.1 0.2 0.3 0.2 0.2 0 1 0 0 0 0 0 0 0 0 0 0.1 0.9 0.6111111111111112 0.2222222222222222 0.1111111111111111 0 0.05555555555555555 0 0.5789473684210527 0.4210526315789474 0 0 0 0 0 0.5 0 0.5 0 0 0.5 0.3461538461538462 0.1538461538461539 0 0 0 0.2571428571428571 0.6857142857142857 0.02857142857142857 0.02857142857142857 0 0 0 0.8333333333333334 0.1666666666666667 0 0 0 0.5 0.25 0.125 0.125 0 0 0.1333333333333333 0.7666666666666667 0.06666666666666667 0.03333333333333333 0 0 0 0.8095238095238095 0.04761904761904762 0.1428571428571429 0 0 0.251955339163354 0.3953071860079505 0.2645531061215217 0.07558660174900619 0.0125977669581677 0 0.03390791993697859 0.5895357060260487 0.3087405341630156 0.06067733041354064 0.007138509460416546 0 0.002409323010471176 0.4652112502271199 0.4568848814860844 0.0736875530184711 0.001806992257853382 0 0.35 0.3 0.25 0.1 0 0 0.35 0.3 0.25 0.1 0 0 0 1 0 0 0 0 1 0 0 0 0 0 0.3 0.3 0.3 0.1 0 0 0.25 0.3 0.3 0.15 0 0 0.25 0.325 0.325 0.1 0 0 0.25 0.325 0.325 0.1 0 0 0 1 0 0 0 0 0.2 0.35 0.35 0.1 0 0 0.2 0.35 0.35 0.1 0 0 0 0.8 0.2 0 0 0 0 1 0 0 0 0 0 0.6365923632862671 0.3634076367137329 0 0 0 0 0.6285746079486211 0.177568838310017 0.193856553741362 0 0 0.3333333333333333 0 0 0.6666666666666666 0 0 0 0 0 0 0.15 0.85 0 0 0 0 0.15 0.85 0.625 0.25 0.125 0 0 0 0 0 0 0 0.1 0.9 0 0 0 0 0.1 0.9 0.6666666666666666 0.3333333333333333 0 0 0 0 0 1 0 0 0 0 0 0.5 0.5 0 0 0 0.5 0.5 0 0 0 0 0 1 0 0 0 0 0 0 0 0 0.05 0.95 0.1870138600858519 0.5012963731043949 0.1870138600858519 0.1246759067239013 0 0 0.02700628318049295 0.5678994691121128 0.1620376990829577 0.2430565486244365 0 0 0.02170975482403933 0.463360785416661 0.3915955321473463 0.1088607577292605 0.01447316988269289 0</probabilities>
			<property id="CarbonSequestration">CarbonSequestration=VegetationCarbonSequestration+SoilCarbonSequestration</property>
		</cpt>
	</nodes>
	<extensions>
		<genie version="1.0" app="GeNIe 2.0.3887.0" name="Network1" faultnameformat="nodestate">
			<node id="AnnualPrecipitationClass">
				<name>AnnualPrecipitationClass</name>
				<interior color="ffffff" />
				<outline color="000080" />
				<font color="000000" name="Arial" size="8" />
				<position>739 341 875 376</position>
				<comment>Sequestration very low at low precip, unless vegetation cover is high (indicating a riparian area, where surface and groundwater availability will make sequestration potentially quite high).</comment>
				<barchart active="true" width="356" height="72" />
			</node>
			<node id="PercentTreeCanopyCoverClass">
				<name>PercentTreeCanopyCoverClass</name>
				<interior color="ffffff" />
				<outline color="000080" />
				<font color="000000" name="Arial" size="8" />
				<position>394 355 501 385</position>
				<barchart active="true" width="244" height="108" />
			</node>
			<node id="CarbonVegetationType">
				<name>CarbonVegetationType</name>
				<interior color="ffffff" />
				<outline color="000080" />
				<font color="000000" name="Arial" size="8" />
				<position>117 374 212 404</position>
				<barchart active="true" width="201" height="144" />
			</node>
			<node id="VegetationAndSoilCarbonSequestration">
				<name>VegetationAndSoilCarbonSequestration</name>
				<interior color="ffffff" />
				<outline color="000080" />
				<font color="000000" name="Arial" size="8" />
				<position>273 199 605 225</position>
				<comment>VegetationAndSoilCarbonSequetration = VegetationDensity*SequestrationRate\n\n(Ideally; since we&apos;re unlikely to get numbers for either of these variables we are including probabilities instead.)</comment>
				<barchart active="true" width="248" height="126" />
			</node>
			<textbox>
				<caption>Copyright 2011 The ARIES Consortium\n\nThis file is part of ARIES.\n\nARIES is free software: you can redistribute it and/or modify it under the terms of the GNU General Public License as published by the Free Software Foundation, either version 3 of the License, or (at your option) any later version.\n\nARIES is distributed in the hope that it will be useful, but WITHOUT ANY WARRANTY; without even the implied warranty of MERCHANTABILITY or FITNESS FOR A PARTICULAR PURPOSE.  See the GNU General Public License for more details.\n\nYou should have received a copy of the GNU General Public License along with ARIES.  If not, see &lt;http://www.gnu.org/licenses/&gt;.</caption>
				<font color="000000" name="Arial" size="10" />
				<position>790 29 1198 285</position>
			</textbox>
		</genie>
	</extensions>
</smile>
