<?xml version="1.0" encoding="ISO-8859-1"?>
<smile version="1.0" id="Network1" numsamples="1000" discsamples="10000">
	<nodes>
		<cpt id="SummerHighWinterLow">
			<state id="VeryHighSOL" />
			<state id="HighSOL" />
			<state id="ModerateSOL" />
			<state id="LowSOL" />
			<state id="VeryLowSOL" />
			<probabilities>0 0.01399662119202892 0.3116950353321586 0.6743083434758125 0</probabilities>
		</cpt>
		<cpt id="SuccessionalStage">
			<state id="OldGrowth" />
			<state id="LateSuccession" />
			<state id="MidSuccession" />
			<state id="PoleSuccession" />
			<state id="EarlySuccession" />
			<state id="NoSuccession" />
			<probabilities>0.02198124630323498 0.06650692988363458 0.1427485570279926 0.08574930605767091 0.1035779159796225 0.5794360447478445</probabilities>
		</cpt>
		<cpt id="PercentTreeCanopyCoverClass">
			<state id="VeryHighCanopyCover" />
			<state id="HighCanopyCover" />
			<state id="ModerateCanopyCover" />
			<state id="LowCanopyCover" />
			<state id="VeryLowCanopyCover" />
			<probabilities>0.3741452458115733 0.09264647379204354 0.04039207565819514 0.05432552207422461 0.4384906826639635</probabilities>
		</cpt>
		<cpt id="HardwoodSoftwoodRatio">
			<state id="VeryHighHardness" />
			<state id="HighHardness" />
			<state id="ModerateHardness" />
			<state id="LowHardness" />
			<state id="VeryLowHardness" />
			<probabilities>0.2557737932191536 0.1487745576838992 0.1720071968875749 0.1942237265007108 0.2292207257086616</probabilities>
		</cpt>
		<cpt id="VegetationCarbonStorage">
			<state id="VeryHighVegetationStorage" />
			<state id="HighVegetationStorage" />
			<state id="ModerateVegetationStorage" />
			<state id="LowVegetationStorage" />
			<state id="VeryLowVegetationStorage" />
			<state id="NoVegetationStorage" />
			<parents>SuccessionalStage PercentTreeCanopyCoverClass HardwoodSoftwoodRatio</parents>
			<probabilities>0.3320412833963513 0.4388890344396209 0.177068405172242 0.02528859936501083 1.99987522397432e-016 0.02671267762677496 0.1527239030100185 0.3415579584396695 0.3354985825839372 0.000700259732521706 1.826910815026203e-016 0.1695192962338531 0.07083544622582867 0.4779778542606119 0.3186780426696556 0.04464844394273405 4.046233013837325e-017 0.08786021290117003 0.1594877268098646 0.4454185162552958 0.2375221591356652 0.02537698110752707 2.607228456476667e-017 0.1321946166916473 0.1935456513037056 0.3491933782419045 0.2904747145979041 0.03721085372207702 1.916396472926523e-015 0.1295754021344069 0.1509422246789564 0.3235114280235609 0.2939733356057511 0.03013938558646517 0 0.2014336261052665 0.01711362096849291 0.06295214753560938 0.5609369867340945 0.1788873921803855 0 0.1801098525814177 7.274048687024946e-005 0.2403267997619633 0.4326843110692523 0.1680384524760084 0 0.1588776962059058 1.465424047212511e-005 0.1953343382225274 0.4708010907946604 0.04897946143168905 0 0.284870455310651 0.02979493651495252 0.1685666787907482 0.4743841098174716 0.06754809705478579 0 0.2597061778220419 0.1728823435350906 0.2133314956160284 0.3439723839146558 0.04490525695315163 0 0.2249085199810736 0.1707170143021098 0.0004883037454619023 0.2335706291627618 0.3032747515984364 0 0.2919493011912301 0.003285815816691159 0.4515792003119657 0.5418469958584725 0.002691603785769903 0 0.0005963842271006447 0.02636102558126294 0.229045868705911 0.6391933204121841 0.05913027296033013 0 0.04626951234031171 3.437355070986331e-005 1.779142139676545e-008 0.3888755055325822 0.1046112875333116 0 0.5064788155919749 0 0.3338219749296739 0.6618759918282992 0.0007126940368276478 0 0.00358933920519925 0 0.01109216200209504 0.001793177177575819 1.38159002757342e-005 0 0.9871008449200535 0 0.2384888381406271 0.02038583251485551 0.0001309151056951734 0 0.7409944142388223 0 0.0008108673436964197 0.5336091006025008 0.2293573366748142 0 0.2362226953789886 0 1.054578195240138e-005 0.6806220142341191 1.243372554070072e-009 0 0.3193674387405558 0.004100751758150356 0.01557643923963622 0.2121136033519677 0.00593772069204509 2.001052442031953e-031 0.7622714849582005 0.03141628951863668 0.1902457964714631 0.1469543841571151 0.1158369987450076 2.270067886370218e-031 0.5155465311077775 0.0003374837234062157 0.03787633936963392 0.2316702432561905 0.06628212610139503 9.440408285956045e-026 0.6638338075493743 9.638747229013379e-006 0.0216568650892615 0.1793719936982643 0.01988880105560619 2.615413401721783e-034 0.7790727014096389 1.591282983767067e-008 0.04933843797915739 0.1223347865754293 0.046914422808738 1.477371502037846e-029 0.7814123367238455 0.2612895637387682 0.4944751220090271 0.1515600571683572 0.0260819303897743 8.067033636251422e-018 0.06659332669407318 0.245560253054212 0.4047805890599026 0.2520351025300052 0.03637343622295486 3.482498434177093e-018 0.06125061913292539 0.1177165627564352 0.3772564805484734 0.318771040416261 0.05546954442718174 4.380321976166423e-018 0.1307863718516487 0.1745416514534399 0.3658785456957725 0.3286788126432415 0.03716641283825774 3.276360126775162e-019 0.09373457736928845 0.1913143113746599 0.4094421026578056 0.2776856159455962 0.02976610730519629 0.0006248264134279745 0.09116703630331396 0.08843935536991177 0.08118024711274627 0.6422458374966031 0.04913118276277249 1.789166166786465e-027 0.1390033772579663 0.03740038682796989 0.3959777619747862 0.279582869774052 0.1516454298001922 5.315342553314567e-028 0.1353935516229997 0.05058454141633473 0.19272578165827 0.3348670570348784 0.1417511047278876 3.866621351533006e-029 0.2800715151626293 0.01517984655647179 0.2345882762067386 0.3530026803872535 0.072462266254229 2.016146396567659e-031 0.324766930595307 0.03698581128259271 0.2242225813135648 0.3680773771692755 0.1033885242254178 0.004344594580652657 0.2629811114284965 0.03111376460111354 0.2946072773101617 0.381931867429986 0.09852900677157894 9.035823805673385e-028 0.1938180838871599 0.07003952634234845 0.1404007441732928 0.2295023526493585 0.1767759001419499 3.989894307445472e-028 0.3832814766930504 0.005969786470549925 0.1214697684184382 0.1768893987090059 0.2568136341724537 1.383283411049585e-028 0.4388574122295524 0.0452956556232569 0.21075656753165 0.2095318193521477 0.07904576018737136 5.216788751210036e-031 0.4553701973055742 0.0210188658485642 0.137807644252957 0.4347454887976394 0.120850831843649 1.758538152096931e-032 0.2855771692571902 0.06563227510993216 6.976679414888185e-010 0.5237285890057599 0.04197853427337595 0 0.3686606009132641 0.005034636481434553 0.08040933494924407 0.3711484317930713 0.00890364104522565 0 0.5345039557310246 0.003350996446658352 0.1551444348197302 0.248409345630704 0.1613456303238564 0 0.4317495927790511 1.182741441579649e-005 0.03339761493200454 0.3482580509228325 0.1334549575808552 0 0.484877549149892 2.144019321273692e-005 0.1028502306446092 0.5437790343361975 2.540195228788549e-006 0 0.3533467546307519 0.004909875093694407 0.1527149243646845 0.08350276193540217 0.01295533915658206 5.791948334668523e-043 0.745917099449637 0.0004879644074218766 0.02567779426389502 0.2708431403704233 0.07393795380980327 1.66570679957579e-043 0.6290531471484566 0.0007084119441275056 0.0986097802299203 0.1594223549167104 0.0375217007252709 1.796072025175096e-043 0.7037377521839709 0.02087475267529769 0.02124172488459862 0.1617464904343859 0.03272875600683366 1.556306110497662e-046 0.7634082759988842 0.01991312371076829 0.0570671997921799 0.09213656383260419 0.04134404365579198 1.913625686928858e-048 0.7895390690086557 0.2907248517742975 0.4677187215183816 0.171232426274404 0.01669899578051444 1.792388178906823e-005 0.05360708077061338 0.0684662971773696 0.4689410971424751 0.3383866049510479 0.03702965016661203 7.161543200415901e-006 0.08716918901929488 0.09754775802113427 0.3075217286105992 0.3971142483497825 0.07125407279453266 7.248714014461551e-008 0.1265621197368113 0.1082182746317948 0.3559018114999184 0.3647690921748101 0.05436808365934883 0.0007465233264257617 0.1159962147077023 0.1525075800369135 0.4052429087595394 0.3215747353452885 0.03365534320146026 0.0003498408380899188 0.08666959181870837 0.01172100314831226 0.3270317340487385 0.38195389736079 0.07164759348339686 1.242462820417011e-036 0.2076457719587623 0.0003276513698544923 0.1481654692356338 0.4249107173265005 0.1041015372884783 2.872509314486865e-038 0.3224946247795331 0.01806808671756945 0.1440775781762516 0.4297315133794404 0.1463953497281881 1.244965884619801e-040 0.2617274719985505 0.01209544303332192 0.1245730702600501 0.4780723475153962 0.1556865337968722 2.0539178801451e-029 0.2295726053943595 0.02660692382976917 0.2017725403234608 0.4904455619621445 0.08948071001373208 9.167182277978926e-037 0.1916942638708934 0.06387516801964273 0.3197292529199551 0.4797686503766985 0.12698752628162 0 0.009639402402083629 0.009227664708654366 0.2032498562683227 0.2572922147332776 0.04535756581793611 0 0.4848726984718093 0.02655233277467248 0.04852005663742499 0.440344028993745 0.2174167611540191 0 0.2671668204401383 0.0103708813349389 0.09217862968609232 0.4279041961321453 0.1379673122814075 0 0.3315789805654161 0.03570183046600542 0.1372854249189742 0.3756926851786213 0.1110366722293513 0 0.3402833872070479 0.03800780333125291 0.1587819924571216 0.4392121664092986 0.05103528454606113 0 0.3129627532562658 0.004467015496869759 0.002817250971604829 0.1508634836996502 0.1492829675859313 0 0.6925692822459439 1.191247857377296e-006 0.02258114925622628 0.431965144506527 0.07510421492243363 0 0.4703483000669558 1.178789567565747e-008 0.1155114911543488 0.4098121187346756 0.07761940899799046 0 0.3970569693250896 2.022838568005984e-008 0.09817392331920156 0.4760587965957906 0.07196781286054785 0 0.3537994469960742 0.02609802226558802 0.1362710986183001 0.1637894845254063 0.05036367603911301 3.690827702513256e-036 0.6234777185515926 0.01827894950946725 0.04624607155767005 0.1501738549271325 0.04658094713143774 8.898436609031408e-037 0.7387201768742924 7.614642080432205e-006 0.03459149809229205 0.1705292556471232 0.07058084520675356 7.07029699725534e-039 0.7242907864117507 0.00523412668006273 0.05099138133827481 0.1549277067131104 0.05104388335008921 1.94331307555217e-041 0.7378029019184629 0.007928921968912976 0.07882681505327917 0.1590578530313684 0.03300187435746212 1.001654559593056e-038 0.7211845355889773 0.1653804896524243 0.4311435729678743 0.2642577483211213 0.04378253238281901 2.514903481759768e-023 0.09543565667576115 0.1139456809736542 0.2301048617241358 0.4291331344773024 0.06853917844696873 1.256138908195669e-024 0.1582771443779389 0.04478152339269129 0.1944483356428805 0.4757857242314703 0.138906032589731 3.326779023957405e-026 0.146078384143227 0.0824164718403691 0.3093271069650536 0.4230906580646241 0.07537799809930235 0.001295440454070179 0.1084923245765808 0.1043563398641009 0.3799133593085941 0.3753285017750356 0.04457526982310292 0.0004491137955428244 0.09537741543362358 0.03822132985864562 0.1536259795950685 0.5224708863997424 0.1551382579955409 5.90559470321541e-030 0.1305435461510025 0.01752246876532412 0.07887250604656605 0.4957371454214937 0.1011333413534962 3.097110814335964e-032 0.3067345384131199 0.01413890657864399 0.0894026069365907 0.444618492016867 0.1805517930370383 2.035241197657111e-037 0.27128820143086 0.01118663658134132 0.09453172563814333 0.4683205206275506 0.1541314374270591 2.16396197490961e-039 0.2718296797259056 0.03023433076038564 0.2212104410038135 0.4261118949363512 0.1000289377097562 3.838935776545247e-032 0.2224143955896935 0.08422178205398187 0.0130159635256023 0.5029712603026761 0.1828097910215793 5.466514225639378e-029 0.2169812030961604 3.891178502889368e-006 0.08472107659236736 0.4069288226771576 0.09474130419622057 1.696170636633711e-032 0.4136049053557515 2.543192005691692e-012 0.06571412146153542 0.5048409897902842 0.1611925114659148 1.020994253951173e-038 0.2682523772797223 0.01400037285879626 0.01424947740828886 0.4512027258355283 0.2145490361164869 2.616331599284836e-039 0.3059983877808997 0.01604022666108181 0.2391719709018378 0.3742358200562899 0.1297801820008338 4.993490373125891e-037 0.2407718003799567 0 0.01847070792731079 0.3963988018154746 0.09096470026236941 0 0.4941657899948452 0 0.1458856554371844 0.364421146657317 0.1215855071673785 0 0.3681076907381201 0 0.02385974079716035 0.4811988959589814 0.07119344806589847 0 0.4237479151779598 0 0.06285627364641193 0.3526092719584371 0.1409679045888203 0 0.4435665498063307 0 1.592587167801398e-007 0.4332208108296565 0.06972147632789479 0 0.4970575535837319 0.008243032955490205 0.1034938870247677 0.1723574404995893 0.04258977873060509 0 0.6733158607895478 5.891080910897326e-006 0.02151138234203154 0.2309011863279282 0.06008906863343439 0 0.6874924716156949 6.38351806556969e-010 0.03105080004236358 0.2015766465055803 0.08599891727463317 0 0.6813736355390712 0.003633019990620739 0.04074237614136308 0.1551443386430289 0.05767593846326977 0 0.7428043267617176 0.009474619183872001 0.06408761755746137 0.1870675565976338 0.04721346110891411 8.156325057363744e-034 0.6921567455521187 0.0732218880731685 0.2945214824296678 0.3992228729848319 0.09362333092783816 2.855459410610638e-022 0.1394104255844935 0.0662956152131739 0.2256009354246829 0.3864604529485001 0.1323859741840111 4.65468962599767e-027 0.1892570222296319 0.05889000866653524 0.2237240282304209 0.4158407212924691 0.131189881764375 0.0005227138137242973 0.1698326462324755 0.08554463679565916 0.2789191558398846 0.3870232903671553 0.1097665763720503 0.0008644979449732035 0.1378818426802775 0.0964913353647324 0.3534650252940325 0.3558861717652589 0.06531626104242268 0.0005922513859117772 0.1282489551476417 7.228873264504235e-005 0.17926699193669 0.4760991376331423 0.202899604521151 5.527245723856022e-027 0.1416619771763719 0.01234348109742207 0.1080113650920954 0.4451224603275439 0.1191331239057834 2.619194357819988e-029 0.3153895695771551 0.01697546528372451 0.09916056990673927 0.4721807390331458 0.1575060441356993 0.001972616492573459 0.2522045651481177 0.0162263281914736 0.1314276641931544 0.4691863808568055 0.1436452013741966 0.002438750527254468 0.2370756748571155 0.02851192730888397 0.1589330758733163 0.4272561880763685 0.1032675989280283 3.026990111551959e-034 0.282031209813403 0 0.06095687018976478 0.2394884202519358 0.1488502266802074 0 0.5507044828780919 0.0356574575563757 0.07580911347251175 0.414491995659838 0.2027984215543827 0 0.2712430117568919 0.01137332820152118 0.06976538843443955 0.407704888627814 0.1904637799962684 0 0.3206926147399569 0.04088831618104729 0.04265798892305349 0.453019929983065 0.07494490308130157 0 0.3884888618315327 0.01609944178827685 0.1847091728374176 0.4458072072691647 0.07030743479692407 0 0.2830767433082168 0 0.0002746447529776548 0.6129109576541817 9.515230154037379e-013 0 0.3868143975918892 0 0.09980753734734016 0.3969783598019729 0.2467309817317362 0 0.2564831211189506 0.01676815412653871 0.07985097044929763 0.3750582235238485 0.1746402024860568 0 0.3536824494142584 0 0.03798008687369644 0.5759869017856307 0.02905285667213348 0 0.3569801546685394 0.08935853844558928 2.22457858168224e-006 0.5801750323326229 1.816572292018906e-012 2.836061620198331e-019 0.3304642046413895 0 0.02069596461436983 0.1292676687566385 0.08934886194951576 0 0.7606875046794759 0 0.0155605508812992 0.149458337133298 0.09691227226581684 0 0.738068839719586 0.001928841455156521 0.02988636273967757 0.1598007940136311 0.060121613187371 0 0.7482623886041638 0.002297423815293991 0.04777470071003591 0.1506265769163005 0.06411791242743857 0 0.7351833861309312 0.002033374108448614 0.08433519253607354 0.1422092019097426 0.05000479046931903 0 0.7214174409764161 0.06467821986617693 0.2118687986598231 0.4021675610641343 0.1542661260697418 0.0009629548287098606 0.1660563395114138 0.06211197922871795 0.2087178366692203 0.3837896963994136 0.1592213750429881 0.0003245036328590883 0.1858346090268009 0.07716953504852567 0.2710685748290296 0.3854275492693887 0.09888844158052666 0.0005249523045785118 0.1669209469679507 0.06035081412314307 0.2182735954330493 0.46224247289735 0.1092602893867866 0.0007742068934632927 0.1490986212662077 0.03870614061197823 0.1645975247623906 0.5910218723661069 0.09659966508489766 1.128910940498406e-036 0.1090747971746267 0.009948030925347497 0.07053605683881238 0.4357630697661651 0.2151554101923553 0.001652267115513732 0.266945165161806 0.006813391784428302 0.07074432493312706 0.4138200177476101 0.1961412028532745 0.001028346288374331 0.3114527163931859 0.007677693797330387 0.07469557921462527 0.402292839732178 0.1667782566653461 4.688540732466207e-010 0.3485556301216661 0.005991113815662129 0.09121087397332309 0.526996755828638 0.1537547016408418 1.28928924258819e-007 0.2220464258126107 0.01203831251477948 0.09724488977976049 0.5478736118529571 0.1172337470609753 6.369940920282995e-006 0.2256030688506072 0.003534552389379985 0.03145336070545423 0.4089058002912017 0.1934378672872619 1.846588763683029e-008 0.3626684008608146 0.008181403038835791 0.06630736812357911 0.3912111633114997 0.1952353051061198 4.22256388698379e-007 0.339064338163577 0.009104365284191226 0.06782613281208198 0.4350050504819931 0.1470901706755315 0.0001186310857005282 0.3408556496605016 0.01139103611184682 0.02961186989442937 0.4602476152260737 0.09789724762773772 0.0003604883743497144 0.4004917427655626 7.146658955632906e-006 0.1151766344951217 0.517204090135325 0.05938591074738117 0.001839394817842191 0.3063868231453742 0.001807186909288757 0.02892709293626884 0.4011524134865349 0.1111189514136521 0 0.4569943552542553 1.096669983002437e-009 0.02632882917406921 0.3949990347985875 0.1182897595307336 4.63792829667178e-041 0.4603823753999399 2.359856442148198e-008 0.06440397889315774 0.3404377978680331 0.07079696554367582 0 0.5243612340965689 1.803921212312685e-008 0.01283416750795015 0.3991773333713232 0.06549619482226064 0 0.5224922862592539 4.650319521492989e-008 0.01933994281248536 0.5110083166881216 0.02965619429907939 0 0.4399954996971185 0.0006327838847493386 0.01335608501266559 0.1336872891729608 0.05779886800499035 9.226334887476014e-008 0.7945248816612851 0.002022929886084515 0.01889240889683519 0.1212646733785919 0.05065517491741677 1.932889088391289e-007 0.8071646196321628 0.0007834597164939726 0.01366264614468686 0.11130863501621 0.03232490320420381 7.610528337114982e-006 0.8419127453900682 0.0005546242012135234 0.006212879670860461 0.09274830782571843 0.01551691992044023 5.140158385035366e-005 0.8849158667979171 0.0002516448588086719 0.005666052374169201 0.09178272504120211 0.005526721310645223 9.728826997085777e-005 0.896675568145204</probabilities>
			<property id="VegetationInfluence">VegetationInfluence=((ObservedCanopyCover/100)/3)+((ObservedSuccessionalStage/MaxSuccessionalStage)/3)+((ObservedSoftwoodPercent/100)/3)</property>
		</cpt>
		<cpt id="SoilCNRatio">
			<state id="VeryHighCNRatio" />
			<state id="HighCNRatio" />
			<state id="LowCNRatio" />
			<state id="VeryLowCNRatio" />
			<probabilities>1.536804066436882e-017 1 1.669180002220825e-017 6.184373222929431e-017</probabilities>
			<property id="SoilInfluence">SoilInfluence=((ObservedSoilTexture/MaxSoilTexture)/2)+((ObservedSoilDepth/MaxSoilDepth)/2)</property>
		</cpt>
		<cpt id="SequestrationRate">
			<state id="VeryHighSequestrationRate" />
			<state id="HighSequestrationRate" />
			<state id="ModerateSequestrationRate" />
			<state id="LowSequestrationRate" />
			<state id="VeryLowSequestrationRate" />
			<state id="NoSequestrationRate" />
			<parents>SummerHighWinterLow SoilCNRatio</parents>
			<probabilities>0.15 0.3 0.5 0.05 0 0 0.05 0.3 0.3 0.3 0.05 0 0 0 0.25 0.5 0.25 0 0 0 0.1 0.45 0.45 0 0.3 0.4 0.2 0.1 0 0 0.6687661665602824 0.01228913099311797 0.002377340052647683 0.0429945585580897 0.2732358207024543 0.0003369831334079417 0 0.1 0.4 0.4 0.1 0 0 0 0.2 0.6 0.2 0 0.5 0.3 0.1 0.1 0 0 0.548076561723903 0.06327626656987372 0.1304014678530414 0.1755491223712596 0.07931539101999247 0.003381190461929708 0 0.2 0.35 0.35 0.1 0 0 0 0.3 0.5 0.2 0 0.05286340705425941 0.243864060225787 0.09175666868306984 0.138013697613673 0.1646579070822914 0.3088442593409194 0.06494992139266505 0.35602528017626 0.2179709312725878 0.2105711350743151 0.04477964636519614 0.105703085718976 0.1739891009379161 0.1516517455509605 0.3282429270490558 0.2701283222206897 0.04276134862512739 0.03322655561625042 0.07632154747577927 0.1647000947058342 0.2943430254914618 0.2544128114952885 0.001319681487426912 0.2089028393442092 0.8 0.2 0 0 0 0 0.5 0.4 0.1 0 0 0 0.1 0.4 0.4 0.1 0 0 0 0.1 0.4 0.4 0.1 0</probabilities>
		</cpt>
		<cpt id="VegetationAndSoilCarbonSequestration">
			<state id="VeryHighSequestration" />
			<state id="HighSequestration" />
			<state id="ModerateSequestration" />
			<state id="LowSequestration" />
			<state id="VeryLowSequestration" />
			<state id="NoSequestration" />
			<parents>SequestrationRate VegetationCarbonStorage</parents>
			<probabilities>1.967976011704729e-007 0.1068967078272052 0.8035409744798134 0.07275549811378805 0.01680662278159208 8.481462924631727e-036 4.010615296369966e-005 0.06115342842773635 0.8631891563520959 0.07115821293211883 0.00445909613508523 1.84540117907773e-027 0.01981958635247819 0.07587719031861505 0.8441371713172849 0.05932451407865436 0.0008415379329673498 6.103610468143265e-017 0.1915712293941832 0.1758247792016602 0.5658043515087765 0.06610943418031912 0.000690205715060806 1.206154030293359e-020 9.546728950540498e-050 0.001009373315668396 0.9989906266843316 1.415060220802822e-031 1.006695636326247e-017 0 0.1527902472922615 0.01958199010543128 0.7999783358755188 0.02757492117795257 7.45055482898286e-005 5.460181420330082e-013 0.001501146385928529 0.3788823977444831 0.6169866465355293 0.002629622388301761 1.869457573541705e-007 4.06468320935025e-028 0.02935147473923518 0.6166140699524128 0.3436285501504143 0.01040578722798963 1.179299480284112e-007 1.448088268707466e-018 0.007380838604518583 0.8251107910127421 0.1421687651299923 0.02531735388425288 2.225136395879244e-005 4.535299097921791e-012 0.01519259807700288 0.7392373829454073 0.2402684478758326 0.005301571075209378 2.654769789683937e-011 9.124351884831088e-017 4.565946219092512e-048 0.7002067380500059 0.299793261949994 5.490595835190202e-042 2.484805754537726e-029 0 0.007373023022207843 0.5793906518050151 0.2259809535241453 0.1665786137664726 0.02067672466822726 3.321393188150599e-008 0.000607199149300673 0.7997737159167461 0.1832908939839043 0.01617372294582395 0.0001544680042251236 6.253438251241234e-028 0.008110102574717936 0.6676763606923716 0.2873049125285103 0.03689016292526181 1.846127913833335e-005 2.134624599999299e-020 0.06149278497764165 0.4500329881980363 0.4295452550312525 0.05824522588571635 0.0006837459058882547 1.464953507432644e-012 0.09715536699170368 0.6861456327814999 0.1522293171801503 0.06446965878007721 2.426656904176895e-008 6.067105395985479e-017 4.674649893572736e-048 0.4327760026420199 0.5672239973579801 8.127581192426758e-039 7.863462503291208e-025 0 0.04415649075970637 0.4979751091623988 0.3682252653254535 0.08043047213029789 0.009212661196734154 1.42540913518118e-009 6.614147335149106e-005 0.1828411816053241 0.8044977998766062 0.01259406653385982 8.105108583523436e-007 5.29919369118908e-029 0.002950755895114551 0.1829034248844436 0.7398238843555697 0.07426318874036361 5.874612450866044e-005 3.724719674480387e-020 0.05853853176507409 0.5167169379296018 0.3571954635217622 0.06665845651775645 0.000890610264948997 8.564370337300794e-013 0.0005676485487780568 0.341739534418895 0.6382940153269177 0.01939879245357361 9.251835761337626e-009 2.153728970886169e-017 1.171702090851487e-047 0.5877927235141299 0.4122072764858701 3.073559405096092e-037 8.653118366988163e-024 0 0.05116728677312721 0.4516280859119847 0.2987583681971816 0.1904497858336377 0.00799644623836995 2.704569899721564e-008 5.357644585553525e-005 0.2903604882685298 0.6583731765173232 0.04951864409117422 0.001694114677117272 2.776797416407385e-031 0.0005288374628308382 0.269549816230575 0.7156108638075723 0.01407331340415007 0.0002371690948717617 3.179623341173175e-022 0.05141942619607928 0.01147067107352969 0.8782458574872079 0.05777272883276648 0.001091316410337325 7.938658311848816e-014 0.01495967379560327 0.02019960550130064 0.9532607729391813 0.0115787215355729 1.226228341869919e-006 9.566200236751131e-019 2.667405925381421e-047 0.9952184761373604 0.004781523862639601 3.864245875017288e-035 1.467229348854309e-020 0 0.02523772140989941 0.3370836564701623 0.6165722741464714 0.01963818290044885 0.001468164952415558 1.206023969149856e-010 0.04178518724166727 0.6811390883380067 0.2766125223657698 0.0004632020537822673 7.738136129596247e-013 6.954476132603335e-024 0.001664966365658761 0.8516603526760647 0.1462809424652415 0.0003937384925328345 5.021218111415272e-013 1.868779523397962e-016 0.01885058669903154 0.9156067860475642 0.05466693071830922 0.01087460812182591 1.088403156881615e-006 1.011193330872188e-011 0.01409924320717697 0.7426900768528807 0.2090535500526836 0.0341571298871872 7.155395451487893e-014 4.963282332410578e-017 1.953295129852087e-047 0.6643725408521627 0.3356274591478374 1.607657227263572e-044 1.329779632099001e-037 0 0.002458478985385416 0.7410828512095611 0.1262088875901479 0.1115623857054393 0.01868721378154623 1.827279201450898e-007</probabilities>
			<property id="CarbonSequestration">CarbonSequestration=VegetationCarbonSequestration+SoilCarbonSequestration</property>
		</cpt>
	</nodes>
	<extensions>
		<genie version="1.0" app="GeNIe 2.0.3887.0" name="Network1" faultnameformat="nodestate">
			<node id="SummerHighWinterLow">
				<name>SummerHighWinterLow</name>
				<interior color="ffffff" />
				<outline color="000080" />
				<font color="000000" name="Arial" size="8" />
				<position>240 401 376 436</position>
				<comment>The difference between summer high temperature and winter low temperature is also an important climatic predictor of NPP (Auch 2009; Rosenzweig 1968 noted the same for AET).\n\nMEAN TEMPERATURE OF WARMEST MONTH - MEAN TEMPERATURE OF COLDEST MONTH (e.g. Jul/Aug - Jan)\n\nClimate variables have also been aggregated as Weck&apos;s Climatic Index (Iverson et al. 1994).  We have some, but not all, of these data:\n\nWCI = dT(S)(P1 + SQRT(P2))(G)(H)/(100*Tm)\n\nWhere:\ndT (degrees C) = diurnal difference between average min and max temperature during warmest month of the growing season (dT is removed in the tropics, where high max temperature can lead to water stress) (HAVE)\nS (h) = mean daylight length during growing season\nP1 (dm) = avg. annual precipitation up to 20 dm (HAVE)\nP2 (dm) = avg. annual precipitation exceeding 20 dm (HAVE)\nG (months) = duration of growing season (HAVE growing degree days)\nH = avg. annual relative humidity (HAVE)\nTm (degrees C) = mean annual temperature of warmest month of the growing season (HAVE)</comment>
				<barchart active="true" />
			</node>
			<node id="SuccessionalStage">
				<name>SuccessionalStage</name>
				<interior color="ffffff" />
				<outline color="000080" />
				<font color="000000" name="Arial" size="8" />
				<position>1050 409 1175 439</position>
				<barchart active="true" />
			</node>
			<node id="PercentTreeCanopyCoverClass">
				<name>PercentTreeCanopyCoverClass</name>
				<interior color="ffffff" />
				<outline color="000080" />
				<font color="000000" name="Arial" size="8" />
				<position>779 402 886 432</position>
				<barchart active="true" />
			</node>
			<node id="HardwoodSoftwoodRatio">
				<name>HardwoodSoftwoodRatio</name>
				<interior color="ffffff" />
				<outline color="000080" />
				<font color="000000" name="Arial" size="8" />
				<position>470 404 628 432</position>
				<barchart active="true" />
			</node>
			<node id="VegetationCarbonStorage">
				<name>VegetationCarbonStorage</name>
				<interior color="ffffff" />
				<outline color="000080" />
				<font color="000000" name="Arial" size="8" />
				<position>595 253 717 282</position>
				<comment>Use DBHs from IVMP data as values for successional stage - 2.5, 7.5, 15, 25, 45 for early, pole, mid, late, and old growth successional stages respectively.</comment>
				<barchart active="true" />
			</node>
			<node id="SoilCNRatio">
				<name>SoilCNRatio</name>
				<interior color="ffffff" />
				<outline color="000080" />
				<font color="000000" name="Arial" size="8" />
				<position>69 395 156 427</position>
				<barchart active="true" />
			</node>
			<node id="SequestrationRate">
				<name>SequestrationRate</name>
				<interior color="ffffff" />
				<outline color="000080" />
				<font color="000000" name="Arial" size="8" />
				<position>238 252 353 283</position>
				<comment>Type your annotation here</comment>
				<barchart active="true" />
			</node>
			<node id="VegetationAndSoilCarbonSequestration">
				<name>VegetationAndSoilCarbonSequestration</name>
				<interior color="ffffff" />
				<outline color="000080" />
				<font color="000000" name="Arial" size="8" />
				<position>360 95 692 121</position>
				<comment>VegetationAndSoilCarbonSequetration = VegetationDensity*SequestrationRate\n\n(Ideally; since we&apos;re unlikely to get numbers for either of these variables we are including probabilities instead.)</comment>
				<barchart active="true" />
			</node>
			<textbox>
				<caption>Copyright 2011 The ARIES Consortium\n\nThis file is part of ARIES.\n\nARIES is free software: you can redistribute it and/or modify it under the terms of the GNU General Public License as published by the Free Software Foundation, either version 3 of the License, or (at your option) any later version.\n\nARIES is distributed in the hope that it will be useful, but WITHOUT ANY WARRANTY; without even the implied warranty of MERCHANTABILITY or FITNESS FOR A PARTICULAR PURPOSE.  See the GNU General Public License for more details.\n\nYou should have received a copy of the GNU General Public License along with ARIES.  If not, see &lt;http://www.gnu.org/licenses/&gt;.</caption>
				<font color="000000" name="Arial" size="10" />
				<position>857 59 1265 315</position>
			</textbox>
		</genie>
	</extensions>
</smile>
