<?xml version="1.0" encoding="ISO-8859-1"?>
<smile version="1.0" id="Network1" numsamples="1000" discsamples="10000">
	<nodes>
		<cpt id="MeanDaysPrecipitationPerYear">
			<state id="VeryHighDaysPrecipitationPerYear" />
			<state id="HighDaysPrecipitationPerYear" />
			<state id="LowDaysPrecipitationPerYear" />
			<state id="VeryLowDaysPrecipitationPerYear" />
			<probabilities>0.8152545704737566 0.1847454295262434 0 0</probabilities>
		</cpt>
		<cpt id="VegetationHeight">
			<state id="VeryHighVegetationHeight" />
			<state id="HighVegetationHeight" />
			<state id="ModerateVegetationHeight" />
			<state id="LowVegetationHeight" />
			<state id="VeryLowVegetationHeight" />
			<probabilities>0.2465662868064257 0.2099742735670094 0.2753884896397728 0.2335283831697832 0.03454256681700896</probabilities>
		</cpt>
		<cpt id="FloodVegetationType">
			<state id="Wetland" />
			<state id="ForestGrasslandShrubland" />
			<state id="DevelopedCultivated" />
			<probabilities>0.03081563561828696 0.8298801932526589 0.1393041711290541</probabilities>
		</cpt>
		<cpt id="PercentTreeCanopyCoverClass">
			<state id="VeryHighCanopyCover" />
			<state id="HighCanopyCover" />
			<state id="ModerateCanopyCover" />
			<state id="LowCanopyCover" />
			<state id="VeryLowCanopyCover" />
			<probabilities>0.548497482693518 0.09137035871617369 0.04059156702328508 0.02973568281938325 0.2898049087476401</probabilities>
		</cpt>
		<cpt id="SuccessionalStage">
			<state id="OldGrowth" />
			<state id="LateSuccession" />
			<state id="MidSuccession" />
			<state id="PoleSuccession" />
			<state id="EarlySuccession" />
			<state id="NoSuccession" />
			<probabilities>0.08551274653242921 0.1046530814327376 0.1729230261006537 0.08712152469427516 0.09471165750452937 0.455077963735375</probabilities>
		</cpt>
		<cpt id="EvapotranspirationClass">
			<state id="VeryHighEvapotranspiration" />
			<state id="HighEvapotranspiration" />
			<state id="ModerateEvapotranspiration" />
			<state id="LowEvapotranspiration" />
			<state id="VeryLowEvapotranspiration" />
			<parents>FloodVegetationType PercentTreeCanopyCoverClass SuccessionalStage VegetationHeight</parents>
			<probabilities>0.3339597315436243 0.1238791946308723 0.06300671140939573 0.3979194630872481 0.08123489932885945 0.2453778574238395 0.2162900476419417 0.2451374623016742 0.2231303815726209 0.07006425105992391 0.0831809344139218 0.2747704391013918 0.06175525054382351 0.281902708529848 0.298390667411015 0.1061396593113588 0.2415558646103695 0.1140678011143683 0.2672359574449242 0.2710007175189793 0.2706611754031719 0.2555305503420186 0.1834443742717106 0.2601293352665424 0.03023456471655653 0.1702844029794595 0.2559814912346694 0.1856895643668655 0.2559250620720788 0.1321194793469267 0.1589032228233231 0.1760946964442595 0.1890322282332264 0.2536274101817175 0.2223424423174736 0.1171790438437425 0.04613503141736595 0.3307468477206591 0.3517620433236338 0.1541770336945987 0.389779375914188 0.3081423695758168 0.06423695758166811 0.1987597513408088 0.03908154558751831 0.1385934040983142 0.2174036442072994 0.3227110177669293 0.05739910313901334 0.2638928307884436 0.3095640843943573 0.2026653256223283 0.1716460557295353 0.0922006080416944 0.2239239262120845 0.2654309830643284 0.2788692681692483 0.141874672402263 0.2545954054982176 0.05922967086594264 0.336844012319584 0.01033878857418921 0.07289087505284163 0.3787668337460003 0.2011594903073849 0.3230696096543842 0.008232586782484685 0.2576302682613244 0.3479078209574425 0.06315971434436422 0.004614623283434365 0.3428553754794028 0.02555981689966585 0.2389706792032661 0.3879995051342309 0.02603500287582319 0.1665629805265696 0.2820184756963607 0.2617468571361497 0.2636366837650969 0.266582919018383 0.1626355738778106 0.2046745342274281 0.07694757515171904 0.2891593977246593 0.3309401659714857 0.235615562370107 0.2939381167613766 0.05849695525164588 0.08100919964538485 0.1678392857142866 0.4733571428571418 0.1063392857142858 0.04524999999999999 0.2072142857142858 0.05367651179734335 0.0447514431429694 0.3231939696239419 0.309967494255449 0.2684105811802965 0.1078601051497241 0.2011015685378083 0.2764153305249871 0.3339320118864911 0.08069098390098939 0.01899232803736575 0.2635853763763564 0.2471066008891232 0.226782465157285 0.2435332295398697 0.02014224345377086 0.3909021229568098 0.2624017397194345 0.1489991265752847 0.1775547672947001 0.183253519973805 0.2633636214800255 0.08922724296005269 0.147624017681729 0.3165315979043878 0.09985049548178826 0.3683103343344393 0.1932842041199739 0.05649418520037548 0.282060780863423 0.3907717106588786 0.3190812008865622 0.1050842904157424 0.04732352743636183 0.1377392706024551 0.3909149072296836 0.1488464867712933 0.03723984795453673 0.0743856083700276 0.3486131496744588 0.1248879558428086 0.1426616974100116 0.3816459876397607 0.08511817710053277 0.2656861820068865 0.0008811312046322329 0.3543126477293421 0.1043091511769395 0.1489950908404319 0.3915019790486543 0.2133939135784947 0.2371716598040617 0.2409673907899082 0.1815514222159116 0.1269156136116239 0.1147961310764612 0.1441048945218043 0.3000917201700993 0.3155590761277413 0.1254481781038938 0.193865008164089 0.01941035096409637 0.2305391968004109 0.4619773607059645 0.09420808336543929 0.1287793336818068 0.336955624638917 0.05661778865993564 0.121942831989876 0.3557044210294646 0.2085602223830012 0.2806696876229644 0.157990937131107 0.2586598631684501 0.09411928969447719 0.2129322080043561 0.2838733097377258 0.227588710409293 0.09052545603049279 0.1850803158181322 0.2841357453551564 0.1525486817896607 0.1883461485286454 0.03537206606472465 0.3395973582618129 0.198564343513443 0.2793787522839988 0.2466457843904987 0.07193944139911256 0.2034716784129469 0.2140247004949351 0.1100513437254266 0.212266987372219 0.1918220084185207 0.2718349599888986 0.2388911939620257 0.1169758757631438 0.1329105170608342 0.2985201430462529 0.2127022701677434 0.1973403456048086 0.2720060105184072 0.3766942148760329 0.08706235912847486 0.0668970698722765 0.06996179910132747 0.2608638379462264 0.1426459610965561 0.4787260512565312 0.04780235059935891 0.1234190782422294 0.1061450518042158 0.2805466237942121 0.2909074669524832 0.1989817792068596 0.3717867081741426 0.1724093203150795 0.1731522098014245 0.09281401820668833 0.1898377435026651 0.1557687001963743 0.2192576723956049 0.2205884739601085 0.01381112355356477 0.3905740298943475 0.1197780390074956 0.06874976299723175 0.2766043507388169 0.4139269146663631 0.1209409325900927 0.2615702228429171 0.006654927439431664 0.2058048454672415 0.3761126965814556 0.149857307668954 0.4312858848274686 0.128972201694048 0.06226195213461423 0.2852737195156613 0.09220624182820769 0.1712553890809749 0.2833482733597983 0.2641965822910887 0.1741437941975782 0.1070559610705597 0.1217896050960851 0.3076644010286068 0.09639454112826647 0.229057074872758 0.2450943778742838 0.3841394287899688 0.2059606900413861 0.02576045237867595 0.3056014642208351 0.07853796456913396 0.1691118826296338 0.03841415612050621 0.27149736812633 0.2466793593907492 0.2742972337327809 0.2680385346352971 0.2365255165569732 0.2085420314006722 0.08410961212586483 0.2027843052811926 0.05159477827871609 0.1142924433079873 0.307970526882444 0.08004171993809296 0.4461005315927598 0.003913696817458003 0.3427232152869673 0.2819655953529055 0.155639536187678 0.2157579563549914 0.1415754530773372 0.2977450804473951 0.1401399605239548 0.3216579938991566 0.0988815120521563 0.06321412023883448 0.2425932563445789 0.2602872653839094 0.2286670921155002 0.2052382659171769 0.1625836441678699 0.01201477010740192 0.08099192142602776 0.268636014320255 0.4757736499784454 0.2996954741153002 0.1415615781886914 0.1387836147890751 0.2251868681565203 0.1947724647504129 0.3130932115170292 0.01192852681469138 0.262941961716042 0.2146889887695487 0.1973473111826886 0.4230030051016849 0.2448633727024946 0.1275071633237826 0.1703822768886707 0.03424418198336722 0.07060327250225709 0.2451130565333388 0.2703212651781818 0.111646496718368 0.3023159090678542 0.0286534944740399 0.1248211020116085 0.2991273753677348 0.2634173491293632 0.2839806790172537 0.131143145341488 0.04016905220955324 0.3885774843907605 0.3701911413577806 0.06991917670041756 0.2148340831284245 0.2420480870342112 0.2562638857043461 0.07319792218471051 0.2136560219483076 0.02078980202336034 0.0124167581137351 0.08221216722035989 0.4813072170527488 0.403274055589796 0.01666686270127853 0.3560615862336654 0.274609205001235 0.1061292181747609 0.2465331278890601 0.1492794466938233 0.1058739554746053 0.06889252618235965 0.2732933778012972 0.4026606938479146 0.1533340316817393 0.3521771011557666 0.06658752051398444 0.1683834398314653 0.2595179068170443 0.0170237376785355 0.2617053912693623 0.2450714142023738 0.2797098169382419 0.1964896399114867 0.236880449343141 0.02086907475735002 0.1247091725223849 0.3122488308147871 0.305292472562337 0.01065674292722122 0.364189960671544 0.310779380048209 0.1538179614045476 0.1605559549484783 0.005594641605441472 0.1293128066668397 0.3497624548923908 0.3550196007165294 0.1603104961187985 0.2895222770318395 0.2414070537339419 0.2200137170592733 0.2375557255532988 0.01150122662164658 0.2039029632639152 0.4152763397596361 0.02488827145122606 0.1501946239236708 0.2057378016015518 0.227919692191975 0.2818584198802325 0.2511354760320537 0.2330257181705096 0.006060693725229265 0.184537072429449 0.2268349757138996 0.2935774684653607 0.2420499146956548 0.05300056869563598 0.3000938143699141 0.04645850753574126 0.2054330756837233 0.2549507474557949 0.1930638549548264 0.3043865094144425 0.1752327746741154 0.2726153527829504 0.1228636457686738 0.124901717359818 0.309668383742458 0.2197473308584419 0.3018024499505981 0.05747887229368712 0.111302963154815 0.1674424276916198 0.02583385841175636 0.400658549970528 0.3663082582979326 0.03975690562816318 0.05652610339967749 0.101777403753536 0.2779360621330871 0.3008709582568669 0.2628894724568324 0.05220424201931894 0.2667738684362508 0.2473643086052069 0.2189294166940333 0.2147281642451902 0.2496174335254795 0.2965379172275723 0.08308308308308313 0.07678943311127225 0.2939721330525929 0.2882729616636375 0.2612113783338264 0.3385920791242233 0.05215774124012004 0.05976583963819269 0.2498894989637455 0.1880482079187497 0.295347169700125 0.09732931273266603 0.1693858106847136 0.1468055075469521 0.1950253485424593 0.2016145293236544 0.2354173867957139 0.2211372277912204 0.1401090092978519 0.318941256100602 0.1547029556006792 0.3375844584565327 0.04866232054433425 0.005419500588814924 0.344024129395082 0.2709149462856598 0.2544161118988685 0.1252253118315748 0.4098824494259159 0.01388737014762166 0.1008474576271189 0.3259294696555495 0.149453253143794 0.2478268959834129 0.009131024216486349 0.3212339509290526 0.1007070895026446 0.3211010393684036 0.002172609281115272 0.0360630509318457 0.3187398866169532 0.28870808957487 0.3543163635952157 0.2055891177697348 0.3437293973601713 0.3933775547273387 0.05667155523862062 0.0006323749041346555 0.09918902899019294 0.3385332471171463 0.3492025002694256 0.1794104968207781 0.03366472680245716 0.1399530645210448 0.1218798573649082 0.2377556307335955 0.1780043278168906 0.3224071195635611 0.1734816064307209 0.227209779360468 0.220035610533221 0.2685055029727506 0.1107675007028394 0.2596950997383731 0.1176217338028636 0.08089460960181924 0.2253413845253735 0.3164471723315707 0.04239752190190227 0.1535888713631441 0.07529313391991792 0.444081260333327 0.2846392124817089 0.3212347603570748 0.09813668250069862 0.06103210435754518 0.07848875685692021 0.4411076959277613 0.285174527419053 0.1884475014037058 0.219539584503088 0.299948530787947 0.006889855886206246 0.3073347907665296 0.158831528755616 0.3204172619764859 0.2101458006988793 0.003270617802489112 0.1062765691422856 0.2827836588776824 0.2431811656617857 0.1439248701064155 0.2238337362118308 0.09573683239796584 0.03658472321028641 0.2738650436065661 0.3510789660896372 0.2427344346955444 0.2502550153009182 0.1141999554456026 0.1367937248648712 0.1854987161298644 0.3132525882587438 0.1021486544639372 0.3099086296448264 0.1211733034436516 0.1796783523312951 0.2870910601162897 0.08264615798862376 0.286627848271684 0.2413584194406113 0.1545555518158258 0.2348120224832553 0.03309013827610857 0.4026767888393187 0.2487860787261836 0.04855685095265089 0.2668901432057381 0.2687621461765948 0.130739332488382 0.1375158428390367 0.2411322348964934 0.2218504435994932 0.06840987047560537 0.07660113653816614 0.2587544156043619 0.3820841652587926 0.214150412123074 0.2944629360947532 0.1199302058737068 0.2961698576617071 0.2218808379088313 0.06755616246100163 0.1640404963081372 0.3442338433432292 0.169521199665068 0.1151861155514958 0.2070183451320699 0.2562539515907762 0.3756665513498039 0.09605497035561343 0.1720567358965487 0.09996779080725785 0.1938515883602589 0.2829776196828219 0.06849958006027369 0.1886146929499531 0.2660565189466925 0.1934294768156245 0.1046126236823386 0.2066060919614562 0.2386503265860442 0.2567014809545365 0.1119441161424615 0.3272945368590026 0.4676215844343698 0.0005115630898410625 0.09262819947432482 0.1965762811414027 0.2150041603445744 0.1640521756154861 0.3616563065929226 0.06271107630561407 0.1692558678033891 0.2778970634670038 0.1979686348805387 0.2162719713714345 0.1386064624776338 0.2014393772490268 0.1970086411593352 0.260719851819213 0.07697893972403777 0.2638531900483873 0.1060419109774129 0.1756284097282416 0.1187885586090858 0.2804772344873297 0.3190638861979302 0.3228797894670885 0.1240222646908319 0.09603475463934764 0.1754127635577556 0.2816504276449763 0.2297619223769292 0.2286965657043931 0.01799269046949678 0.4534720269890357 0.07007679446014531 0.09979801002468816 0.3863744046283134 0.3229470586768384 0.02336600084785918 0.167514525822301 0.221819065965925 0.2055005891484465 0.1988983859202878 0.09374006396468929 0.2800418950006516 0.2684941171588068 0.0876304704197879 0.1640451536593984 0.2295241850137989 0.2503060737482081 0.1284150950491699 0.2898388582817825 0.2151909444747379 0.2636744824473995 0.1028806197469101 0.2451306068362104 0.2246728021928116 0.2170124707291868 0.02409736971083142 0.2890867505309599 0.2383262716515557 0.1452876995016584 0.1903361067814093 0.08637571074180565 0.3396742113235708 0.1696031792643064 0.1791859987079349 0.3194827822478032 0.312219807756307 0.01950823202364855 0.155837718609819 0.1877504151211504 0.2358879462036034 0.1858255747672423 0.234698345298185 0.2197472353870446 0.2235961510843036 0.1465029441332767 0.1937957776820345 0.2163578917133407 0.3018001018925599 0.2936958695775198 0.1746419608657097 0.2184274581580122 0.01143460950619849 0.05474573159537396 0.3988984762254412 0.06525916406584528 0.1178630438773635 0.3632335842359761 0.4257981633915401 0.01869914830851216 0.2078158950690722 0.0560181440421253 0.2916686491887504 0.01944456429506241 0.4076311285613639 0.3526916051832977 0.04549050064000201 0.1747422013202739 0.04939412816751385 0.2739083254626884 0.2470007837148111 0.1759942125675708 0.2537025500874159 0.06675856636470905 0.181729722215787 0.3556981674119099 0.07257373213168737 0.3232398118759068 0.08285546243199633 0.04662549625055106 0.3819438317894423 0.1968828113512704 0.2916923981767401 0.293527999608056 0.2223212973396694 0.1729263632355107 0.02381069031404621 0.2874136495027175 0.3187254874690522 0.1523184334232714 0.1092041945982039 0.3351784373174608 0.08457344719201167 0.3767545999942597 0.1037546286993713 0.08142205126733114 0.07269569710365419 0.3653730229353838 0.178607012383166 0.1998386867201203 0.1120178393509517 0.3558499786497132 0.1536864828960487 0.2501705073886532 0.08589438875684531 0.3020357548827136 0.1607729668285616 0.2011263821432264 0.0219195322434745 0.2077636046618331 0.2283852698645774 0.2483383368948202 0.2935932563352948 0.2828703820292654 0.0280037271147598 0.09286307889899019 0.3839809614948736 0.2122818504621111 0.1612722387933393 0.205548856592838 0.1758054621226559 0.2284169998519159 0.2289564426392511 0.1686255696809794 0.1790103424435247 0.2920011852186309 0.1453162699476535 0.2150466327092116 0.3077111463044143 0.3094581136018636 0.002889843099479033 0.3226991461085131 0.05724175088573017 0.164577541699753 0.1961378077839389 0.2617032366957924 0.2274250397140736 0.1501563741064423 0.188572149344091 0.0805660031189879 0.3194890377029307 0.3033093294193382 0.1080634804146521 0.2732879703078182 0.3657302961938923 0.08083472818571846 0.08232661378356268 0.1978203915290085 0.3123774535097455 0.2698189923840341 0.07343501682111903 0.1214629213019423 0.2229056159831591 0.3325019952114685 0.06215083798881977 0.2714817770683629 0.3032388933227302 0.03062649640861879 0.2662724878668849 0.09185845886851417 0.09752898324067223 0.2970365960709923 0.2473034739529364 0.4217162499239715 0.1154103546875963 0.3357212386688495 0.06877775749831604 0.0583743992212666 0.1080308205576341 0.3004011438557334 0.2807709111128925 0.04537691635554644 0.2654202081181936 0.1092718049976146 0.2736178252876614 0.1015013277047691 0.266102675835783 0.2495063661741718 0.1990915134057236 0.2899309402467107 0.2269554619986567 0.1221471305118505 0.1618749538370586 0.3164859786908756 0.1923772624896432 0.1831230817705624 0.02296623916164003 0.2850474378872787 0.01321380453932956 0.2380557570732566 0.2761633329878803 0.1708467198673525 0.3017203855321811 0.1572607832060602 0.2134591905534251 0.2881170617927323 0.1155493193870077 0.2256136450607749 0.2155630690266229 0.1866203637696833 0.2079251278082243 0.2172739678595254 0.172617471535944 0.4433981202664395 0.0481795784286896 0.05281503786841896 0.1851993795054507 0.2704078839310011 0.1760806211207807 0.3207492603056795 0.04599452737425729 0.3133745634134902 0.1438010277857925 0.2479399575944641 0.3081389745566175 0.06459618350038328 0.3130903045490004 0.06623457979953457 0.2982491179016135 0.07526605609288614 0.235356215583894 0.1999486433279147 0.1911799670936917 0.1996521400946419 0.1190501912149019 0.347352159540231 0.05673789512347792 0.2772076140267472 0.1379303601286749 0.1455084140844253 0.1428878741358544 0.2886114071712831 0.2850619444797625 0.2614364559025032 0.04874615698040269 0.2572878467977981 0.4150831573878602 0.01744638293143586 0.05273887608580204 0.1708790234760759 0.1593815686175309 0.3278420746068306 0.2891584572137605 0.381879498951414 0.3471490109391874 0.02244516238734714 0.2189253528311569 0.02960097489089463 0.3287077442252607 0.067041950311288 0.3296241345202944 0.07463489846978497 0.199991272473372 0.09142376426720386 0.4753535537265364 0.3091037242508099 0.01900777590832556 0.1051111818471242 0.1905916788626326 0.0682416893163227 0.3925987873719927 0.1651683044114346 0.1833995400376175 0.1522423197950389 0.2509290105172618 0.2324026558544796 0.2076828977434414 0.1567431160897783 0.2430310423588076 0.2664166320598132 0.1885382059800593 0.1968438538205869 0.1051702657807328 0.05037565299055093 0.0870458414040096 0.3192903680225212 0.2917180254739936 0.2515701121089247 0.07814363407228804 0.2094543732185343 0.2104608774348666 0.2626214782924707 0.2393196369818403 0.2624041660639827 0.2595195752247944 0.194680099726845 0.1324444141898011 0.1509517447945769 0.2563240590907082 0.2097927650466936 0.3191105079083472 0.2107114892728294 0.004061178681421617 0.3157848431193333 0.1664595453595577 0.2385707530051574 0.07560844175123838 0.2035764167647133 0.2199233183678661 0.2606678850967531 0.1936707854900959 0.1875124160673785 0.1382255949779064 0.4516565508176438 0.08740866741407934 0.1075501604360765 0.05775698766768418 0.2956276336645163 0.2340819609669358 0.0667520426738925 0.01463739892468573 0.3463443545997212 0.3381842428347648 0.4547772815065189 0.3604237083534513 0.03793457267020681 0.04630915016900083 0.100555287300822 0.2538858717461661 0.2806121084031207 0.20660442137742 0.01443769674594456 0.2444599017273486 0.2774447302314889 0.2502226803710987 0.1646033286962436 0.1110199261401729 0.1967093345609959 0.1054997152400463 0.2934874628657633 0.1111025597611101 0.2313790078039581 0.2585312543291223 0.3224147671589852 0.1487207867824216 0.1417799453495223 0.09511950468679843 0.2919649960222724 0.1590301552314421 0.1577521924682267 0.2159639825540493 0.1833935187356362 0.2838601510106458 0.06648043323776606 0.5750202161287914 0.1363669778725308 0.1607733588179078 0.06135901394300394 0.2197762931361181 0.2677444154494196 0.2554979264344413 0.07797256180091518 0.179008803179106 0.3555320561689928 0.3230824090696729 0.05470575215798135 0.2428374689521219 0.02384231365123097 0.2715170185738995 0.1550725652386981 0.02478520489302722 0.3198771742065855 0.2287480370877897 0.04141528598699546 0.330638328280201 0.2393348237527909 0.2772894782511055 0.1113220837289073 0.2367650398632568 0.388496432029263 0.02567504572022774 0.04195503281098752 0.3071084495762649 0.02883013242129235 0.1848855564325177 0.2980136806103605 0.2757717267385768 0.2124989037972527 0.3692377362511465 0.2114039877995176 0.05478229598156686 0.3271753752713824 0.0374006046963865 0.179165410855687 0.06900567169904241 0.1464777926952922 0.195851713839492 0.4094994109104865 0.184429182616529 0.3287547849583425 0.05627111011033572 0.3206822787660447 0.1098626435487481 0.2430822042057941 0.002511756415444464 0.1627757699231119 0.2712417844633908 0.3203884849922586 0.1770477752656229 0.2779920497702082 0.1657135257348052 0.1680040194470336 0.2112426297823302 0.08110022649528825 0.2330012023823955 0.3007820145963631 0.2042931576053008 0.1808233989206526 0.1042674661363248 0.2788348323389436 0.2889073584849657 0.284019511808999 0.04397083123076687 0.5406387309074974 0.1114260171570965 0.06788655773876413 0.0453845129629281 0.2346641812337138 0.001661686075338703 0.2782118113718305 0.1448615038258977 0.2731195475925624 0.3021454511343708 0.2304463530634896 0.1958506932321627 0.2070618904638897 0.1769196750692452 0.1897213881712128 0.2443582510578248 0.1911235246084237 0.2417044020488468 0.2965722663499331 0.02624155593497144 0.07503297647167308 0.207092242093313 0.2880660960970179 0.2770739388733847 0.1527347464646112 0.2591004876874018 0.1002107291227636 0.3849720031308237 0.1702570895297781 0.08545969052923283 0.4599303135888502 0.04271155387610334 0.03651175344751462 0.1976247730284156 0.2632216060591163 0.02892266153940589 0.2713187015484107 0.1422610403158203 0.2645380351408265 0.2929595614555366 0.06760958841203467 0.416376923783409 0.1007780416442528 0.3415379770917233 0.0736974690685803 0.3817837535280885 0.3578463480570209 0.001107551596422474 0.2341340256523236 0.02512832116614442 0.245051367557248 0.2243459250516843 0.2050821009608146 0.09326162205834572 0.2322589843719074 0.1615913555992135 0.03033492375339146 0.06869211338759476 0.1768406773318369 0.5625409299279635 0.2923870035626899 0.1936002889556545 0.03677617429279739 0.1580882956541735 0.3191482375346846 0.1411784295535092 0.1703894003187522 0.3311686767049631 0.1430100620852071 0.2142534313375684 0.2883799581647222 0.2627802865912055 0.2190096377534058 0.2189021171778794 0.01092800031278719 0.03052983570143756 0.2890375073940375 0.2841483877977241 0.2063812064657103 0.1899030626410906 0.3563294867040407 0.09926703169651578 0.1497785824916555 0.03937523177941141 0.3552496673283767 0.03532694975017121 0.2229742150030917 0.03039721929780575 0.3085008606139592 0.4028007553349722 0.3393859067815309 0.005124806715264028 0.155533465871438 0.3724099845372231 0.127545836094544 0.008210100616366572 0.3853631203254814 0.1189124661972866 0.1979438204984503 0.2895704923624152 0.2341484231639147 0.2202620236418707 0.1450177100669983 0.2133230913668777 0.1872487517603386 0.2993447166942501 0.007777284409101203 0.3228380360338556 0.177101414174032 0.1929385486887611 0.09003125385072139 0.1581848121968427 0.1772619834433002 0.2551165578196248 0.3194053926895109 0.2292298937784532 0.1951715562299793 0.2743213623335001 0.1603861068959699 0.1408910807620976 0.06940894070702638 0.2649011783777054 0.2278820375335111 0.3123480266849556 0.1254598166968015 0.1575345569907089 0.2619623838658515 0.1213324269204619 0.293668706095628 0.1655019261273498 0.02843257819329399 0.01520157645978104 0.4326819077533971 0.4134058346791519 0.1102781029143759 0.07373622196883342 0.3164084333847579 0.3506047801104463 0.1569409976077086 0.1023095669282537 0.2963885558357779 0.1063897961714971 0.2722226816058221 0.3242030843014853 0.0007958820854177844 0.3514879034620124 0.1432985765333016 0.3703503016812133 0.007131978208657961 0.1277312401148148 0.1351452344178169 0.1810074236460573 0.1199990035374415 0.4237207911912709 0.1401275472074134 0.2312301307363207 0.06518492730254435 0.2742714221582947 0.2754166246759059 0.1538968951269343 0.2567808147449993 0.3271756204838194 0.05951408524452809 0.2717457325374399 0.08478374698921339 0.00546002082688362 0.2954462300526291 0.2502040471700793 0.1369649038867465 0.3119247980636614 0.01690751626204761 0.2646671763570533 0.2557810169576487 0.07479915274418188 0.3878451376790685 0.03137557738784753 0.3660388691063506 0.4510704019906491 0.1110157735924624 0.04049937792269053 0.2307214757660393 0.3098532215866278 0.2326947807192601 0.1294288501618554 0.09730167176621749 0.3758866919614426 0.07166592039214852 0.04339782716282219 0.1899229373365075 0.3191266231470792 0.02040144784468581 0.1321295382252934 0.2743089832181639 0.2862646703959637 0.2868953603158932 0.3558609579903844 0.2423292808779489 0.1938130836416728 0.1670064688262974 0.04099020866369658 0.1700925259017118 0.0917871719578181 0.09788169242986727 0.09679206604243984 0.543446543668163 0.2542286380869051 0.2130067074948976 0.3222805482648001 0.1559346748323127 0.05454943132108477 0.2936157482199484 0.2614611380362596 0.1958595105606414 0.2291389935977977 0.01992460958535281 0.2277469585203554 0.1777716272969039 0.1083260129240318 0.2206471642940521 0.2655082369646568 0.1773017319963533 0.07277423275600158 0.04993416388129261 0.5147118403727338 0.1852780309936187 0.3433775630531115 0.2938853080243166 0.1899435584507766 0.1414358821711098 0.03135768830068561 0.09043895055499499 0.04165265164256084 0.1877873079941706 0.3920422693127023 0.2880788204955714 0.2231824930293198 0.2907769744227312 0.2019988653783469 0.04657983994592424 0.2374618272236779 0.180012886597938 0.03047680412371143 0.1812242268041233 0.4128994845360834 0.1953865979381439 0.04576287379382834 0.1843985860322913 0.1745867965988346 0.2910193942868056 0.3042323492882402 0.2931137724550897 0.2926147704590822 0.1005888223552891 0.0562574850299401 0.2574251497005987 0.1402186021731055 0.2726553544616472 0.1327919404575471 0.2478244724648451 0.206509630442855 0.2733229298930901 0.1164474513186843 0.2302100396429235 0.2038072714231714 0.1762123077221308 0.1326193910414729 0.2609906937227079 0.0007310663689711726 0.3075023216296858 0.2981565272371624 0.285644361294814 0.2036634180299342 0.05367864601461891 0.3129024538809604 0.1441111207796725 0.2711156099961926 0.04892227969651092 0.2679302755360737 0.1457638766356184 0.2662679581356044 0.09037790734281127 0.317764541436326 0.1361146440669425 0.2577224817720464 0.1980204253818738 0.09740058141175774 0.03839857751686394 0.4199429877790626 0.3223448392650513 0.1219130140272645 0.04371823256104017 0.3011475256478221 0.03317845894789376 0.2499298387851192 0.3720259440581247 0.2717760450279836 0.3031030798040605 0.209090235825602 0.2073868745966414 0.008643764745712487 0.07726587254519923 0.1233881762881881 0.2048901164071376 0.1224901299625529 0.4719657047969222 0.2868828828828827 0.1305585585585588 0.2691051051051053 0.004288288288288244 0.3091651651651649 0.4514066315655742 0.006535578673969208 0.05331507700125633 0.245670002681987 0.2430727100772134 0.0508886586434999 0.09494965596025565 0.4312717515475138 0.3637788581599871 0.05911107568874356 0.08870387929687076 0.2488564253784998 0.190484625563974 0.1995081847641472 0.2724468849965082 0.09616380175592509 0.3384855944469667 0.1575788950988379 0.2784017073248031 0.1293700013734672 0.1467442316221598 0.1992449794225952 0.23019876019845 0.1790698394034095 0.2447421893533855 0.05252532667743339 0.09425928644839228 0.5886250183526651 0.240566730289238 0.02402363823227103 0.09818748229963226 0.239308977626735 0.1698810535259152 0.1697960917587041 0.3228263947890135 0.09982909419925543 0.2488299096321642 0.01176234040414198 0.28957921428013 0.3499994414843086 0.2923102536117876 0.1335022845409619 0.2958896760946439 0.1753362067370834 0.1029615790155231 0.1378357981277248 0.3413459222505804 0.1131236250943363 0.1449491786694923 0.2627454758578662 0.0319764713244271 0.4190106692531467 0.1416100872938883 0.03053721723350385 0.376865554895034 0.1950238364615689 0.2539912776923569 0.1955556844884064 0.3117886532640999 0.04364054809356788 0.1332625234660627 0.0201314099397296 0.3005261337812489 0.1546413397885577 0.391438593024401 0.1359988326280481 0.1906829125930238 0.1010323945717212 0.3111046257113673 0.2611812344958395 0.1246790168745447 0.1035094155050148 0.2101980924431414 0.1106168989973093 0.4509965761799899 0.246085738582366 0.1138345588848299 0.2501208877328165 0.2698214196388344 0.1201373951611531 0.1766637815534549 0.2590436442536906 0.2518466700655613 0.07239658054801222 0.2400493235792811 0.09834480738244836 0.116171085396223 0.435462135637914 0.272359748059171 0.07766222352424358 0.2246431548239236 0.3720827255678198 0.1581839966659717 0.08939362367159955 0.1556964992706853 0.1430700262023914 0.05215641958597633 0.3264867684130765 0.2543618910427587 0.223924894755797 0.1384464895844805 0.3630827730629306 0.1908960652485406 0.2249531577207113 0.08262151438333706 0.2961973801348054 0.1392482628652124 0.3561213046142401 0.1157781554576679 0.09265489692807438 0.2722356440921259 0.2105217907162691 0.1070234113712389 0.1729329126221975 0.2372862411981687 0.2976297507151749 0.1619125459746643 0.06743972210870386 0.3092051491622282 0.1638128320392288 0.0121199151800477 0.6243409917709036 0.1656129019707085 0.002431764682995179 0.1954944263953451 0.2776851200643085 0.4086406108710898 0.0312468602431428 0.1507887069225329 0.1316387018989261 0.1669142149861947 0.2817575930686411 0.2585070932114615 0.004113110539845611 0.288707988193857 0.1257052797478309 0.1381245074862082 0.1728132387706862 0.5133490937746309 0.05000788022064386 0.02217044848995559 0.1440521482656519 0.210179321626404 0.23914094159345 0.3844571400245387 0.33951141185916 0.07748595022364709 0.184218373666703 0.1614290629659326 0.2373552012845574 0.1621706673193537 0.05853249182678238 0.1059109424989945 0.1341806674941853 0.5392052308606841 0.1446570148224723 0.1273526370217093 0.2810582557738888 0.2353412616339142 0.2115908307480153 0.2573827012442038 0.1648005719359376 0.09492291548954497 0.3288285691223858 0.1540652422079278 0.1281663473711175 0.05519891551553009 0.1874656897343748 0.2632899763609208 0.3658790710180568 0.2287262537602505 0.3133267400173188 0.08203527424073279 0.2558824741418415 0.1200292578398565 0.04980464647313124 0.05667352854682587 0.003003823047514821 0.4013359660547117 0.4891820358778163 0.2858291004950818 0.254790072654793 0.3185719796823764 0.07506590368417639 0.0657429434835724 0.2904510816890885 0.1774628099908417 0.1550821158958945 0.1889866000373463 0.1880173923868291 0.05093559585716115 0.1854338024517082 0.4376917647397755 0.204477031445817 0.1214618055055383 0.1287161263052427 0.4601343206474948 0.2584028680119606 0.1399721339449251 0.01277455109037685 0.1944528541432693 0.2533131500561555 0.1910835490014155 0.04708237706919266 0.3140680697299672 0.1113228709774494 0.2915203851800517 0.287316597211457 0.222581910033466 0.0872582365975758 0.04685591511780187 0.2062749253160279 0.2128824334466471 0.07366856503759947 0.4603181610819236 0.2390314706076395 0.3350707044050024 0.08794616348881704 0.2100239713223838 0.1279276901761572 0.1306705615247794 0.2336336423189848 0.1564547150438895 0.2701913204436651 0.2090497606686811 0.01216381886445485 0.1997739636809452 0.0001915562025898411 0.4269979311930125 0.3608727300589976 0.1881525872997577 0.1262648380776766 0.03436671660712254 0.4904229572432856 0.1607929007721575 0.1838813389890033 0.2690406073541716 0.1543061446879027 0.1931033240573142 0.1996685849116083 0.444998089190699 0.02304729987947187 0.07415409942087772 0.325058059205691 0.1327424523032603 0.1707762340556676 0.06963345820095764 0.1452653041870173 0.2806676466404294 0.333657356915928 0.3395484015202329 0.3136373798345632 0.1757433489827851 0.0484685893136597 0.1226022803487593 0.1828006825794759 0.2512798365180025 0.3207702193102578 0.1657361956727831 0.07941306591948082 0.2492257962431351 0.02475191573046393 0.3024819729198216 0.3610615068152523 0.06247880829132719 0.1845360252925838 0.1210272339009364 0.1734427866215542 0.09400133118864054 0.426992622996285 0.1968943767372258 0.1287283515073764 0.2803212529399178 0.2012641650630751 0.192791853752405 0.1851398586006222 0.2094401253752894 0.1591667473740746 0.2616856989408249 0.1845675697091888 0.2381748897800031 0.2289585041097103 0.04827525090280704 0.1289518576777372 0.3556394975297423 0.1787052094943991 0.04072943885102434 0.1051400588375025 0.1940906682259213 0.4813346245911527 0.03548139034143336 0.1048139034143343 0.1620270685942785 0.4484620116887114 0.2492156259612423 0.0571896632424308 0.05911117680388229 0.324661887517553 0.3149065109747978 0.244130761461336 0.1889513467690643 0.2513296127723577 0.06633430552331768 0.1806658660396211 0.3127188688956392 0.2670409086735824 0.397164329840123 0.2897708642104805 0.002019857560694133 0.04400403971512008 0.1851997191127292 0.1632554008839705 0.3098331199140748 0.0863315295964308 0.2553802304927947 0.4033199236609731 0.2093419191849892 0.2384633339283047 0.1178174728488436 0.03105735037688961 0.301186344927776 0.07187244197977612 0.2635553454696351 0.1352940498287892 0.2280918177940237 0.2209530575236965 0.3567889925407964 0.01061860873791835 0.1097567815146476 0.3018825596829411 0.02943483275663207 0.3178162245290273 0.1213225682429835 0.2655594002306804 0.2658669742406768 0.2413221956613216 0.2709569982004242 0.1564198293536748 0.2507498231760273 0.080551153608552 0.3347788170925468 0.04366316644566288 0.1138109402812123 0.2270723578109879 0.28067471836959 0.1200750880967801 0.2781443140526714 0.3482045821303503 0.07112511389459121 0.1824509018256069 0.2787118294976271 0.1565774155995343 0.2736858601235783 0.198699292558431 0.09232560222082938 0.2067297225380394 0.02278719852923388 0.1602602868961512 0.1283049904448583 0.4819178015917172 0.1584547341467674 0.008350953424763837 0.2180753040678166 0.3030591065158775 0.3120599018447747 0.0959638767741836 0.4202407187658926 0.08477553976791133 0.3476706375502781 0.05134922714173434 0.4982652735683525 0.06615887701387783 0.3608031583984683 0.003369755941936516 0.07140293507736484 0.106479621037762 0.1227608714183075 0.149587793324322 0.3648485734117563 0.2563231408078524 0.1120577098837969 0.2046122209165689 0.1894666405535971 0.06549484266875574 0.4283685859772814 0.07376727468032808 0.3059038608523211 0.2208886777252162 0.2154971183044476 0.1839430684376871 0.03915670201298544 0.2365571181469506 0.1509613697325211 0.3556817327216668 0.2176430773858761 0.2234936092513693 0.09257455873402316 0.1046561168594033 0.2964394400486917 0.2828362751065127 0.1352041634162242 0.04887953236372183 0.1609262959915364 0.3392927749340116 0.315697233294506 0.168010595938224 0.2063958815787282 0.1455442080535794 0.2636989154157572 0.2163503990137113 0.1069263306309484 0.08565385971096218 0.03722241804723298 0.4129538244624604 0.3572435671483961 0.2946223580808943 0.2678981409810687 0.2084147829395325 0.04574734660141953 0.1833173713970849 0.44094159473181 0.4059819276297182 0.01175646740374646 0.1058620736092221 0.03545793662550334 0.2104621635347889 0.4090570509564916 0.138259691890977 0.2235314034196725 0.01868969019807007 0.4407393928365636 0.2621235556364295 0.09613926545961858 0.181815424741455 0.01918236132593333 0.411595790346216 0.1166091860447905 0.08786394114773745 0.371364288991844 0.01256679346941192 0.0005995620590177608 0.2584199367418578 0.2488617010183867 0.2479753918876648 0.244143408293073 0.1515790303197463 0.2929332729171184 0.09724383853109793 0.2922141886167968 0.1660296696152406 0.2827171809756593 0.3009325942414853 0.1044330961837836 0.1303595070781138 0.181557621520958 0.1399240560885154 0.2343412125760754 0.2045804136045121 0.1795828286506217 0.2415714890802754 0.1366742596810911 0.07234257235021592 0.173655807127241 0.4576141627555025 0.1597131980859496 0.1384458418356734 0.2981614125681926 0.2959126306583912 0.1491587889892982 0.1183213259484445 0.1646121983364892 0.01739929782591846 0.2746563887873673 0.3435558361298463 0.1997762789203789 0.2004212798551652 0.1224670983914752 0.01006197340018101 0.2036940324489933 0.4633556159041853 0.1463053831721748 0.1517414730360322 0.1491918025689132 0.186162024342137 0.3665993168807429 0.4091773937461456 0.1565956776758651 0.09084228896849442 0.1592462832473855 0.1841383563621095 0.1483342744212311 0.3527950310559006 0.3665537361189535 0.007171089779785433 0.1251458686241296 0.06087781179289233 0.000898442699321177 0.431185944363104 0.3386962598163184 0.1683415413283642 0.2845843642243479 0.05221016539712847 0.2926204437864058 0.178274337145195 0.192310689446923 0.05181079083518109 0.07919438285291947 0.3477457501847745 0.3556910569105691 0.1655580192165558 0.2748584597001337 0.2227185221011504 0.2411827742847117 0.02531129382533404 0.2359289500886702 0.1145184636617632 0.1095813556849676 0.2606007562751764 0.3545516769336071 0.1607477474444856 0.312493111429516 0.1037418714868291 0.1073790367023035 0.1194891436129175 0.356896836768434 0.1867023047612001 0.2314102326957938 0.1359180200510524 0.155377159557545 0.2905922829344088 0.1461130959714181 0.4120980657878529 0.3595950884973919 0.05966900743295964 0.02252474231037745 0.07113395599573749 0.3873001943208175 0.09668400927725174 0.2262771892434023 0.2186046511627908 0.3806564525458673 0.005191106892306783 0.09148213517642345 0.08216780623822734 0.4405024991471751 0.2250246524353828 0.1421508034610629 0.3032180108609601 0.008652657601977747 0.3209538756406164 0.5483098169775754 0.11310750585707 0.2003382127569625 0.1369585513220244 0.001285913086367559 0.1868106904737565 0.3036426210515556 0.1282584250519645 0.04385456775820355 0.33743369566452 0.06184960470674758 0.1018937304651591 0.3533247533247532 0.1503830360973218 0.3325488754060184 0.4295689414393447 0.2018035032651922 0.07126231928391871 0.09256919414260441 0.2047960418689399 0.1752469701598942 0.04013901619309502 0.3767695284652201 0.09579641511355529 0.3120480700682355 0.3173715415019762 0.1876482213438736 0.1363636363636365 0.2903260869565216 0.06829051383399214 0.1247464382732892 0.1973333016999015 0.3386161164426625 0.03398616828194879 0.305317975302198 0.1422871348663767 0.03566190180236172 0.3551522684897453 0.06344313238036051 0.4034555624611558 0.0875338859859349 0.08042273995206851 0.1665815424507917 0.5958236750088397 0.06963815660236512 0.14818629879782 0.32709208021488 0.05309411427230294 0.2760972175137559 0.1955302892012412 0.3665230471140121 0.2498725270242708 0.153630430348766 0.06088109320823985 0.1690929023047113 0.2295352363723421 0.2397155196112321 0.1792989083685854 0.1872888344994546 0.1641615011483858 0.256804193114063 0.3055515483746863 0.3792796691671459 0.03504279669167137 0.02332179265243351 0.2194198095168717 0.2918070402272717 0.2213319250450684 0.1963833700580929 0.07105785515269519 0.3132953455310373 0.2853014944694248 0.1778684450814283 0.1509841768860011 0.07255053803210862 0.05690981555287843 0.2963732902559482 0.1900877878262276 0.3782821127338669 0.07834699363107876 0.3062684348654111 0.2434215110202754 0.1656292821144065 0.1439719441670345 0.1407088278328726 0.002382861725283538 0.4283652193836637 0.07066101500744644 0.3462023141253294 0.152388589758277 0.3167702475106125 0.1728043651692587 0.32254188375964 0.1120347480079975 0.07584875555249133 0.2444740682026984 0.1849813550467474 0.2801516816486823 0.2865017744230876 0.003891120678784387 0.3911695591857534 0.06678746354859713 0.175448033747629 0.1106848616970075 0.2559100818210131 0.2033738771258076 0.1042319677599173 0.2794049109468243 0.199490080326056 0.2134991638413948 0.0738382558837255 0.08622797075360582 0.3430673155988178 0.3459897326488432 0.1508767251150076 0.1921527932201714 0.2765300323672572 0.05961999357596422 0.08671212907370349 0.3849850517629036 0.1605990689317217 0.1731154034629206 0.1678781443972557 0.2838431068278338 0.2145642763802682 0.02830978412521244 0.3985692904796934 0.2124121661043606 0.194287308794805 0.1664214504959286 0.2993632075471697 0.3453066037735851 0.01075471698113208 0.001367924528301889 0.3432075471698112 0.2199253348949562 0.2860405534001904 0.275441036527341 0.07451870287680262 0.1440743723007101 0.1449797289086753 0.1420302022690364 0.1250731858201784 0.2829004783314733 0.3050164046706366 0.1313019468232721 0.1720604930831008 0.2101840301624454 0.3885937740900108 0.09785975584117078 0.2357187397613537 0.1994039126161262 0.1685109441220924 0.3450754092816298 0.0512909942187979 0.3643664913923504 0.220929674181853 0.09351965233258892 0.1917933203678361 0.1293908617253716 0.09237278821848546 0.3407847016155617 0.1715902846466647 0.1929882404659854 0.2022639850533028 0.2491693797478921 0.2647049002420902 0.2273061190416564 0.1637615827698472 0.09505801819851396 0.0364897654451565 0.05512349903564985 0.2601101225657934 0.4350152429540222 0.213261369999378 0.2635259978009274 0.02667225881046033 0.07419036715446786 0.3369228850927803 0.298688491141364 0.1707560649592085 0.249665831886552 0.2129995237144128 0.1484474626269454 0.2181311168128811 0.3553612449055205 0.4342497221193035 0.04712856613560579 0.01210818821785847 0.1511522786217117 0.2212513174283798 0.2762096387850916 0.1413049726933027 0.1469004503209735 0.2143336207722525 0.1897218352300299 0.2077391481301755 0.1207519997495422 0.3891019520060111 0.09268506488424147 0.1164847971183387 0.3191863544867044 0.2035491047780486 0.0479288060175866 0.3128509375993217 0.2171552431658917 0.02453755339969263 0.1109240514320577 0.33674951072203 0.3106336412803279 0.2685253402613515 0.3799940543125626 0.1188749725335095 0.1825455297478244 0.05006010314475209 0.007779925927651337 0.3004588758705831 0.1800680161188887 0.2844215135915762 0.2272716684913008 0.2950615166305421 0.4600258853248898 0.01317656598418801 0.08570225638946519 0.1460337756709151 0.1957379543131508 0.01217048182747388 0.2850079631082267 0.3112981054933569 0.1957854952577919 0.2989917345682641 0.23635617562577 0.116771205815114 0.2773413838247611 0.07053950016609084 0.03779905724704278 0.3690373840087772 0.1996383149032033 0.2354214224304076 0.1581038214105692 0.5661138276957239 0.2106417301003145 0.1726319503957241 0.02157584312143962 0.02903664868679784 0.2896977466869183 0.1988405958668355 0.1377489165424129 0.09006284750769915 0.2836498933961341 0.2931090928932633 0.2235209952589362 0.01852772489723663 0.3069927610917785 0.1578494258587853 0.2246519293061285 0.2913905779394206 0.09085639597658889 0.07128487810422193 0.3218162186736401 0.1751474557632688 0.2586224132760137 0.4573827851644584 0.09221233629910841 0.01663500949715068 0.2037803328111583 0.2545148228061385 0.2525049507876929 0.2683622498743825 0.02083764372062792 0.1537654258547439 0.3457035201294738 0.04452002832288129 0.3247015982197066 0.1313094274731944 0.1613388204416026 0.2526405646794995 0.3599067361473863 0.1118656592811569 0.1142482194503548 0.3187190958323434 0.09280668707322831 0.3622792559453817 0.01745938309394865 0.208735578055098 0.3501705029838039 0.1220099292914093 0.001191013489794897 0.3040093275161692 0.2226192267188227 0.2198337476693644 0.2330407085146041 0.1560363579863252 0.1908172778123012 0.2002719080174052 0.1800542723554987 0.1827933701094334 0.1969857184717079 0.03562101079077129 0.4045456282725888 0.01185379601144494 0.1861325645935071 0.3432652797797046 0.1297356022631916 0.3290127573521519 0.2305405062219581 0.2336197409633461 0.02774485736053531 0.3242614069245771 0.1838334885295836 0.4168264769563858 0.1233941643468413 0.1250438189504065 0.03179709248376082 0.3029384472626057 0.3333129278769131 0.1506738901982403 0.07349025129319732 0.245385816167242 0.1971371144644072 0.1727147090670779 0.2106627913603436 0.1819399327520365 0.2196030660511798 0.2150795007693621 0.2604855262226596 0.2164201288130779 0.02754618161228708 0.233647108783357 0.2619010545686183 0.309282514503927 0.4976867151354919 0.1375670118234579 0.01477931996768752 0.04068443856943559 0.3608839978817114 0.2689063690729916 0.3102000749150736 0.01137934152232601 0.04863021660789756 0.1456253981737104 0.1225313229985167 0.008529765696892597 0.3950237134564995 0.3282897996743809 0.2516372001558361 0.2404504387510895 0.1685991503255854 0.2714876723002434 0.06782553846724546 0.0964703373262709 0.3853955615587872 0.05613810590172889 0.1894809180203539 0.2725150771928591 0.2335819537929824 0.1449090808425136 0.2543759046436733 0.1388741685187947 0.2282588922020361 0.2899834898056793 0.28827385429998 0.1464913394749823 0.1308603862799379 0.1443909301394205 0.2513808152695499 0.2843211821589302 0.1840785208525775 0.1383441082197116 0.1418753734992309 0.08699454676407897 0.2277840655760267 0.03376547655795201 0.3563466748979658 0.2951092362039765 0.2920226387484053 0.01511760528524575 0.1307215563063448 0.3321676816802751 0.2299705179797291</probabilities>
			<property id="VegetativeInfiltrationAndInterception">VegetativeInfiltrationAndInterception=((ObservedVegetationHeight/MaxVegetationHeight)/3)+((ObservedVegetationCover/100)/3)+((ObservedSuccessionalStage/MaxSuccessionalStage)/3)</property>
		</cpt>
		<cpt id="SlopeClass">
			<state id="Level" />
			<state id="GentlyUndulating" />
			<state id="RollingToHilly" />
			<state id="SteeplyDissectedToMountainous" />
			<probabilities>0.07656432131095718 0.2156907305458884 0.2951588978350329 0.4125860503081217</probabilities>
		</cpt>
		<cpt id="HydrologicSoilsGroup">
			<state id="SoilGroupA" />
			<state id="SoilGroupB" />
			<state id="SoilGroupC" />
			<state id="SoilGroupD" />
			<probabilities>0.1122406778723694 0.2896737232443445 0.4285992087106656 0.1694863901726204</probabilities>
		</cpt>
		<cpt id="PercentImperviousCoverClass">
			<state id="VeryHighImperviousCover" />
			<state id="HighImperviousCover" />
			<state id="ModeratelyHighImperviousCover" />
			<state id="ModeratelyLowImperviousCover" />
			<state id="LowImperviousCover" />
			<state id="VeryLowImperviousCover" />
			<probabilities>0.007123243586313034 0.01939845071940006 0.04441913586745949 0.0282053303779334 0.01258900165641456 0.8882648377924794</probabilities>
		</cpt>
		<cpt id="SoilInfiltrationClass">
			<state id="VeryHighSoilInfiltration" />
			<state id="HighSoilInfiltration" />
			<state id="ModerateSoilInfiltration" />
			<state id="LowSoilInfiltration" />
			<state id="VeryLowSoilInfiltration" />
			<parents>SlopeClass HydrologicSoilsGroup PercentImperviousCoverClass</parents>
			<probabilities>0 0 0.1028381568317627 0.4932808994292672 0.4038809437389701 0 0.08687085766856857 0.09387673411919403 0.5106415937971984 0.308610814415039 1.503273766884696e-005 0.09124313802867992 0.2386061474408086 0.4537520381614442 0.2163836436313984 0 0.1617952659749097 0.5167660144146294 0.3190926835590177 0.002346036051443172 0.004259728123039126 0 0.6861104244823505 9.50978172758442e-006 0.3096203376128829 0.04706628769422989 0.1600857206796364 0.2854013320813748 0.3299106969123444 0.1775359626324145 0 0.1960258020227025 0.2288881812747478 0.2259719807430091 0.3491140359595408 0 0.1048914304666277 0.2735045548462382 0.587526716335762 0.03407729835137206 0.001332150251251329 0.175455731548451 0.2691904584075528 0.5223040586856261 0.03171760110711876 0.04807191425645451 0.1093312218900678 0.2423111180490055 0.5714404742597142 0.02884527154475791 0.1751764418787137 0.3586808825551234 0.2443673784956923 0.22177529707043 4.081799873240255e-014 0.09912949807110208 0.3823903121123049 0.1875993686055151 0.3263446763593476 0.004536144851730315 0 0.06774330277584056 0.2220143405239128 0.7101112307730695 0.0001311259271770616 0 0.03539540994420329 0.2427813284470177 0.6562740198602535 0.0655492417485255 0.005695522599109354 0.04600369255325393 0.4131326151139252 0.5103992625847142 0.0247689071489972 0 0.137757928983908 0.3520038693765802 0.4542296028944491 0.05600859874506273 8.669611185717249e-005 0.127919455444793 0.4629993088245093 0.3660644481777743 0.04293009144106615 0.01497127929312157 0.1976782892721172 0.3235891971135989 0.3747032739246206 0.08905796039654197 0 0.1362956569978384 0.1448686559589541 0.6205431159743272 0.09829257106888029 0 0.06631728517813942 0.1100156669884612 0.5673108827608708 0.2563561650725286 0.008184436846553171 0.08670067082168712 0.1428079528771246 0.581192795940176 0.1811141435144592 0 0.07524387665236017 0.2828296348090877 0.4844997700760276 0.1574267184625245 0.003250853083545773 0 0.245358004093912 0.6211064874464385 0.130284655376104 0.003241926741313002 0.1057382222169022 0.2693047104456398 0.5470870549592498 0.07462808563689513 0 0.1091107079234307 0.2601854374696052 0.3370262748523433 0.2936775797546208 0 0.04108781093759222 0.1838093411556993 0.4304844723456921 0.3446183755610164 0.01155828145564142 0.0405459529007642 0.3370107695017104 0.4261371312877052 0.1847478648541787 0.02700514574162633 0.1088269775396655 0.4707290681028696 0.3563643011600839 0.03707450745575467 1.411710067661909e-016 0.06883363626458933 0.2016805491784794 0.4460664178665969 0.2834193966903343 0.08622356990391734 0.2168804187505138 0.3342420706910292 0.2427757453352573 0.1198781953192823 0 0.001964387754003252 3.007071263248195e-007 0.8592077062405705 0.1388276052982999 0 0.3516101081440308 0.2128494123262717 0.03547282737448695 0.4000676521552106 0.0625273026049649 0.220356492102786 0.3220494455630105 0.3471799338016351 0.04788682592760352 0.1169333219209437 0.3932818470157453 0.2142230143849421 0.2749620177763013 0.0005997989020676996 1.063971277542655e-014 0.7004544481811903 0.1988929970067299 0.09950584607520953 0.0011467087368597 0.1854017424864535 0.5233489559023536 0.1715267939661566 0.1108829578041554 0.008839549840880747 0 0.04415719806878542 0.3243258379870597 0.5544926846754436 0.07702427926871149 0.008237909414182502 0.03593099227171947 0.2878468245600299 0.6055512520054442 0.06243302174862382 0.004386391597488937 0.05096079875439597 0.4019220540154873 0.4632287553068021 0.07950200032582573 0.01959579607963709 0.09709964544245847 0.524268867538608 0.2623017019959705 0.09673398894332598 0.01318797767126665 0.1230080180619595 0.6146538863080187 0.2318995087276342 0.01725060923112104 0.03545326478665855 0.2505332735490535 0.39177649399781 0.2455125757918987 0.07672439187457918 0 6.346022916648593e-006 0.1754704517831606 0.614357748597277 0.2101654535966458 0 0.02769095162562529 0.1393876428983321 0.7443694316884056 0.08855197378763678 6.844694934908936e-006 0.02054263828352893 0.2961908278343495 0.4937536090979248 0.189506080089262 4.40762236371276e-009 0.1094949530158093 0.4410957668040733 0.3011416251243575 0.1482676506481376 8.774156628043301e-015 0.04591947435971479 0.3137237023139314 0.3271471127291629 0.3132097105971822 0.02321257886359785 0.1565586038030661 0.3028118009602626 0.3828162627742147 0.1346007535988588 0 0 0.9576251163366876 0.03425633152455459 0.008118552138757958 1.595042211643615e-006 0.2039078779158211 0.06618357030640079 0.4222209038234673 0.3076860529120991 0.05445481389540435 0.07038545524859786 0.3282491658653385 0.4560002779258833 0.09091028706477594 2.47546855529258e-005 0.2239461071891833 0.3823088459060101 0.1935617828360638 0.20015850938319 0.07896488444243215 0.1416181882873223 0.4033547282314711 0.2469615033257173 0.129100695713057 0.3442023273521718 0.2735542268690754 0.182212929834081 0.1276796101110957 0.07235090583357604 0 0 0 0.9901616555139902 0.009838344486009803 0.1511269978684438 1.119728698344924e-006 0.07347484394333931 0.7749104151559325 0.0004866233035861006 0.05086889823608171 0.3710602530709231 0.2857155697628918 0.2050061963349434 0.08734908259516006 0.1692678067330301 0.5323931576930403 0.1860742536046448 0.07704628419998456 0.03521849776930028 0.06883873579141939 0.7658998746545609 0.1652607178407904 6.717132294968311e-007 1.663812009952387e-022 0.238195076393447 0.6072211170627094 0.1157853609551941 0.03647618761243789 0.002322257976211663 0 0 0.4270462825516116 0.392891984992076 0.1800617324563123 0.02310134833980407 0.05756583861072478 0.2885252550466373 0.5429420226622536 0.08786553534058024 0.01639209132160344 0.1589700112156077 0.3770304461922204 0.4071489657015824 0.04045848556898617 0.04441266901018978 0.19679160873067 0.4469330820990352 0.2778805975958018 0.03398204256430323 0.06046954811125424 0.1991574291008478 0.372252777769454 0.3185305103224097 0.04958973469603437 0.1406989207338574 0.4349253424961389 0.2440888111093075 0.1482892087353192 0.03199771692537696 0 0 0.4225007145598638 0.574874313946838 0.00262497149329817 0.0003392240445189218 0.07636064735133857 0.5480204955121628 0.375236260567629 4.337252435067823e-005 1.975409491644464e-005 0.1686421296926962 0.1783966179476602 0.4516956430948868 0.2012458551698403 0.0005877005431262582 0.1672465802511954 0.3066072725056466 0.4666271859804715 0.05893126071956026 0.4095639851540018 0.0005015008609144567 0.3391060020308323 0.2504609194352309 0.0003675925190204744 0.3914283922734514 0.2594357878277533 0.1747589235569822 0.1240546252641963 0.05032227107761664 0.1128158595817955 0 0 0.07866621657778329 0.8085179238404212 0 0.5903964162149955 0.01737588112734215 0.3907067648035055 0.001520937854156897 0.4506013399614391 0.5347239803816162 1.935758530215394e-008 0.01456406989391098 0.0001105904054484043 0.3995105391002374 0.3984153689701561 0.1603081392222736 0.002134432641237287 0.03963152006609567 0.06251591775531881 0.8644428669304995 1.040084595029469e-007 0.07304111130572223 1.881254640474564e-017 0.8611505750625663 0.1201473760483604 0.0133023189310731 0.005224636955205973 0.0001750930027941076 0.003379261813989587 0 0 0.9943113110097923 0.002309427176218058 0.8373530285195256 0.1117662764988967 0.01006505543100489 0.04044722072130703 0.0003684188292657069 0.2405533665152414 0.5858680475810176 0.1735761408230261 1.427976466046826e-006 1.017104248690109e-006 0.3198392235605004 0.6514407575376762 0.02872000384828631 1.496770094096974e-008 8.58360488018852e-011 0.1638490195271883 0.7602157730874041 0.07593520737933308 6.074365583116253e-012 6.616387419850007e-021 0.372080848111926 0.567798351968982 0.052728021535574 0.007384450137279027 8.328246238811255e-006 0.2885187578565361 0 0.07573504009101098 0.2282143254253665 0.4075318766270863 0.410368903604742 0.003682187796968579 0.468597611176328 0.1173334462004376 1.785122152393134e-005 0.100830032756362 0.3877342355952289 0.1217713878816451 0.3840891844894586 0.005575159277305548 0.2650631614293263 0.5614986275936648 0.1717443047807504 0.001693871924036049 3.427222258325139e-008 0.4383758906840484 0.401011364666813 0.1606127440785485 5.705899991477824e-010 6.002233427021118e-019 0.577673365110658 0.361634887190759 0.04549371128528045 0.01384910943165466 0.001348926981647892 0.565374113890226 0 0 0.1659798984624493 0.2686459876473248 0 0.03037805974860598 0.2945640161844604 0.6744668689664283 0.000591055100505191 0.5028132558492534 0.2742769165043734 1.158929095588538e-005 0.002342084532820522 0.2205561538225967 0.09417770647260566 0.3850758105574157 0.1295620525873384 0.3911839527219874 4.776606530077135e-007 0.5820112058756989 0.4156462712459878 1.638673801617659e-009 2.262300757731869e-009 0.002342518977338806 0.5869264604663738 0.3644933429170026 0.03823832730404964 0.005753302173403981 0.004588567139170013</probabilities>
			<property id="SoilInfiltration">SoilInfiltration=1-((ObservedSlope/MaxSlope)/3)-((ObservedHSG/HSGD)/3)-((ObservedImperviousCover/100)/3)</property>
		</cpt>
		<cpt id="GreenInfrastructureStorage">
			<state id="VeryHighGreenStorage" />
			<state id="HighGreenStorage" />
			<state id="ModerateGreenStorage" />
			<state id="LowGreenStorage" />
			<state id="VeryLowGreenStorage" />
			<parents>MeanDaysPrecipitationPerYear EvapotranspirationClass SoilInfiltrationClass</parents>
			<probabilities>0.2135627104377007 0.3127104377104776 0.0880997474747368 0.271201599326578 0.1144255050505069 0.1594982578397253 0.026006968641119 0.3352195121950987 0.01095470383275272 0.4683205574913043 0.3910168747255624 0.2350166238002564 0.05382347406059892 0.002634715513455909 0.3175083119001265 0.3109761516812373 0.003703155088135053 0.03882387794400859 0.2792178936453831 0.367278921641236 0.1357562949265192 0.298444169459005 0.1947360371508415 0.327850618022051 0.0432128804415834 0.1865869296868234 0.2091777423568957 0.04549322275619736 0.2143550532711567 0.3443870519289269 0.02153880492315739 0.2677762897774408 0.2064122186085211 0.4131273515719444 0.09114533511893612 0.261644144144134 0.1309572072072048 0.09237612612612335 0.3027027027027089 0.212319819819829 0.4055357080919839 0.1099337518643117 0.1450522007561304 0.2902951683951316 0.04918317089244235 0.388776075318442 0.06987972337797001 0.02433933059740702 0.3327416537680517 0.1842632169381293 0.1980473379724751 0.2554889282654927 0.08517079925367369 0.1768661182627971 0.2844268162455615 0.123200644591451 0.11398112710537 0.383624897345741 0.1961820351116385 0.1830112958457994 0.1960815150812774 0.1705045856371902 0.241557130086425 0.2147882660662847 0.1770685031288228 0.3625860919795644 0.3007998222617171 0.1241057542768264 0.1910686514107972 0.02143968007109501 0.3211103909657149 0.1829926069141284 0.1972624710263538 0.2001515967088131 0.09848293438498965 0.01195250045274591 0.06168990763976909 0.3564147672884582 0.2289861071585357 0.3409567174604911 0.1193535353535297 0.2475420875420462 0.3223164983165408 0.1230572390572369 0.1877306397306465 0.07456396092271535 0.2623599815866112 0.2557311646463029 0.2661961025011639 0.1411487903432067 0.3685840913309756 0.2898644885836363 0.1485288657880063 0.00744848709857055 0.1855740671988113 0.2475727712798445 0.188826998988085 0.0162271065610385 0.2588861641125688 0.2884869590584632 0.1075349165806247 0.2899706537688315 0.1516765393185099 0.05574425302972275 0.3950736373023112 0.1994887669823126 0.2330342841492669 0.2233407749827857 0.1265467703518081 0.2175894035338269 0.3114393428486051 0.1431493294712101 0.1553548330034996 0.2026511591911781 0.1874053354855072 0.3379710580234041 0.02636744939445054 0.2448911725898638 0.19121228049474 0.1995580394975415 0.07393719693046466 0.2151617155501147 0.105503507367826 0.2304387740690178 0.3749588060825768 0.01435063724857713 0.06653477269794861 0.4460883402864401 0.2835863690450587 0.1894398807219756 0.1902118188411237 0.01898116887988615 0.3570660464650944 0.3974041563508206 0.03633680946307522 0.0226972197579632 0.0742848534556355 0.4197479202584397 0.07532263194014356 0.4079473745878181 0.1671817165397041 0.2041264175445628 0.183647108660476 0.2228140473197777 0.2222307099354795 0.1504832254075689 0.2416940548631678 0.1227099671341643 0.4621554781816405 0.0229572744134585 0.26777979456293 0.2030031764366153 0.2826512932634799 0.05354564580669125 0.1930200899302836 0.1612278989762072 0.2286432576371545 0.02628140454177141 0.5096012305453008 0.07424620829956616 0.418860712973173 0.1863432561558224 0.06782800441014544 0.05256890848952589 0.2743991179713332 0.1440560893274487 0.2254790963386087 0.1799324850688182 0.2474058686055534 0.203126460659571 0.1708573967125709 0.2606545239152986 0.05614294881287418 0.233486351744905 0.2788587788143513 0.1320319957865628 0.2629667423768611 0.1893522937994453 0.142752120434072 0.2728968476030588 0.01821140731556075 0.5257865778053427 0.04946140731555969 0.2931261624302486 0.1134144451332883 0.05836181980898124 0.2001584483795716 0.2165754610407706 0.1082877305203853 0.4166165402502912 0.3981573945817075 0.01581677028637703 0.4026833746738416 0.1347807879393094 0.0485616725187645 0.2788843926602939 0.181948998813926 0.2103275657573412 0.1816786436893891 0.1471603990790496 0.07804787184502189 0.04878457669740153 0.4418925211884133 0.1058582471826395 0.3254167830865237 0.127615484242336 0.1347100302201732 0.01243344366095823 0.2556051230392845 0.4696359188372482 0.2513192612137254 0.1946695564769428 0.1644678979771318 0.0128942078150524 0.3766490765171476 0.1451007281157088 0.249703420728994 0.08975740359813515 0.2297754704454549 0.2856629771117072 0.1380664365559394 0.2367079388201017 0.08147819753633756 0.3194633564499619 0.2242840706376593 0.09064444890584265 0.474854446898213 0.2915579200963657 0.08853643846617162 0.05440674563340707 0.05673527879103598 0.1782364326658207 0.2548016079803479 0.2965923472046501 0.2136343333581454 0.1199922167210758 0.06797396925604898 0.6703348971958586 0.0851188031046636 0.05658011372235305 0.3432613821875583 0.3563214220932381 0.1763468166152688 0.08862688191547102 0.03544349718846362 0.00530975699604943 0.3608094203726995 0.1450656097963726 0.3803843857576592 0.1084308270772193 0.85 0.1 0.05 0 0 0.8 0.15 0.05 0 0 0.6 0.2 0.2 0 0 0.35 0.3 0.3 0.05 0 0.3 0.3 0.3 0.1 0 0.7 0.15 0.15 0 0 0.65 0.2 0.15 0 0 0.5 0.3 0.2 0 0 0.2 0.2 0.4 0.2 0 0 0.25 0.4 0.3 0.05 0.5 0.3 0.2 0 0 0.4 0.3 0.3 0 0 0.15 0.3 0.275 0.275 0 0 0.3 0.3 0.4 0 0 0.15 0.35 0.35 0.15 0.4 0.3 0.3 0 0 0.2 0.3 0.3 0.2 0 0 0.35 0.35 0.3 0 0 0.25 0.3 0.4 0.05 0 0 0.3 0.3 0.4 0.25 0.3 0.3 0.15 0 0.15 0.2 0.4 0.25 0 0 0.25 0.25 0.25 0.25 0 0.15 0.15 0.35 0.35 0 0 0.1 0.35 0.55 1 0 0 0 0 1 0 0 0 0 0.95 0.05 0 0 0 0.45 0.45 0.1 0 0 0.4 0.4 0.2 0 0 0.95 0.05 0 0 0 0.85 0.1 0.05 0 0 0.7 0.25 0.05 0 0 0.3 0.5 0.15 0.05 0 0 0.35 0.5 0.15 0 0.7 0.25 0.05 0 0 0.4 0.4 0.2 0 0 0.2 0.4 0.4 0 0 0.1 0.5 0.4 0 0 0 0.2 0.6 0.2 0 0.6 0.35 0.05 0 0 0.3 0.5 0.2 0 0 0 0.55 0.4 0.05 0 0 0.3 0.3 0.4 0 0 0 0.4 0.4 0.2 0.3 0.5 0.2 0 0 0.1 0.425 0.425 0.05 0 0 0.3 0.35 0.3 0.05 0 0.1 0.3 0.35 0.25 0 0 0.2 0.4 0.4</probabilities>
			<property id="GreenInfrastructureInfluence">GreenInfrastructureInfluence=SoilInfiltration+VegetationInfiltrationAndInterception+FloodplainStorage</property>
		</cpt>
	</nodes>
	<extensions>
		<genie version="1.0" app="GeNIe 2.0.3887.0" name="Network1" faultnameformat="nodestate">
			<node id="MeanDaysPrecipitationPerYear">
				<name>MeanDaysPrecipitationPerYear</name>
				<interior color="ffffff" />
				<outline color="000080" />
				<font color="000000" name="Arial" size="8" />
				<position>1085 324 1285 355</position>
				<comment>If this is high, absorption is greater.  If it&apos;s low, it&apos;s less.</comment>
				<barchart active="true" width="341" height="90" />
			</node>
			<node id="VegetationHeight">
				<name>VegetationHeight</name>
				<interior color="ffffff" />
				<outline color="000080" />
				<font color="000000" name="Arial" size="8" />
				<position>1241 424 1342 457</position>
				<comment>A higher canopy actually reduces erosion less - raindrops have more time to gain velocity after being slowed by hitting the leaves.</comment>
				<barchart active="true" width="272" height="108" />
			</node>
			<node id="FloodVegetationType">
				<name>FloodVegetationType</name>
				<interior color="ffffff" />
				<outline color="000080" />
				<font color="000000" name="Arial" size="8" />
				<position>1077 532 1172 562</position>
				<barchart active="true" width="269" height="72" />
			</node>
			<node id="PercentTreeCanopyCoverClass">
				<name>PercentTreeCanopyCoverClass</name>
				<interior color="ffffff" />
				<outline color="000080" />
				<font color="000000" name="Arial" size="8" />
				<position>801 548 913 582</position>
				<barchart active="true" width="230" height="108" />
			</node>
			<node id="SuccessionalStage">
				<name>SuccessionalStage</name>
				<interior color="ffffff" />
				<outline color="000080" />
				<font color="000000" name="Arial" size="8" />
				<position>566 541 689 572</position>
				<barchart active="true" width="197" height="126" />
			</node>
			<node id="EvapotranspirationClass">
				<name>EvapotranspirationClass</name>
				<interior color="ffffff" />
				<outline color="000080" />
				<font color="000000" name="Arial" size="8" />
				<position>594 320 810 354</position>
				<comment>Use DBHs from IVMP data as values for successional stage - 2.5, 7.5, 15, 25, 45 for early, pole, mid, late, and old growth successional stages respectively.</comment>
				<barchart active="true" width="281" height="108" />
			</node>
			<node id="SlopeClass">
				<name>SlopeClass</name>
				<interior color="ffffff" />
				<outline color="000080" />
				<font color="000000" name="Arial" size="8" />
				<position>119 372 164 400</position>
				<barchart active="true" width="207" height="90" />
			</node>
			<node id="HydrologicSoilsGroup">
				<name>HydrologicSoilsGroup</name>
				<interior color="ffffff" />
				<outline color="000080" />
				<font color="000000" name="Arial" size="8" />
				<position>54 521 177 551</position>
				<barchart active="true" />
			</node>
			<node id="PercentImperviousCoverClass">
				<name>PercentImperviousCoverClass</name>
				<interior color="ffffff" />
				<outline color="000080" />
				<font color="000000" name="Arial" size="8" />
				<position>283 539 431 571</position>
				<barchart active="true" width="317" height="126" />
			</node>
			<node id="SoilInfiltrationClass">
				<name>SoilInfiltrationClass</name>
				<interior color="ffffff" />
				<outline color="000080" />
				<font color="000000" name="Arial" size="8" />
				<position>377 318 466 353</position>
				<comment>(IF we had data for bulk density, which I haven&apos;t been able to find at a reasonable spatial resolution):\nWe could replace this whole section of the BN with bulk density -&gt; even asphalt has bulk density; organic vs. conventional farming produces different bulk density (it&apos;s well-known, quantitative, well understood).  Might still want to keep slope but impervious surface and HSG are quite related to bulk density.\n\nConsider adding soil texture: e.g., coarser soils can hold more water but keep it for a shorter time period, while fine soils store less but keep it longer.\n\nCategories for bulk density: Ted has these.  Bulk density also quite important for soil erosion.  Bulk dens. 1.6 a threshold for tree growth, unhealthy vegetation, 1.8 the texture of rock, 2.0 soil &amp; asphalt. (Bulk dens. is a more information-rich variable than impervious surface cover)</comment>
				<barchart active="true" width="228" height="108" />
			</node>
			<node id="GreenInfrastructureStorage">
				<name>GreenInfrastructureStorage</name>
				<interior color="ffffff" />
				<outline color="000080" />
				<font color="000000" name="Arial" size="8" />
				<position>565 140 736 181</position>
				<comment>GreenInfrastructureStorage = (SoilInfiltration + FloodplainStorage + VegetationInfiltrationAndInterception))/MeanDaysOfPrecipitationPerMonth\n(Great, but we don&apos;t have numbers for these values, so in the mean time they&apos;ll be chance nodes).</comment>
				<barchart active="true" width="237" height="108" />
			</node>
			<textbox>
				<caption>Copyright 2011 The ARIES Consortium\n\nThis file is part of ARIES.\n\nARIES is free software: you can redistribute it and/or modify it under the terms of the GNU General Public License as published by the Free Software Foundation, either version 3 of the License, or (at your option) any later version.\n\nARIES is distributed in the hope that it will be useful, but WITHOUT ANY WARRANTY; without even the implied warranty of MERCHANTABILITY or FITNESS FOR A PARTICULAR PURPOSE.  See the GNU General Public License for more details.\n\nYou should have received a copy of the GNU General Public License along with ARIES.  If not, see &lt;http://www.gnu.org/licenses/&gt;.</caption>
				<font color="000000" name="Arial" size="10" />
				<position>1012 23 1420 279</position>
			</textbox>
		</genie>
	</extensions>
</smile>
