<?xml version="1.0" encoding="ISO-8859-1"?>
<smile version="1.0" id="Network1" numsamples="1000" discsamples="10000">
	<nodes>
		<cpt id="AnnualPrecipitationClass">
			<state id="VeryHighMeanAnnualPrecipitation" />
			<state id="HighMeanAnnualPrecipitation" />
			<state id="ModerateMeanAnnualPrecipitation" />
			<state id="LowMeanAnnualPrecipitation" />
			<state id="VeryLowMeanAnnualPrecipitation" />
			<probabilities>0.1613554533726549 0.2108699875899101 0.3364487044618943 0.2788597024016714 0.01246615217386939</probabilities>
		</cpt>
		<cpt id="PercentTreeCanopyCoverClass">
			<state id="HighCanopyCover" />
			<state id="ModerateCanopyCover" />
			<state id="LowCanopyCover" />
			<probabilities>0.6382962178092847 0.08469820367554008 0.2770055785151752</probabilities>
		</cpt>
		<cpt id="SedimentVegetationType">
			<state id="ForestGrasslandWetland" />
			<state id="ShrublandPasture" />
			<state id="CropsBarrenDeveloped" />
			<probabilities>0.7129327272986156 0.1229199513601622 0.1641473213412223</probabilities>
		</cpt>
		<cpt id="SuccessionalStage">
			<state id="OldGrowth" />
			<state id="LateSuccession" />
			<state id="MidSuccession" />
			<state id="PoleSuccession" />
			<state id="EarlySuccession" />
			<state id="NoSuccession" />
			<probabilities>0.07842424942978182 0.09851910573862026 0.1723429693098234 0.09241200056881722 0.09657925525786246 0.4617224196950949</probabilities>
		</cpt>
		<cpt id="VegetativeMaturity">
			<state id="HighVegetativeMaturity" />
			<state id="ModerateVegetativeMaturity" />
			<state id="LowVegetativeMaturity" />
			<state id="NoVegetativeMaturity" />
			<parents>SuccessionalStage SedimentVegetationType PercentTreeCanopyCoverClass</parents>
			<probabilities>0.3267418692797824 0.3944841430351337 0.1265111680368288 0.152262819648255 0.1340099395942858 0.3063583142260565 0.269614404264534 0.2900173419151237 0.1373778006454963 0.05142897235601621 0.6311801300341308 0.1800130969643567 0.2746954274564114 0.4308317071884332 0.1364643215019914 0.1580085438531639 0.0323205401563584 0.2312366737740241 0.4957889125798835 0.240653873489734 0.28221902085345 0.6698627872376111 0.001865715702713985 0.04605247620622505 0.6061012703524575 0.1349525854356701 0.1506530685274604 0.108293075684412 0.6407510574641542 0.1557412565769116 0.1006293201279208 0.1028783658310135 0.1075410622227702 0.2513744497920183 0.272886087656521 0.3681984003286906 0.3382863107477322 0.2032511589349161 0.1457648973083361 0.3126976330090156 0.2589860198754433 0.2576385379820482 0.07938352703387802 0.4039919151086304 0.4186165429442345 0.0761201135542135 0.1665402994022078 0.3387230440993442 0.1913490201052585 0.03263144542399245 0.7446882729752218 0.03133126149552739 0.2169269843809641 0.1027738335699907 0.4168549887007054 0.2634441933483399 0.3406014733808094 0.1427994235768258 0.08572275120864244 0.4308763518337224 0.01820258405311357 0.2415054607752094 0.5147226782783203 0.2255692768933567 0.2506188233980433 0.2563324710130238 0.3084625262883415 0.1845861793005913 0.05622794982360563 0.6746618972951508 0.1387936103488885 0.1303165425323552 0.562240845391571 0.2423325226992163 0.07642108578201909 0.1190055461271935 0.2757988859575126 0.2482409850485447 0.2845481530340729 0.1914119759598698 0.1060523446021967 0.1561023264267124 0.6327471828425417 0.1050981461285491 0.3658314184631549 0.1094941094941013 0.2872548662021232 0.2374196058406206 0.2529420064907869 0.3778467616762457 0.2696909834909054 0.09952024834206191 0.03880696571935152 0.2280534578458929 0.01267360697524299 0.7204659694595126 0.1332910342134781 0.3532871296793106 0.3226853433549168 0.1907364927522944 0.3754565073040848 0.2306606905710838 0.188565183709554 0.2053176184152774 0.4096689996839689 0.03803760535980309 0.347026649598677 0.205266745357551 0.2124051852149224 0.01216037243647366 0.4848296343846856 0.2906048079639184 0.2454113094269717 0.4332447241361172 0.06177326895600276 0.2595706974809083 0.1343517057512314 0.4209967898142651 0.1482534414278368 0.2963980630066666 0.1679280837787446 0.1913749961384634 0.2445862037008396 0.3961107163819526 0.2794972640218744 0.3539671682626543 0.2886456908344895 0.07788987688098198 0.2217823851036923 0.148172225253337 0.3035069593582952 0.3265384302846755 0.01225291873771697 0.4379840480870165 0.1043520980233649 0.4454109351519017 0.08598441292959524 0.5856394531749226 0.02614028363357369 0.3022358502619084 0.3958748973123764 0.1435130853185363 0.06277138833466472 0.3978406290344227 0.3477306816280696 0.2507638464527473 0.3929920559977715 0.008513415921411754 0.2079767526333481 0.260414093715806 0.2749582273883658 0.2566509262624801 0.2929567153705101 0.4376811152125151 0.2678674922977353 0.00149467711923938 0.2992624402213483 0.3891778090710513 0.1674358295107309 0.1441239211968696 0.03030003947888224 0.1372173030285761 0.387400597823002 0.4450820596695396 0.3470594849880366 0.3025750590350729 0.2784212301812796 0.07194422579561091 0.2750576265798461 0.3294783138594589 0.0969451288980306 0.2985189306626643 0.04038908860224012 0.4228519066750747 0.2922675689011425 0.2444914358215427 0.1644354635009364 0.5386671718448841 0.02978445735454649 0.267112907299633 0.07471031818832281 0.1440868125779577 0.7156887989759803 0.06551407025773925 0.02707930367498285 0.1758716050953215 0.4790990616561912 0.3179500295735045 0.3138265161977047 0.01577276580178249 0.321854172554261 0.3485465454462517 0.1856312214214623 0.2181848973524101 0.1271851419756312 0.4689987392504963 0.406006624294912 0.3512815922181416 0.1820636767820518 0.06064810670489473 0.112224569876491 0.4215061877453706 0.3224720796856498 0.1437971626924886 0.2444082475867589 0.335650815091868 0.3384847642118973 0.08145617310947587 0.117763991436857 0.493009742671304 0.06415745554635166 0.3250688103454873 0.2722766956068194 0.1392554728846353 0.2154040916746764 0.3730637398338689</probabilities>
		</cpt>
		<cpt id="SlopeStabilityClass">
			<state id="HighSlopeStability" />
			<state id="ModerateSlopeStability" />
			<state id="LowSlopeStability" />
			<probabilities>0.7012266399811893 0.1510707394358663 0.1477026205829445</probabilities>
		</cpt>
		<cpt id="SlopeClass">
			<state id="Level" />
			<state id="GentlyUndulating" />
			<state id="RollingToHilly" />
			<state id="SteeplyDissectedToMountainous" />
			<probabilities>0.08802017021791565 0.2390702036253385 0.3173161948800277 0.3555934312767182</probabilities>
		</cpt>
		<cpt id="SoilTextureClass">
			<state id="FineSoilTexture" />
			<state id="MediumSoilTexture" />
			<state id="CoarseSoilTexture" />
			<probabilities>0.03495167064169543 0.4056343595386039 0.5594139698197007</probabilities>
		</cpt>
		<cpt id="HydrologicSoilsGroup">
			<state id="SoilGroupA" />
			<state id="SoilGroupB" />
			<state id="SoilGroupC" />
			<state id="SoilGroupD" />
			<probabilities>0.1028902933231833 0.2853369382216763 0.4562166452147888 0.1555561232403515</probabilities>
		</cpt>
		<cpt id="SoilErodibilityClass">
			<state id="VeryHighSoilErodibility" />
			<state id="HighSoilErodibility" />
			<state id="ModerateSoilErodibility" />
			<state id="LowSoilErodibility" />
			<state id="VeryLowSoilErodibility" />
			<parents>SlopeClass SoilTextureClass HydrologicSoilsGroup SlopeStabilityClass</parents>
			<probabilities>0.02728851819190256 0.005712812461617122 5.376633860604813e-008 0.9530185445854383 0.01398007099470327 0.113845592405739 0.05400032806484933 3.095131768421788e-009 0.8005670537475373 0.03158702268674261 0.03072674679485453 0.06384261614932583 0 0.9024119702106944 0.003018666845125204 0.05073273842022183 0.1632848766480063 0.003732100770134154 0.7798065832592634 0.002443700902374213 0.1511066389470246 0.7499136977666524 4.122580510953503e-009 0.07457555318803601 0.02440410597570644 0.01569301333144519 0.8492496024053877 0 0.1282375130650044 0.006819871198162801 5.476663609678892e-005 0.5870870719863444 0.04311324031084786 0.3696969758262783 4.794524043277561e-005 1.3623560718624e-008 0.976257132812514 0.007996904108595833 0.01574594760541647 1.849912908285233e-009 2.250255536124534e-008 0.9967014324022933 3.290186171705138e-008 0.00329851181541486 3.778748288121572e-010 0.01286808914452492 0.5317059689485538 0.02552901299076292 0.4298969283149852 6.011730163965567e-010 9.768731826728131e-007 0.9370815116836778 0.009891200336871573 0.0530263085066228 2.599644980058057e-009 1.559001878478923e-005 0.9741748428791561 0.005679572726709414 0.02012999408078946 2.945601587231406e-010 0.0008138725471244276 0.2277054934211741 0.01062749464658558 0.7550575352023458 0.005795604182770274 0.001534909308660436 0.8227755372588841 4.137534184523307e-010 0.1742988134646041 0.001390739554098021 0.006964887759168788 0.8975403303531243 0 0.09544389604645963 5.088584124737197e-005 0.02445187690916153 0.4377508795636472 0.03184594194183043 0.5058852904736921 6.601111166878506e-005 0.0009680009660134753 0.6220507942389736 0.02146096831937658 0.3542206022638531 0.001299634211783352 0.01022273883553969 0.7390326172504691 0 0.2504382572551199 0.0003063866588714 0.009418849056830568 0.596476628022021 0.03913995105025841 0.3545913082631568 0.0003732636077332651 4.329012542733636e-005 0.916422008512631 0.002816285363913045 0.08071841080453081 5.19349782376769e-009 1.102185994243953e-005 0.9636297677906183 0.001439099268734107 0.03492010545452114 5.626184101207163e-009 0.003199971756997364 0.6223750059746342 0.02026595903723248 0.3541590626456348 5.85501175977636e-010 6.976820247468858e-010 0.9914461498732458 3.222011977327733e-012 0.008553849402805439 2.304486356595053e-011 1.680737415182965e-008 0.9946269870242529 0.0004487722436749818 0.00492422391774476 6.953073936596906e-012 0.0457917490306131 0.1382784668968285 0.06303054784361917 0.7528992035678351 3.266110420855326e-008 0.1062767160920105 0.6588549673063466 0.00962241211426248 0.2252454543178145 4.501695659094332e-007 0.1110355609405829 0.7856918853144518 0.002610979883115727 0.100661500537349 7.332450056757084e-008 0.0005508350377443195 0.3145421130295509 0.0128192078903716 0.6707767000412783 0.00131114400105478 0.00213029113255108 0.8695165305940475 0.001556488096503731 0.1221710555314717 0.004625634645425928 0.03236029423406808 0.9078806875603889 0.001547449670372895 0.05596274056623081 0.002248827968939494 0.008547260559857089 0.1691294182086164 0.01868632901693115 0.8036346187653248 2.373449270603144e-006 0.001058013246418277 0.8641359172365104 0.001402456425808698 0.1334032259225442 3.871687183577174e-007 0.006027733878936158 0.9224695953143156 5.989104160880369e-012 0.07150217214197892 4.986587800899089e-007 0.03523825510318975 0.2933690604543943 0.008440512911055105 0.6608472686739932 0.00210490285736766 0.01768467660910197 0.8494042828004397 0.01381230101772527 0.1188893628600045 0.0002093767127286057 0.0007327653778793617 0.9618349477666438 0.002960589535897807 0.03446568288007252 6.014439506529355e-006 0.003015441982108433 0.0008347928902166148 3.729323527019676e-006 0.9066420550666929 0.08950398073745496 0.0001132354438691002 0.0007421049348941407 7.282388318687233e-009 0.9932182631667244 0.005926389172124055 5.011947985213004e-005 0.0005971164012041241 1.415263017850806e-009 0.9981369391428716 0.001215823560809152 0.0270039738069856 0.0780604276780362 0.005394101962925532 0.7342730112683639 0.1552684852836888 0.01192820659953819 0.2144248050677537 0.05193293400091914 0.4215680316035326 0.3001460227282563 0.003701698457366401 0.0188063274095548 7.389318625547653e-007 0.6378822933930937 0.3396089418081226 8.105980200083104e-006 0.1188244533932524 0.07759602513411865 0.8033675430174198 0.0002038724750090815 3.518501556176548e-006 0.6698549300272332 0.1000464389216325 0.2300478106050807 4.730194449750451e-005 3.53645498110784e-007 0.8977347790558709 0.00375858408406495 0.0985030474644618 3.235750104119948e-006 0.01205615905754575 0.2120197663129085 0.02542784092141946 0.7504143183190545 8.191538907171533e-005 0.01291702813923664 0.147488176620859 0.04477329525632864 0.7948209216937251 5.782898506115965e-007 0.01739604511276748 0.6582899438770224 0.01028127873861929 0.314030101856961 2.630414629889825e-006 0.001201635935390131 0.1036480670558472 0.02577189015404066 0.856669569905531 0.01270883694919107 0.00306004131008813 0.1227274346583726 0.01171436822055622 0.8209952594163248 0.04150289639465837 0.001202399575183384 0.3267871363292045 0.01678009556582937 0.6551182468025201 0.0001121217272626471 0.008529657919968323 0.2287218838694529 0.05149042651477754 0.7110715499837077 0.0001864817120935301 0.001077594035367762 0.1882136529026084 0.0682487361312594 0.7424259794106437 3.403752012084222e-005 7.888108142837214e-006 0.1547262327594833 0.0154200997732021 0.8267607490180285 0.003085030341143268 0.003375969486299554 0.2548702132263571 0.02320245881993039 0.7181765258716177 0.0003748325957953125 0.0002077322226521919 0.1889609554072157 0.01539575597145823 0.7940952537397108 0.001340302658963133 0.0006562334196851634 0.3717694425886584 0.01167266321212151 0.6158951089804768 6.5517990582787e-006 0.005766446522063738 0.2942669026130629 0.01285039130755777 0.6871159607372177 2.988200979420045e-007 0.004613560032944318 0.6351493228835375 0.0007233203149449562 0.3595133237813712 4.729872019789225e-007 0.006894978633482396 0.7769996738642011 0.003292297196615335 0.2128107834755102 2.26683019090079e-006 0.02293314035720375 0.0795960561895461 0.03708871675086667 0.8603820063454464 8.035693720439638e-008 0.009267176484212254 0.1284272804992604 0.02553487529002069 0.8367700185294358 6.491970708786606e-007 0.0147431038223937 0.2985915867381723 0.02403382372389688 0.6626299241126459 1.56160289125943e-006 0.0009782219996327046 0.1480079242052921 0.02044324683220132 0.8260774295021527 0.004493177460721108 0.0003785248028482375 0.1209709511492572 0.04730995680873065 0.8154155759415384 0.01592499129762552 0.00195818393147229 0.1816536625675285 0.01898658850004913 0.7926522265077535 0.004749338493196515 0.004022072561423922 0.04352359889715596 0.009261923270160469 0.9431818894000195 1.051587124026536e-005 0.002927108074297543 0.103112952175884 0.009213077990167086 0.8843850982746686 0.0003617634849826187 0.006746906694629292 0.3348680505266533 0.004431085281249551 0.6539237099923803 3.02475050875924e-005 0.02778525315870347 0.09910659927010738 0.01362476715145154 0.8542415072849303 0.005241873134807308 0.0006925291191873886 0.1948534160369184 0.1050805500282994 0.6984637340612936 0.0009097707543013129 0.0009707679156975634 0.4119471872499807 0.1359400998311428 0.4318836736272175 0.01925827137596141 6.440581383640115e-006 2.525617283717302e-007 4.890042463269934e-008 0.9372963515236106 0.06269690643285283 4.345240828001305e-008 1.083550748990682e-007 1.038431927018769e-010 0.9599537127782417 0.04004613531043191 9.764993472373432e-007 4.063068801266266e-007 7.045709990722811e-009 0.9940727917689334 0.0059258183791293 0.0002641043163713434 0.0273416275189656 0.03517735525287857 0.2019136339288414 0.735303278982943 4.669608674466382e-005 0.008796556802052999 0.06471334969969662 0.2674029557983703 0.6590404416131355 0.0001307385293497246 0.01510130735834406 0.009292884770447474 0.4078332264357885 0.5676418429060701 2.000294117417264e-005 0.09422642628334245 0.2768493453173873 0.6155577502795788 0.01334647517851733 1.527225006483344e-006 0.06575591205605445 0.3874695409335126 0.4551514825664217 0.09162153721900472 7.299567817359897e-005 0.1740117015550173 0.03197241663864504 0.4953942009918793 0.2985486851362848 0.00582588808600268 0.09083755022620008 0.0418597784599833 0.8610168553104532 0.0004599279173606256 0.0009225574794847274 0.04905768731450692 0.0401410890106332 0.9084517839581701 0.001426882237205084 0.001990358589069132 0.08818891202048323 0.02688326983159278 0.8826127943979544 0.0003246651609004266 7.826365698132905e-005 0.04775809475298907 0.01092926303275913 0.8103507897547628 0.1308835888025077 1.138861140882831e-005 0.02058370740632704 0.001800663325692977 0.7483581839726964 0.2292460566838748 8.36350263338009e-005 0.03026282290281814 0.005962282198117573 0.9295151296741643 0.03417613019856623 0.001672643873330484 0.1472363307354229 0.07979706642690705 0.7696232720267457 0.001670686937593803 0.0002416846863987834 0.1190086226831834 0.09838297518167537 0.7804077724961488 0.001958944952593667 0.0006891020916338686 0.09573610596033191 0.01587524406410841 0.887601180265322 9.836761860380794e-005 0.0004846765507479113 0.1043410253175329 0.01731485521199103 0.8747200734466848 0.003139369473043366 0.0001691895354648969 0.06469431138676259 0.01530561751846132 0.9145050801068325 0.00532580145247874 0.0001826497161759471 0.08058817643124026 0.007398285543232239 0.9101815050883841 0.001649383220967334 0.004091234066701218 0.2181262314273524 0.009229785734567153 0.7682060690010245 0.0003466797703545584 0.002768833184853769 0.1304015720621666 0.008751788354763116 0.8549624456092408 0.003115360788975749 0.001164509963883969 0.135202508923316 0.006328386010632079 0.8566813217908701 0.0006232733112978207 0.01549894335970551 0.05887156014092664 0.02719153423961971 0.8982836590386182 0.0001543032211298646 0.007961445394571207 0.04023451794776129 0.037948972872398 0.9126715735541253 0.001183490231144152 0.007265078764164555 0.05127070235341844 0.01936070955128413 0.9217733451705609 0.000330164160572134 0.0003805791693342804 0.04381954960404732 0.02795553366533266 0.908374712656704 0.0194696249045818 5.385533860461191e-005 0.02146933928675957 0.04213557324221193 0.9114295177768087 0.02491171435561519 0.0002572971136474769 0.03172285378528645 0.04668307804737235 0.9128604409418983 0.008476330111795371 0.003550073181061148 0.02845257999062817 0.008476627021208263 0.9588814606653228 0.0006392591417797904 0.001447224835021698 0.01960886857282031 0.01621383345165152 0.9601985135667766 0.002531559573729876 0.001118453848029684 0.0392059913051559 0.009792797735157788 0.9494541096617576 0.0004286474498990261 0.004632065939257692 0.03869572221891289 0.07606440301550373 0.8447617176493685 0.0358460911769573 0.0004723318064247899 0.03027168629323215 0.1406847179170432 0.7856196040080714 0.04295165997522844 0.0005507907531183252 0.01901870346253149 0.1366922017641062 0.8282533217489589 0.01548498227128521 1.265581921112169e-010 2.154628118218532e-010 1.051040334376707e-010 0.9967195580487727 0.003280441504102373 3.547290708247154e-012 2.667134311525757e-011 2.372293394272924e-010 0.9954845213785046 0.004515478354047394 2.218022263803358e-010 1.109919636856879e-010 2.799444203304752e-010 0.9975354401116123 0.002464559275649033 1.002611635148778e-007 0.003269207851002704 0.01935303214621072 0.6988949144891579 0.2784827452524653 1.135646844347641e-008 0.002756154525608303 0.01504487115151966 0.7365418556281487 0.245657107338255 1.721583903378607e-009 0.002250520854682876 0.002902655859430023 0.7310242968033839 0.2638225247609192 1.179687508839321e-007 0.007890644525263038 0.06425328131840029 0.794482837554818 0.1333731186327678 1.588763960027153e-008 0.003148245437474952 0.04099440511637596 0.9490176808513258 0.006839652707183711 2.707944754674416e-009 0.004138525211385651 0.003779205729008402 0.878856638870385 0.1132256274812763 0.0007522754198662388 0.03258521688345663 0.04666333653168547 0.9021099021591794 0.01788926900581229 1.463167484800142e-009 0.01288813253050488 0.02063188242228323 0.9607079116624013 0.005772071921643232 2.680771597089911e-009 0.02263414104901178 0.02530498163940819 0.9427306645852798 0.009330210045528635 1.353364926303623e-008 0.0007381280469937576 3.020346941753636e-008 0.9760622196377629 0.0231996085781246 5.269169875712126e-009 0.0007097610027133028 1.61070906516891e-007 0.7658557054065606 0.2334343672506498 1.560383203870639e-008 9.829541289768962e-007 4.550262237930662e-007 0.9721834961141167 0.02781505030169856 0.0004533264998385613 0.04761044181925397 0.05993535618049379 0.8878998436694852 0.004101031830928545 5.017396600019257e-005 0.02841224456600667 0.04309988984064622 0.9094348208321873 0.01900287079515958 0.0001885372407295016 0.01869704000043422 0.01312084520971468 0.9506774503748772 0.01731612717424453 1.355647427093444e-008 0.02842015211625296 0.01422026340060083 0.9383609972373997 0.01899857368927221 3.64056920479668e-005 0.01392129094870981 0.01251116566713151 0.9282976986001764 0.04523343909193438 1.119890533508273e-009 0.01587954733058778 0.005353287537318488 0.963790449008034 0.0149767150041691 1.409368181621339e-007 0.02807706007975948 0.005133552278007185 0.931956605337104 0.03483264136831104 5.341117093475518e-009 0.008427032300701376 0.01193215612994795 0.8910597272099112 0.08858107901832223 8.766246104362426e-010 0.01100745684139245 0.00576505316861086 0.8991300106083313 0.08409747850504067 0.001972762852584704 0.01334761206665548 0.0385228561631582 0.9344634378899985 0.01169333102760308 0.000697354522521794 0.00492407711110833 0.03495670375784258 0.9553704100051015 0.004051454603425787 0.0008551395494275372 0.008514950412031926 0.0224003383515659 0.9563582420028505 0.01187132968412419 9.46793659492032e-011 0.006774566530500056 0.07584202634596525 0.8963533971939892 0.02103000983486623 2.335746528105987e-011 0.003017798094622794 0.06783213918888806 0.9095334525775985 0.01961661011553315 3.303896609289986e-011 0.004911799703660159 0.06519000619687128 0.9194401406871695 0.01045805337926004 0.0004035719127529296 0.006772458189949175 0.03506437606127636 0.9182605221198339 0.03949907171618762 7.94874060607288e-005 0.002654378917371672 0.04000443221612466 0.9353417615398166 0.02191993992062623 0.000224964960349999 0.003902795084357028 0.03080003362644247 0.9402023256854001 0.02486988064345041 3.908135591482505e-005 0.00349487798856222 0.1960788640629982 0.7631309857295334 0.03725619086299131 2.888813680352599e-010 0.002386883696205582 0.2130110880871065 0.7606072083309791 0.02399481959682765 4.826852301543043e-005 0.001815482612786514 0.1788496574167305 0.8114803556004143 0.007806235847053136</probabilities>
		</cpt>
		<cpt id="AnnualSedimentSourceClass">
			<state id="HighAnnualSedimentSource" />
			<state id="ModerateAnnualSedimentSource" />
			<state id="LowAnnualSedimentSource" />
			<state id="NoAnnualSedimentSource" />
			<parents>SoilErodibilityClass AnnualPrecipitationClass VegetativeMaturity</parents>
			<probabilities>0.2051789497156867 0.2489965436503508 0.1285678447987524 0.4172566618352102 0.1402753145849179 0.413799510176507 0.3088083776708034 0.1371167975677717 0.1376402638083029 0.2966257384914297 0.1580602952644031 0.4076737024358643 0.5475335024775655 0.110562432952475 0.05867829107565514 0.2832257734943044 0.03659973152891499 0.3477522395419555 0.4547571432485013 0.1608908856806282 0.0287572749058542 0.2030487035802457 0.3245824249085565 0.4436115966053436 0.3892234341323228 0.4221670694272109 0.0362353863235583 0.1523741101169079 0.3479591518066282 0.1439836357390457 0.1500890040910642 0.3579682083632619 0.3212030674235625 0.2059755004481639 0.2135145901802619 0.2593068419480118 0.3214185254253196 0.2411993290758102 0.1928802858720463 0.2445018596268239 0.01777103941939637 0.4156434856091865 0.227568722970621 0.3390167520007961 0.3443071517036799 0.44805437944641 0.1488810161583004 0.05875745269160982 0.2030937946845339 0.2704647782465436 0.3833918294513205 0.1430495976176022 0.4641335341043812 0.3332906160894293 0.1243872745330586 0.07818857527313081 0.4178967431377822 0.2868153424505101 0.1660290209936053 0.1292588934181023 0.153421052631585 0.3476206140350701 0.3260197368421266 0.1729385964912183 0.5950356437344138 0.1356394400068825 0.1651206733659808 0.104204242892723 0.4406602195884641 0.3056351341525339 0.02867737948083875 0.2250272667781632 0.2525925643856932 0.1909041290633928 0.2169122780295284 0.3395910285213857 0.2980422079130601 0.114657386384773 0.2983864964454647 0.2889139092567023 0.6669004002687918 0.02331492681216747 0.1807052911443993 0.1290793817746414 0.5288502580419602 0.0482713127158412 0.009836638081564167 0.4130417911606343 0.1942042476055884 0.3954021017563292 0.131041324743397 0.2793523258946853 0.09349836324101372 0.4823301713220602 0.185993166232583 0.2381782992043429 0.01356767589232785 0.4747603314738118 0.3177165141092202 0.1939554785246403 0.4872154983683603 0.1703085629311791 0.1320170184642054 0.2104589202362552 0.4583041554300699 0.09145224011802473 0.1815188402341935 0.2687247642177117 0.3286410105443137 0.2866911095649351 0.3579858695069862 0.02668201038376489 0.2699165007578278 0.303405342763043 0.2815945086616339 0.1450836478174954 0.2645801142693541 0.2234958736088596 0.1677866015067486 0.3441374106150377 0.4657286691617497 0.07709077348946895 0.4195315749469897 0.03764898240179169 0.2569967630125492 0.049843879801849 0.4206794809356966 0.2724798762499053 0.2088739953138688 0.3587517952071813 0.2645065383355233 0.1678676711434265 0.1440304628001807 0.2468892794369468 0.3465260691271724 0.2625541886357002 0.522625107135767 0.1479421384968801 0.2246593552665101 0.1047733991008428 0.4000446410441976 0.242826995658486 0.2208514264846816 0.1362769368126348 0.04982155088503902 0.2595983993654877 0.3607195645120877 0.3298604852373855 0.3525760950259783 0.2064142538975291 0.3875426874536272 0.05346696362286536 0.6179343723635604 0.132054526886022 0.1928866391368172 0.05712446161360046 0.02334722792164633 0.5119543854344689 0.1964320425044686 0.2682663441394161 0.1881294906974152 0.162323346075237 0.5096198074451107 0.1399273557822372 0.1963472649126601 0.1369010419988301 0.37480071932351 0.2919509737649999 0.3120814527133549 0.09654665686996172 0.2924320352682241 0.2989398551484593 0.2294715951376513 0.1842425745923486 0.2993504882615099 0.2869353420084903 0.2618942954721508 0.1125519899908789 0.1330605619991506 0.4924931525378197 0.4885202245573324 0.2096048654095056 0.1340146825968095 0.1678602274363524 0.1742480445979833 0.333329800538404 0.322106111028692 0.1703160438349208 0.2731570653124718 0.1015194848148832 0.3546567053834864 0.2706667444891586 0.2511169544375675 0.3387397030763754 0.2121049937171075 0.1980383487689494 0.1013017176191024 0.1976882359295002 0.595684346980742 0.1053256994706555 0.3459976153425946 0.1385728431986333 0.3943172402644156 0.1211123011943565 0.2109509563956348 0.2222524400929739 0.1565285709968705 0.4102680325145208 0.2705024858812238 0.09159144663801372 0.3441135299511451 0.2937925375296173 0.1480002495789388 0.198115679790248 0.2477194733884981 0.4061645972423152 0.2534003006196027 0.1965575393187984 0.3872310004765613 0.1628111595850375 0.08330640470505772 0.3612098494150534 0.4862448566319611 0.0692388892479277 0.2666806953931808 0.2797921590210091 0.439379714461462 0.01414743112434808 0.3835559111330078 0.2641639485506734 0.2049356883500483 0.1473444519662706 0.06635845971697491 0.459604217173139 0.1899795155137108 0.2840578075961754 0.1750360981870713 0.01790470078613812 0.7329375902454655 0.07412161078132512 0.3193130773549747 0.2270244020889223 0.1472292427727033 0.3064332777833997 0.1404327535001515 0.2048292781898245 0.3622143107517332 0.2925236575582908 0.1018879151788297 0.01633668722284544 0.4102023152631197 0.4715730823352051 0.01470822070281899 0.2473631207927459 0.3583770604757063 0.3795515980287288 0.02218860312664505 0.04513363590509966 0.370482434014473 0.5621953269537822 0.1030598138946675 0.2386984958849871 0.3107681515270285 0.3474735386933169 0.1224738251777134 0.4996510023514513 0.1335443551675194 0.2443308173033159 0.2195887515217781 0.1722631477765708 0.2439561847425504 0.3641919159591006 0.1147216417088623 0.0931003598307112 0.3773353655625125 0.414842632897914 0.2881842937816323 0.279644387490099 0.2152597012531291 0.2169116174751396 0.05747332556354214 0.3301652769108477 0.3473355449930115 0.2650258525325988 0.4258244880338827 0.2898152146761864 0.1837398004391177 0.1006204968508132 0.2889679866125115 0.1701307231090976 0.4916629589575675 0.04923833132082344 0.2744093085856628 0.2947718367830334 0.2378794474978106 0.1929394071334933 0.3439718287866795 0.3221859433697299 0.1428284876918829 0.1910137401517078 0.4511550128338211 0.1543711596782759 0.2406082289801791 0.1538655985077239 0.4767011592115933 0.3146244023838654 0.00579605737114326 0.202878381033398 0.3714034057545899 0.5019713111316118 0.008598271957050891 0.1180270111567475 0.28044686021441 0.2368771306147203 0.2793477420851358 0.2033282670857339 0.3930329420674176 0.07299949514071202 0.2537706676764641 0.2801968951154063 0.3653823586935955 0.3053654084360623 0.2745680943997437 0.05468413847059853 0.4065562774057466 0.2046631802540767 0.3460243717626555 0.04275617057752135 0.1603384389205432 0.2828575286158689 0.4807602874328416 0.07604374503074626 0.2166899024098137 0.2483142231200067 0.1292713460608157 0.4057245284093639 0.05626685237763629 0.2611739076087874 0.4011535508294493 0.2814056891841271 0.2868991426644819 0.1968596474328039 0.2084866583180809 0.3077545515846334 0.1609548405109214 0.4458016332798376 0.09291547427932999 0.3003280519299109 0.07343539497856717 0.2118554807103571 0.1818493570116371 0.5328597672994387 0.2876813784764213 0.01458585247883912 0.4589480048367581 0.2387847642079815 0.2708399953951826 0.1874032668619446 0.1303291165146643 0.4114276212282086 0.2515164143168037 0.4679044929079644 0.2741893164174045 0.006389776357827457 0.06100128510103106 0.6339376042435673 0.2258770130970939 0.0791840975583076 0 0 0 1 0 0 0 1 0 0 0 1 0 0 0 1 0 0 0 1 0 0 0 1 0 0 0 1 0 0 0 1</probabilities>
		</cpt>
	</nodes>
	<extensions>
		<genie version="1.0" app="GeNIe 2.0.3887.0" name="Network1" faultnameformat="nodestate">
			<node id="AnnualPrecipitationClass">
				<name>AnnualPrecipitationClass</name>
				<interior color="ffffff" />
				<outline color="000080" />
				<font color="000000" name="Arial" size="8" />
				<position>633 283 682 313</position>
				<barchart active="true" width="344" height="108" />
			</node>
			<node id="PercentTreeCanopyCoverClass">
				<name>PercentTreeCanopyCoverClass</name>
				<interior color="ffffff" />
				<outline color="000080" />
				<font color="000000" name="Arial" size="8" />
				<position>931 389 1042 423</position>
				<barchart active="true" width="238" height="72" />
			</node>
			<node id="SedimentVegetationType">
				<name>SedimentVegetationType</name>
				<interior color="ffffff" />
				<outline color="000080" />
				<font color="000000" name="Arial" size="8" />
				<position>1266 267 1371 297</position>
				<barchart active="true" width="251" height="72" />
			</node>
			<node id="SuccessionalStage">
				<name>SuccessionalStage</name>
				<interior color="ffffff" />
				<outline color="000080" />
				<font color="000000" name="Arial" size="8" />
				<position>1232 400 1347 435</position>
				<barchart active="true" width="242" height="126" />
			</node>
			<node id="VegetativeMaturity">
				<name>VegetativeMaturity</name>
				<interior color="ffffff" />
				<outline color="000080" />
				<font color="000000" name="Arial" size="8" />
				<position>945 268 1069 307</position>
				<barchart active="true" width="291" height="90" />
			</node>
			<node id="SlopeStabilityClass">
				<name>SlopeStabilityClass</name>
				<interior color="ffffff" />
				<outline color="000080" />
				<font color="000000" name="Arial" size="8" />
				<position>630 425 711 463</position>
				<barchart active="true" width="277" height="72" />
			</node>
			<node id="SlopeClass">
				<name>SlopeClass</name>
				<interior color="ffffff" />
				<outline color="000080" />
				<font color="000000" name="Arial" size="8" />
				<position>138 416 189 449</position>
				<barchart active="true" width="300" height="90" />
			</node>
			<node id="SoilTextureClass">
				<name>SoilTextureClass</name>
				<interior color="ffffff" />
				<outline color="000080" />
				<font color="000000" name="Arial" size="8" />
				<position>387 425 455 461</position>
				<barchart active="true" width="208" height="72" />
			</node>
			<node id="HydrologicSoilsGroup">
				<name>HydrologicSoilsGroup</name>
				<interior color="ffffff" />
				<outline color="000080" />
				<font color="000000" name="Arial" size="8" />
				<position>44 280 171 319</position>
				<comment>e.g., permeability: more permeable soils (HSG A) would potentially be more erosive than less permeable soils (HSG D).</comment>
				<barchart active="true" width="128" height="90" />
			</node>
			<node id="SoilErodibilityClass">
				<name>SoilErodibilityClass</name>
				<interior color="ffffff" />
				<outline color="000080" />
				<font color="000000" name="Arial" size="8" />
				<position>291 281 380 318</position>
				<barchart active="true" width="234" height="108" />
			</node>
			<node id="AnnualSedimentSourceClass">
				<name>AnnualSedimentSourceClass</name>
				<interior color="ffffff" />
				<outline color="000080" />
				<font color="000000" name="Arial" size="8" />
				<position>587 131 721 164</position>
				<barchart active="true" width="334" height="90" />
			</node>
			<textbox>
				<caption>Copyright 2011 The ARIES Consortium\n\nThis file is part of ARIES.\n\nARIES is free software: you can redistribute it and/or modify it under the terms of the GNU General Public License as published by the Free Software Foundation, either version 3 of the License, or (at your option) any later version.\n\nARIES is distributed in the hope that it will be useful, but WITHOUT ANY WARRANTY; without even the implied warranty of MERCHANTABILITY or FITNESS FOR A PARTICULAR PURPOSE.  See the GNU General Public License for more details.\n\nYou should have received a copy of the GNU General Public License along with ARIES.  If not, see &lt;http://www.gnu.org/licenses/&gt;.</caption>
				<font color="000000" name="Arial" size="10" />
				<position>942 524 1350 780</position>
			</textbox>
		</genie>
	</extensions>
</smile>
